<?xml version="1.0"?>
<opencv_storage>
<opencv_ml_svm>
  <format>3</format>
  <svmType>C_SVC</svmType>
  <kernel>
    <type>LINEAR</type></kernel>
  <C>2.</C>
  <term_criteria><epsilon>1.1920928955078125e-07</epsilon>
    <iterations>1000</iterations></term_criteria>
  <var_count>1764</var_count>
  <class_count>3</class_count>
  <class_labels type_id="opencv-matrix">
    <rows>3</rows>
    <cols>1</cols>
    <dt>i</dt>
    <data>
      0 1 2</data></class_labels>
  <sv_total>3</sv_total>
  <support_vectors>
    <_>
      1.51378969e-02 -8.23885319e-04 -7.20126880e-03 -1.18902873e-03
      2.09379103e-02 7.31079653e-03 3.05622984e-02 7.89103936e-03
      2.15974655e-02 -5.85866794e-02 7.74069130e-03 -1.65781677e-02
      -3.58079262e-02 7.04455823e-02 -1.53338141e-03 9.00423303e-02
      3.36669534e-02 -2.13172957e-02 -8.38957913e-03 -3.84195633e-02
      2.54338663e-02 7.29833636e-03 5.53273633e-02 5.34176920e-03
      1.40660822e-01 6.72767684e-02 5.43630198e-02 1.58028036e-01
      -2.99791917e-02 -1.20924629e-01 -6.89032003e-02 -1.63637638e-01
      -9.68802571e-02 -3.89307812e-02 6.35946915e-02 1.31322905e-01
      -1.35408482e-02 -3.38081527e-03 -1.61663853e-02 -1.70657802e-02
      -4.25374508e-02 2.56207515e-03 3.41908005e-03 1.72398649e-02
      3.06781065e-02 -6.47906289e-02 -3.49657387e-02 -2.54619569e-02
      -2.26684716e-02 7.27540776e-02 5.44740120e-03 -6.99224845e-02
      -1.73351094e-02 3.18779275e-02 1.44141480e-01 -5.57055771e-02
      -7.60657489e-02 4.93293628e-02 -9.37195569e-02 -2.97490489e-02
      -1.09097511e-02 5.43847382e-02 1.47880495e-01 1.49692982e-01
      -4.01769280e-02 5.08329384e-02 6.96464404e-02 8.08041915e-02
      4.51794416e-02 -1.88699737e-01 -5.88311255e-02 1.50343195e-01
      -5.31846955e-02 -1.76167488e-02 8.48010648e-03 -7.18864426e-03
      9.75399390e-02 -4.89922985e-03 1.45849986e-02 9.46502946e-03
      -1.19641563e-02 -1.99802574e-02 -2.34501194e-02 1.24108382e-02
      2.97429715e-03 3.28986943e-02 -1.98539183e-03 1.50615111e-01
      6.75439090e-02 -6.21218383e-02 1.45458698e-01 -3.64200249e-02
      1.71935447e-02 1.49556613e-02 2.56472323e-02 1.43650090e-04
      -8.18721205e-02 -1.22733498e-02 1.46366864e-01 2.65372619e-02
      -6.65888190e-02 -6.24231324e-02 2.34820992e-02 4.74173278e-02
      -3.42524089e-02 2.18790933e-01 1.09389544e-01 2.44143941e-02
      -4.27700914e-02 -2.57440515e-05 2.87434664e-02 6.27177441e-03
      -1.23362802e-03 -9.27700382e-03 1.30576640e-01 5.10351844e-02
      -7.56536126e-02 -1.12055011e-01 -4.76857014e-02 -2.05770414e-02
      -1.29594784e-02 -1.62528679e-01 -1.56292655e-02 5.62757514e-02
      -9.01864283e-03 -1.43991575e-01 6.09268248e-02 -6.84328452e-02
      -5.95211424e-02 2.16766782e-02 4.53620851e-02 -1.66437658e-03
      1.40740067e-01 8.74604434e-02 5.02010919e-02 1.22358710e-01
      -8.75725970e-02 4.35588583e-02 2.65299454e-02 4.52897549e-02
      -2.18989956e-03 -3.81981172e-02 -2.41637975e-02 1.44591451e-01
      -3.88845727e-02 -2.22593434e-02 -5.77300729e-04 3.30424262e-03
      -1.04023807e-01 8.11151043e-03 -3.53774056e-02 -3.54488604e-02
      -7.84809142e-02 -7.84542039e-02 -3.71261314e-02 -9.13644060e-02
      5.43516502e-03 -2.08947733e-02 6.19626092e-03 -1.65262725e-02
      -1.16197299e-02 -1.34117836e-02 -8.33600387e-03 -9.71033648e-02
      3.49451005e-02 5.55115491e-02 2.00905073e-02 -1.21017052e-02
      -1.33485258e-01 -1.19812861e-02 4.36940491e-02 -5.40745333e-02
      -4.78487015e-02 5.92856016e-03 7.25316331e-02 3.10690841e-03
      2.03035828e-02 -7.67734051e-02 4.02434021e-02 -1.99452918e-02
      -7.21129254e-02 2.73922842e-06 -7.37291127e-02 1.45646352e-02
      -9.67830643e-02 6.11197102e-05 -4.77091894e-02 -1.39464708e-02
      -4.28303070e-02 4.78462316e-02 1.26641532e-02 -3.84384058e-02
      4.70469408e-02 8.14147279e-05 -1.45217888e-02 -3.61248180e-02
      4.35383944e-03 9.74235535e-02 -1.47184618e-02 -1.93036273e-02
      -1.85116027e-02 5.29125854e-02 -1.27961682e-02 3.74462940e-02
      -1.03150509e-01 -5.60417026e-02 -8.90523195e-03 2.44855639e-02
      5.36691248e-02 1.03531837e-01 3.06403358e-02 1.54661899e-03
      -4.12766896e-02 -7.21961185e-02 -3.26273330e-02 3.25076804e-02
      1.12373605e-01 -3.56099010e-02 -3.84190269e-02 6.41657934e-02
      -6.22043684e-02 -1.82803273e-02 -3.61169456e-03 4.06889804e-03
      1.13914974e-01 1.02632307e-02 4.21992410e-03 -2.14261468e-02
      4.61124629e-03 6.79337233e-02 -1.07403826e-02 2.11810470e-02
      2.31034271e-02 2.97974404e-02 -1.64739937e-01 7.65599459e-02
      1.16818517e-01 3.96558419e-02 1.42363384e-01 -3.02382857e-02
      -2.57293880e-02 -9.04800519e-02 -1.68827280e-01 -3.58410403e-02
      2.55683195e-02 4.48033735e-02 5.34682088e-02 -7.71487802e-02
      3.15625854e-02 -5.00939004e-02 -3.21689388e-03 -6.11292906e-02
      7.01218843e-02 -2.63818284e-03 7.71415010e-02 3.67507376e-02
      5.70806675e-02 -1.02472408e-02 1.57830194e-01 5.84951639e-02
      6.72778711e-02 -4.41136397e-02 -2.29880009e-02 -6.41918853e-02
      -8.75906833e-03 -7.93615356e-02 -6.22912310e-02 6.52367845e-02
      1.63266994e-02 -7.44949430e-02 9.36738402e-02 1.61528718e-02
      1.09838881e-01 1.07407421e-01 1.05287932e-01 -1.24765458e-02
      2.18588054e-01 5.05700931e-02 7.09312335e-02 -1.12450756e-01
      -3.92633826e-02 7.59811029e-02 1.78244546e-01 -1.01619318e-01
      -4.43258062e-02 7.93004930e-02 4.31522168e-02 -5.25556281e-02
      -9.08100158e-02 -3.15976515e-02 -7.24047199e-02 4.55051884e-02
      -3.56346555e-02 -1.29120387e-02 6.63335994e-03 2.34468039e-02
      -7.43746161e-02 -6.66660592e-02 -3.31025221e-03 -1.85149293e-02
      7.27548376e-02 -7.89233595e-02 3.89948376e-02 -5.29797487e-02
      -8.44917633e-03 -3.54724079e-02 -5.80474548e-02 3.87482569e-02
      1.51028290e-01 4.43115942e-02 5.05645983e-02 4.26311903e-02
      6.52358606e-02 9.48401541e-02 -5.84620982e-02 -3.58550027e-02
      1.14752673e-01 1.38649926e-01 8.36434364e-02 -2.95223482e-02
      1.61079198e-01 1.01271972e-01 1.21142961e-01 1.73144937e-02
      -8.21141675e-02 -2.97863819e-02 -3.99286933e-02 4.38099727e-03
      -2.22437270e-02 3.30023393e-02 -5.18777370e-02 -2.01437473e-02
      -4.85191830e-02 -1.45567870e-02 -4.11542542e-02 -5.22697829e-02
      -1.52661894e-02 -2.26128921e-02 2.30367854e-03 5.61565906e-02
      -1.77278239e-02 -3.73964123e-02 1.56219369e-02 5.80700077e-02
      -9.76422802e-03 3.02166790e-02 6.00735769e-02 1.82529077e-01
      -3.97047326e-02 1.13647496e-02 4.33148518e-02 1.78791527e-02
      -4.73431945e-02 -6.98911399e-02 6.21662065e-02 1.65055419e-04
      1.11610122e-01 3.06089763e-02 -2.92586964e-02 -3.14973406e-02
      -2.56458223e-02 -1.90983955e-02 4.79374267e-02 5.88713773e-03
      4.67174090e-02 5.94528653e-02 1.01737395e-01 2.63163410e-02
      -9.62168723e-03 -7.17733279e-02 -3.86706404e-02 5.28605804e-02
      3.14791836e-02 6.56344667e-02 6.01286115e-03 -2.97719687e-02
      2.07847953e-02 -6.13609403e-02 -3.99162993e-02 -1.79682001e-02
      5.53501248e-02 1.77345634e-01 4.50791605e-03 5.68641983e-02
      2.18442380e-01 3.81977633e-02 -1.52590811e-01 -1.01142265e-01
      -3.25608328e-02 5.28495088e-02 1.42973289e-01 6.19870960e-04
      -7.22593442e-02 1.87198892e-01 1.17557133e-02 -1.91770926e-01
      -9.10357013e-02 -1.34406120e-01 -1.47972638e-02 1.10787302e-01
      5.17705549e-03 -4.97414619e-02 -1.19345523e-01 -1.17340572e-02
      -5.77459820e-02 -1.00694373e-02 -8.67054462e-02 4.67336178e-02
      1.12860486e-01 3.22117098e-02 -2.56296918e-02 -3.87852192e-02
      2.81479545e-02 2.61810347e-02 -1.34502813e-01 -2.74849702e-02
      7.56707788e-02 4.49206308e-02 -2.18337886e-02 -1.24134421e-01
      1.02969512e-01 4.69303280e-02 -1.87735051e-01 1.91627145e-02
      8.23618397e-02 2.87001878e-01 5.31004965e-02 2.46079341e-02
      -1.41536981e-01 1.86107606e-01 8.05497244e-02 -3.77367921e-02
      -2.84181740e-02 -3.52921672e-02 6.24450184e-02 3.52518111e-02
      -5.90377375e-02 -1.23700509e-02 -2.93367710e-02 5.52161448e-02
      4.90630269e-02 3.04920301e-02 6.16299510e-02 9.73271355e-02
      -5.77299297e-03 -6.09182455e-02 -3.66313010e-02 -4.61716503e-02
      3.26171308e-03 1.07859686e-01 1.32817701e-02 3.52565572e-02
      1.69750080e-01 1.32439677e-02 2.65236218e-02 -1.01799361e-01
      1.29150972e-01 5.47000542e-02 -4.26839404e-02 1.00462712e-01
      4.94108461e-02 1.20875882e-02 -2.03930344e-02 3.60671431e-03
      -6.39541224e-02 2.53404956e-02 3.90790813e-02 5.77384643e-02
      -2.00927947e-02 3.71557884e-02 5.29323965e-02 2.76285559e-02
      -6.87205717e-02 -5.92810707e-03 -8.52374509e-02 -5.44970632e-02
      3.02978605e-03 -4.23243046e-02 -1.13426400e-02 2.13790610e-02
      5.25689274e-02 -3.38846035e-02 2.20733415e-02 6.74427301e-02
      3.03025264e-02 -4.81879376e-02 1.30443145e-02 5.15735932e-02
      1.96940508e-02 5.45910783e-02 6.28507435e-02 -1.05916457e-02
      -6.13117218e-02 -4.01414111e-02 2.31835004e-02 1.00729786e-01
      -1.22233471e-02 7.79562723e-03 4.40764390e-02 8.61258283e-02
      3.51177789e-02 9.25313085e-02 9.55522880e-02 1.40125781e-01
      7.70182014e-02 2.79090479e-02 7.27933347e-02 6.03296012e-02
      9.28567201e-02 -3.95991765e-02 5.33838049e-02 4.18692306e-02
      4.13534604e-02 -4.26776633e-02 1.01195648e-01 2.69558012e-01
      2.52053678e-01 -9.45889354e-02 -1.02666646e-01 -2.81799417e-02
      9.28568561e-03 -6.82989210e-02 -2.82459576e-02 6.04072772e-02
      1.22872762e-01 6.44527972e-02 -2.79075932e-02 -9.93274245e-03
      1.19865146e-02 3.68319005e-02 -5.43556809e-02 -3.13887373e-02
      2.45639637e-01 2.84657001e-01 1.79628119e-01 -6.12921789e-02
      -1.30048012e-02 -9.79657471e-03 -2.12291926e-02 -9.73212440e-03
      -6.01894967e-03 5.90035729e-02 2.57242143e-01 3.08015700e-02
      1.89147796e-02 -8.87439698e-02 -6.59144949e-03 7.93307927e-03
      -2.29757503e-02 6.37838664e-03 3.18428949e-02 1.16217397e-01
      -4.28409241e-02 -2.12790687e-02 -3.03235408e-02 1.14171423e-01
      6.16525523e-02 2.81813312e-02 -1.37248963e-01 2.87208855e-01
      4.62152570e-01 -5.27535826e-02 -6.72855079e-02 -5.50626405e-02
      3.32921371e-02 -3.36106159e-02 -1.31672293e-01 -1.15623124e-01
      2.80178897e-02 3.21067363e-01 -1.24899656e-01 7.79217631e-02
      -8.70663524e-02 1.55888662e-01 5.21790013e-02 -9.81929451e-02
      1.04639724e-01 7.32094795e-02 3.89436297e-02 -8.43366534e-02
      2.83810339e-04 4.09460105e-02 9.95332599e-02 9.26860422e-02
      5.96543625e-02 -6.70040771e-02 5.45104444e-02 -2.79244711e-03
      -1.21426150e-01 -4.21989299e-02 -1.07770218e-02 -6.19878918e-02
      -2.28722151e-02 -6.92143068e-02 -8.69970173e-02 -3.95407118e-02
      1.18513085e-01 -1.50862202e-01 8.31951723e-02 3.13220918e-02
      2.24873230e-01 1.52532384e-01 2.12534033e-02 -4.77745757e-02
      1.15492828e-01 1.81356221e-02 -1.57272413e-01 9.64296330e-03
      -9.15075000e-03 -5.07732816e-02 -1.73013713e-02 -1.45298429e-02
      -1.06173642e-01 2.65760627e-02 7.47365952e-02 6.53796270e-02
      -2.96920650e-02 -5.10547645e-02 1.11954793e-01 -1.69810243e-02
      -2.27561995e-01 -9.79303196e-02 1.07205249e-02 1.00213848e-01
      9.55032185e-02 5.22366650e-02 -8.95923674e-02 2.25520357e-01
      -7.20525905e-03 -1.69893071e-01 7.00734556e-02 8.42950195e-02
      3.91591080e-02 -1.68377403e-02 -4.87411097e-02 -3.54176126e-02
      3.89798246e-02 -7.07075174e-04 4.69519012e-02 2.00064722e-02
      7.30627123e-03 7.86931217e-02 -9.17859282e-03 -9.41788964e-03
      -2.52640117e-02 6.64574578e-02 -1.24526192e-02 1.02931798e-01
      -1.54669613e-01 -7.76576903e-03 -1.15289623e-02 -4.45423946e-02
      1.09415233e-01 -1.88502334e-02 2.09153801e-01 2.12591849e-02
      -2.16029108e-01 -1.15401894e-01 -1.88206416e-02 9.70817357e-02
      2.90457308e-02 1.39013410e-01 7.34326988e-03 1.80653349e-01
      -4.69379611e-02 -1.13989495e-01 -1.19585976e-01 -1.04185054e-02
      -1.38125094e-02 -6.46868721e-02 1.07033812e-01 1.07158847e-01
      1.95338652e-01 -5.94127923e-02 -6.09525777e-02 -1.72100052e-01
      -1.20030366e-01 1.04327045e-01 1.48202106e-02 1.07090726e-01
      1.79534331e-01 1.58326447e-01 -1.52228341e-01 -6.55574650e-02
      -1.62359271e-02 -2.92176977e-02 8.59097540e-02 1.80941485e-02
      4.02390510e-02 2.71176342e-02 1.60816371e-01 -6.22142293e-02
      -5.37066571e-02 1.11658931e-01 5.68530639e-04 -7.66780227e-02
      -9.65201631e-02 -6.34761453e-02 2.70314817e-03 1.54501408e-01
      6.18266361e-03 1.23967849e-01 -5.35591133e-02 -2.82646175e-02
      8.09555352e-02 -3.35384719e-02 3.60926650e-02 1.74274474e-01
      1.26024291e-01 -1.06869236e-01 -1.88665055e-02 5.60123138e-02
      -4.88518132e-03 -7.34119639e-02 -9.68269780e-02 -5.97690679e-02
      1.18828140e-01 1.26052201e-01 -8.89274571e-03 4.72828224e-02
      1.82773769e-01 2.78508160e-02 -1.31222345e-02 -9.54326764e-02
      -7.83843622e-02 -3.09911426e-02 4.33634184e-02 -3.07310149e-02
      1.51309013e-01 1.34893671e-01 3.62599781e-03 4.40340787e-02
      -2.10192651e-02 6.59294650e-02 1.36385141e-02 2.30370159e-03
      -9.23074111e-02 1.55393019e-01 8.65567252e-02 -5.68012102e-03
      3.03104464e-02 -4.58119549e-02 4.50121285e-03 1.40575115e-02
      -1.32166043e-01 -4.31312285e-02 5.78534976e-02 7.06782658e-03
      4.80104424e-02 8.65188465e-02 -7.14881793e-02 4.48466465e-03
      -1.56472363e-02 -8.92427787e-02 -9.92830023e-02 7.34447734e-03
      -4.94056083e-02 1.31572103e-02 -1.59371868e-02 8.54984671e-02
      -3.41703817e-02 4.24663499e-02 -4.81237508e-02 1.66361430e-03
      -7.21090883e-02 -1.39700413e-01 1.04355134e-01 5.05473688e-02
      4.12105992e-02 1.03511838e-02 1.03798427e-01 6.07555881e-02
      1.69572588e-02 -4.51568738e-02 -8.44272301e-02 1.63404550e-02
      3.23748775e-02 4.35800217e-02 7.53999576e-02 4.43117209e-02
      -2.17918567e-02 1.78644974e-02 -3.95314470e-02 -9.02121961e-02
      -3.91025580e-02 7.01080216e-03 -3.50999348e-02 1.03511838e-02
      9.88156050e-02 8.61219317e-02 7.18913004e-02 -1.71000995e-02
      -3.12336266e-01 1.66548580e-01 2.61989504e-01 -1.10170625e-01
      6.31751120e-02 7.45583028e-02 1.03150681e-01 2.86945999e-02
      -1.67498514e-01 -1.39211267e-01 -9.95602459e-02 1.85796618e-01
      -7.48896375e-02 2.55597740e-01 1.11219905e-01 1.83883175e-01
      1.24564789e-01 -5.68610430e-02 -7.44796023e-02 -3.70426141e-02
      5.12986444e-02 -1.10126324e-01 -1.23364991e-02 7.00108483e-02
      1.04188353e-01 6.95893466e-02 2.75926646e-02 -8.68929476e-02
      -2.61950463e-01 -9.26337540e-02 -4.50541601e-02 3.13448399e-01
      2.72915334e-01 1.69492200e-01 9.68968123e-02 3.49108241e-02
      -1.40084669e-01 -2.26620629e-01 -4.62999754e-02 -1.62682369e-01
      1.66674092e-01 1.32625699e-01 2.27311686e-01 1.37289315e-01
      6.05871156e-02 -1.13556817e-01 -2.74200570e-02 -1.03042878e-01
      -1.00148693e-01 -3.97608206e-02 -7.59748369e-02 2.44294503e-03
      3.10041606e-02 -2.43732519e-03 7.04196747e-03 -3.11564088e-01
      -2.30887696e-01 -8.71746987e-02 2.09861577e-01 2.29516983e-01
      2.04489887e-01 3.78467180e-02 2.27905974e-01 3.68198231e-02
      -1.44398287e-01 -1.30107418e-01 -5.11703379e-02 -2.88424324e-02
      -4.42603938e-02 2.48834994e-02 -7.23796636e-02 1.18973181e-01
      6.60721734e-02 9.13061388e-03 -1.74995866e-02 -4.05321158e-02
      -3.30829658e-02 -7.07507282e-02 1.15428201e-03 3.32467072e-02
      5.04871346e-02 3.33025791e-02 1.63279939e-02 5.68801770e-03
      -9.55720022e-02 2.15605777e-02 -5.53401001e-02 -3.11951339e-02
      -1.69446487e-02 1.25662595e-01 5.03749698e-02 3.48798162e-03
      -6.69034272e-02 -5.44038340e-02 4.90521034e-03 -6.42089993e-02
      -3.99110317e-02 1.26241462e-03 4.94641513e-02 3.02867591e-02
      9.03075114e-02 -4.89659905e-02 -8.95426199e-02 -3.94624798e-03
      -4.84870411e-02 -1.25129625e-01 -6.68836152e-03 9.83398780e-02
      -1.09083178e-02 3.55053730e-02 7.13965530e-03 -7.95913413e-02
      5.94438389e-02 4.00916338e-02 -6.45255595e-02 -8.60413238e-02
      -1.03012724e-02 -1.03615679e-01 -1.78164191e-04 1.23347022e-01
      -2.49478631e-02 1.55143470e-01 8.49975869e-02 7.17531443e-02
      -1.55703604e-01 -9.71947908e-02 7.16868192e-02 1.08168378e-01
      1.14734843e-01 -3.89832780e-02 4.15241569e-02 5.28796948e-03
      -9.08530951e-02 -5.76443635e-02 -4.40407591e-03 -5.28904349e-02
      1.01276882e-01 1.81231365e-01 2.63240989e-02 1.86593533e-01
      2.19779145e-02 7.39271864e-02 -4.78637405e-02 -1.35622248e-01
      1.55305341e-02 -7.98770972e-03 3.90263759e-02 -7.82760605e-02
      8.33908394e-02 1.37205645e-01 7.50347152e-02 -8.65723267e-02
      -5.33057749e-02 -9.09931958e-03 1.41548933e-02 -6.32768646e-02
      -1.30875021e-01 2.44712476e-02 1.34888530e-01 3.42597552e-02
      -5.47696464e-02 -3.65381651e-02 -7.36557543e-02 3.64609957e-02
      -9.67216957e-03 -2.52491608e-02 3.31075788e-02 3.44030149e-02
      1.16558224e-01 -2.32530050e-02 -1.40339702e-01 -3.77229042e-02
      -3.81341353e-02 -5.44680357e-02 -1.51773421e-02 1.22578695e-01
      5.90315312e-02 -1.27550298e-02 -9.77818854e-03 -3.16868047e-03
      4.63222675e-02 6.08347505e-02 6.49830922e-02 2.52742711e-02
      3.88508290e-02 -9.12150927e-03 3.51015478e-02 -2.58767195e-02
      -4.47069220e-02 4.91131246e-02 7.27491081e-02 1.03958406e-01
      -1.72798783e-02 5.48052462e-03 -6.44209757e-02 3.02219926e-03
      9.44642164e-03 -6.30963221e-02 2.46947892e-02 -4.20423783e-03
      1.74265599e-03 -1.29828872e-02 -3.05170659e-02 8.24229047e-03
      1.79392230e-02 -8.66985321e-03 -7.26684034e-02 7.76939560e-04
      1.79484896e-02 1.03226610e-01 -6.55202270e-02 6.22792058e-02
      -1.52733382e-02 -4.48892713e-02 7.66250817e-03 -8.37549865e-02
      5.05281761e-02 3.03539336e-02 1.13212042e-01 -5.90799609e-03
      1.21655956e-01 3.19702961e-02 3.50200795e-02 2.25453805e-02
      4.39709313e-02 3.58384624e-02 2.42688861e-02 1.53364494e-01
      -4.26974222e-02 -1.01807199e-01 2.13613827e-02 6.02655597e-02
      7.83462003e-02 -4.97829169e-02 -5.79644404e-02 4.31729592e-02
      2.49850471e-02 -3.33313905e-02 2.45390534e-02 4.99456339e-02
      1.16292484e-01 2.93212794e-02 -1.80424973e-02 4.83776443e-02
      7.59737119e-02 -9.42364335e-03 3.39955874e-02 -9.88061503e-02
      5.09946905e-02 4.92676944e-02 8.97427350e-02 1.21786073e-01
      7.01386929e-02 -5.83769865e-02 5.45945689e-02 -7.98926055e-02
      3.45847793e-02 -3.62607315e-02 1.23632373e-02 2.33590901e-02
      6.39752373e-02 -2.03306619e-02 -1.79988071e-01 -9.17951912e-02
      -2.68808808e-02 3.08122665e-01 1.11521244e-01 2.69644894e-02
      -4.19912226e-02 4.10128534e-02 1.32126793e-01 -1.20499190e-02
      -1.87875815e-02 6.38357503e-03 1.73458792e-02 -5.69421314e-02
      -1.55435493e-02 -4.78924289e-02 8.96149278e-02 -5.87364174e-02
      -8.30696970e-02 -5.54918535e-02 9.08291787e-02 2.33966887e-01
      1.69654004e-02 1.47623764e-02 -7.14924634e-02 -5.33632636e-02
      8.57676119e-02 -1.83335885e-01 -1.35925010e-01 -3.54863554e-02
      2.31995165e-01 1.39806330e-01 1.83945969e-02 -1.29900113e-01
      1.73294738e-01 8.16578269e-02 -1.58148736e-01 -1.50582820e-01
      -5.10233790e-02 1.22196786e-02 2.46437769e-02 -2.93361787e-02
      -1.13219783e-01 5.56335151e-02 3.00931297e-02 -1.11506909e-01
      -1.12413533e-01 3.22234631e-02 1.72576442e-01 9.17964354e-02
      3.73900086e-02 -9.45781320e-02 8.47933963e-02 -1.47590851e-02
      -1.92862913e-01 -1.28222838e-01 -4.13244478e-02 4.62100550e-04
      2.90934555e-02 -1.33810729e-01 -1.31557226e-01 -8.14599078e-03
      6.94899485e-02 -5.06440103e-02 -8.66947174e-02 -7.64064724e-03
      -4.47188839e-02 3.52623761e-02 -3.64871919e-02 -1.77210718e-02
      4.15970385e-02 3.44524607e-02 7.11157694e-02 3.54801193e-02
      -5.56023307e-02 -5.18717691e-02 5.36250994e-02 -5.32871298e-02
      7.57089583e-04 1.17979184e-01 2.59419214e-02 -6.45584613e-02
      -4.43796478e-02 -7.55540747e-03 -4.94110622e-02 6.55576587e-02
      -4.95647155e-02 -1.35312332e-02 3.84757593e-02 5.78150339e-02
      7.61213973e-02 6.15033507e-02 -6.97708875e-02 -3.67862955e-02
      7.79804885e-02 3.36376503e-02 3.82994190e-02 5.50119020e-02
      3.89453247e-02 9.52474996e-02 6.22608028e-02 -6.38039261e-02
      -2.16193609e-02 1.38540613e-02 -2.06210874e-02 1.09582571e-02
      -1.13877710e-02 2.50418056e-02 2.56348941e-02 1.17832713e-01
      -9.84582584e-04 1.73237860e-01 -2.64078584e-02 1.06345071e-02
      1.71914101e-02 -6.27269447e-02 -7.15958551e-02 9.85399038e-02
      9.71887484e-02 -7.66933784e-02 -6.25493228e-02 3.54485922e-02
      -3.05064991e-02 -2.66279988e-02 -5.88426292e-02 1.38962315e-03
      -7.31821358e-03 8.31921101e-02 -3.52389514e-02 1.84724987e-01
      -1.87992491e-02 -1.77944563e-02 -5.32812066e-02 -1.50838457e-02
      2.67344397e-02 -4.45863605e-02 -3.07296179e-02 -4.16837409e-02
      1.74450781e-03 -6.47800192e-02 1.05001584e-01 7.21928328e-02
      1.60572212e-02 -1.62023259e-03 -4.49929945e-02 -2.30976082e-02
      -1.18701737e-02 5.00263236e-02 7.98685383e-03 2.32217927e-02
      4.96244319e-02 9.04630497e-02 3.24480236e-02 -1.30434975e-01
      -3.20595987e-02 -3.17325629e-02 -6.75044879e-02 -1.34135678e-01
      1.23805739e-03 2.88630780e-02 1.10439338e-01 -1.01704948e-01
      -2.57161241e-02 3.25626768e-02 9.09242108e-02 5.62067628e-02
      -5.89309447e-02 7.96304643e-02 6.67205453e-02 -6.23524794e-03
      1.87866297e-02 -4.38359827e-02 -7.11367056e-02 -3.96733470e-02
      -4.39102501e-02 1.52179496e-02 8.31323769e-03 -2.75443331e-03
      1.77110191e-02 3.30436565e-02 1.20711979e-02 3.33634131e-02
      -7.57463723e-02 1.13800168e-01 4.31544296e-02 5.23368176e-03
      -1.73189584e-02 1.86156051e-03 -1.87731348e-02 -2.65507270e-02
      -4.00498597e-04 -6.43844716e-03 -3.58497212e-03 1.08689973e-02
      3.24330591e-02 5.52617051e-02 -1.15127023e-02 4.97005060e-02
      -1.79274920e-02 -7.53939375e-02 -8.12646970e-02 3.18690613e-02
      2.73849815e-02 -2.07793042e-02 3.61088701e-02 -9.86602996e-03
      2.31986726e-03 1.80392619e-02 -6.68904260e-02 -1.13759488e-02
      3.99208628e-03 8.89973491e-02 4.72592302e-02 1.64993964e-02
      9.39335115e-03 4.88235205e-02 7.93469138e-03 -1.55299097e-01
      4.83461246e-02 -4.24193516e-02 1.55806169e-01 8.07989016e-02
      9.59383845e-02 1.51636004e-01 -4.35294062e-02 2.82764323e-02
      -1.22392050e-03 -3.37821431e-02 -6.01244569e-02 7.34087154e-02
      -1.74079146e-02 2.51514427e-02 -8.27769097e-03 4.13919874e-02
      -1.28236944e-02 -2.30359044e-02 6.07392984e-03 -5.84320351e-02
      1.23167448e-01 4.95933257e-02 7.81396553e-02 9.39064547e-02
      1.66557908e-01 1.07014338e-02 -1.15316901e-02 5.09582683e-02
      1.78540032e-02 4.49162163e-02 1.60906464e-01 4.84779365e-02
      1.31192386e-01 -5.25294282e-02 -3.55269574e-02 -5.28170504e-02
      7.27185458e-02 1.88884243e-01 7.50875771e-02 8.45114514e-02
      2.66145747e-02 -2.40591206e-02 -7.07871020e-02 -1.32789304e-02
      -7.04002008e-03 -2.07127780e-02 -3.72208767e-02 -5.23894327e-03
      -1.51875783e-02 6.49008527e-02 -5.54895550e-02 -3.93978469e-02
      -4.69790436e-02 -1.12047501e-01 -1.15533872e-02 1.14769526e-01
      -4.02961439e-03 -6.86057284e-02 8.25432688e-02 -6.57753646e-02
      -4.22911942e-02 -5.50280511e-02 -1.03514999e-01 6.07110187e-03
      2.38001063e-01 1.25413135e-01 1.09065503e-01 6.09717853e-02
      7.51636475e-02 -5.34186587e-02 -5.90938032e-02 -9.95273739e-02
      -2.31729783e-02 1.38235483e-02 8.17694813e-02 -5.21291792e-02
      -3.59404576e-03 1.23888832e-02 3.43007245e-03 -3.62277888e-02
      -4.75717410e-02 -2.02907771e-02 2.00868353e-01 8.41424912e-02
      5.11485524e-02 8.65971074e-02 2.48406339e-03 -1.64578168e-03
      -1.48265576e-02 -2.63025537e-02 1.11032790e-03 1.04918852e-02
      2.31768563e-02 3.74675579e-02 3.85031700e-02 1.76662218e-03
      7.77136674e-03 -4.68113534e-02 -6.04759604e-02 -6.00891281e-03
      -5.49784862e-02 5.78617603e-02 -4.53363098e-02 2.60387585e-02
      6.87598512e-02 -1.90314129e-02 2.78895143e-02 3.36263590e-02
      -2.21845433e-02 -5.33887418e-03 3.38591039e-02 5.93772903e-02
      5.24781868e-02 3.46576385e-02 1.55919343e-02 -6.92216819e-03
      2.72744503e-02 2.40481347e-02 -5.60776442e-02 2.31148172e-02
      -2.41392460e-02 1.68013908e-02 4.55231182e-02 -6.96860850e-02
      1.49319703e-02 7.80584365e-02 2.34990716e-02 -9.92042273e-02
      5.03808632e-03 4.34244089e-02 3.67626809e-02 1.53346714e-02
      -5.36228195e-02 7.09041208e-02 5.64240143e-02 -4.96856123e-02
      -3.77940796e-02 2.19940934e-02 -1.92222521e-02 -1.13026172e-01
      -1.56843401e-02 -3.54296267e-02 2.52380390e-02 4.80254702e-02
      -5.94583079e-02 4.80488352e-02 -3.93873127e-03 1.49384770e-03
      -8.29919353e-02 -2.23659575e-02 -6.04447024e-03 1.86828747e-02
      7.77237341e-02 -9.76602361e-03 1.21698929e-02 5.00952685e-03
      -4.27601598e-02 -5.73461093e-02 9.66355391e-03 -2.80764010e-02
      -8.64701718e-03 1.91103853e-02 -5.06219529e-02 -3.26204337e-02
      4.19823490e-02 1.09361231e-01 5.03353439e-02 7.51689300e-02
      1.22838570e-02 5.38976805e-04 2.29591019e-02 8.33810773e-03
      -1.94258224e-02 -7.90757462e-02 6.32082075e-02 1.94414165e-02
      -5.82263689e-04 -5.92597090e-02 -2.10947320e-02 -4.67473194e-02
      1.27837118e-02 -5.60887484e-03 -5.87663567e-03 1.85902249e-02
      4.73416559e-02 -2.26762015e-02 2.06700228e-02 4.15214151e-02
      1.29797339e-01 1.96993072e-02 5.13103008e-02 6.79347012e-03
      1.03370070e-01 8.43518749e-02 8.92287865e-02 -1.04914464e-01
      3.24213225e-03 -7.16669112e-02 1.04086157e-02 8.04766119e-02
      2.64699403e-02 -5.50439470e-02 -1.00513417e-02 -2.18724702e-02
      -2.05493555e-03 -6.40004724e-02 2.54044216e-02 5.10274991e-02
      -7.99878165e-02 1.36154937e-02 -4.95345518e-02 5.85158803e-02
      1.39903147e-02 3.09712044e-03 -7.56419897e-02 -1.41983971e-01
      -6.58384413e-02 -9.82534140e-02 -4.14488539e-02 3.11018527e-02
      6.16599508e-02 4.35321666e-02 9.36089680e-02 -4.94823903e-02
      -8.17043334e-02 -1.97387580e-02 -2.43640784e-02 2.74663698e-02
      -1.32309183e-01 -1.44602098e-02 1.27611801e-01 7.20415562e-02
      -6.37993887e-02 -1.39337182e-01 -3.60829458e-02 -3.55272144e-02
      -4.84465696e-02 -6.25936836e-02 -2.64900699e-02 8.41083601e-02
      -1.28732562e-01 2.36107670e-02 3.03968843e-02 -5.69695272e-02
      3.82618792e-02 9.67270881e-03 -1.00083649e-01 5.24596078e-03
      -9.51609388e-02 5.65019809e-02 3.33768502e-02 2.09988400e-01
      1.01561621e-02 5.33715729e-03 1.00081168e-01 -1.58802830e-02
      6.64226338e-02 4.41528410e-02 1.13040982e-02 9.08594299e-03
      3.92188616e-02 -8.41023400e-03 5.66380024e-02 -1.20505942e-02
      -1.72011834e-02 -9.93322209e-03 -3.48199159e-02 -1.39464056e-02
      4.13816199e-02 1.20034516e-01 2.25005057e-02 -4.13638763e-02
      -1.07602624e-03 -1.39340162e-01 -6.00181744e-02 -6.26601698e-03
      -8.08442906e-02 2.05642022e-02 8.38962272e-02 -2.43086630e-04
      -1.00812301e-01 -3.46299708e-02 -5.41279428e-02 5.00415117e-02
      -3.63193499e-03 3.18666771e-02 -6.52526394e-02 -1.30339682e-01
      4.94303405e-02 7.68404678e-02 1.02448079e-03 -9.48141813e-02
      8.61343592e-02 4.12760302e-02 -1.11581394e-02 1.94345228e-02
      7.60330707e-02 1.21970735e-02 -3.36356238e-02 -1.41947661e-02
      -1.90683547e-02 -1.56372953e-02 -1.34502249e-02 -1.25757894e-02
      -8.35194066e-02 -1.38355076e-01 2.99350321e-02 3.81059423e-02
      -3.57263796e-02 -4.24320959e-02 -8.56441166e-03 -4.27390039e-02
      4.66284007e-02 -2.69734040e-02 -8.08730274e-02 2.44888347e-02
      5.78641482e-02 5.44111617e-02 3.47005278e-02 5.93332611e-02
      7.15075154e-03 4.42759991e-02 4.11988273e-02 3.73257808e-02
      1.53778112e-02 -1.61695592e-02 -3.74082127e-03 6.12659892e-03
      6.78361431e-02 2.82858983e-02 3.47216986e-02 -6.95904791e-02
      -1.78261474e-01 3.11151203e-02 6.82480484e-02 8.73460993e-03
      -2.57050954e-02 -5.14321476e-02 -1.58952605e-02 -1.43521428e-01
      -3.64205875e-02 -1.04526788e-01 -3.42242839e-03 -9.62296650e-02
      8.35613522e-04 -4.71655875e-02 -1.90283936e-02 -3.67617458e-02
      -4.99435514e-03 9.46546793e-02 1.46424189e-01 2.20346358e-02
      8.72883871e-02 -1.35721145e-02 -3.61210555e-02 2.19240468e-02
      1.49904983e-02 -2.80699078e-02 1.29565335e-04 1.19911350e-01
      1.99818294e-02 1.66686773e-02 -2.34441515e-02 -5.61959445e-02
      -2.86663584e-02 -5.36036603e-02 -1.34585187e-01 -2.37165019e-02
      -2.88691837e-02 1.06688663e-02 -3.53618786e-02 -1.78038087e-02
      -4.43784744e-02 2.56080534e-02 -7.86158256e-03 -3.29754427e-02
      -3.02332025e-02 -1.07469102e-02 -3.63822794e-03 -2.32923385e-02
      -8.31838045e-03 -9.92232412e-02 -5.50746359e-03 -6.29738066e-03
      -1.86168440e-02 -7.45050907e-02 1.13204204e-01 5.97152337e-02
      5.46848848e-02 2.47216076e-02 -9.80515406e-03 -4.82353643e-02
      -2.80690193e-02 -1.50876939e-02 -2.94375252e-02 8.55565146e-02
      5.31366095e-02 5.32041043e-02 9.56647471e-02 1.02147631e-01
      7.60518089e-02 -3.19302231e-02 -5.69248945e-02 -1.07744802e-02
      -1.85762532e-02 -4.07367647e-02 1.66267864e-02 1.45355770e-02
      -1.60126314e-01 -5.55368811e-02 -4.61223014e-02 2.52996534e-02
      3.76498252e-02 6.71317577e-02 -3.00213769e-02 4.34481539e-02
      1.13959797e-02 -1.83585472e-02 -8.92170146e-03 4.08797935e-02
      2.27843113e-02 9.55812410e-02 1.79552585e-01 2.15155855e-02
      1.08784743e-01 3.46398465e-02 1.26816735e-01 8.18182305e-02
      1.72943603e-02 -6.05669320e-02 6.48975931e-03 -4.70460355e-02
      -1.08412849e-02 1.39869034e-01 4.84795645e-02 -4.30521704e-02
      9.97390947e-04 -3.17693409e-03 2.25182227e-03 3.22302207e-02
      2.54591480e-02 -3.93448099e-02 -2.80509237e-02 -2.10862793e-02
      1.81454450e-01 4.09175605e-02 1.23118656e-02 -1.80453341e-03
      -3.68397236e-02 -1.15143158e-01 -7.61611089e-02 -7.31248930e-02
      -3.12242191e-02 6.82997480e-02 2.39954330e-02 -4.08767276e-02
      1.76264662e-02 -7.83591121e-02 -2.30032414e-01 9.91303474e-03
      1.60521299e-01 1.14146985e-01 -5.71255684e-02 -2.65814885e-02
      4.58383299e-02 9.93253216e-02 -3.97791155e-02 -1.95392631e-02
      -3.35310772e-03 5.81071153e-02 6.26847893e-02 -3.04449443e-02
      -9.07253940e-03 1.07667588e-01 2.40192283e-02 -5.83697036e-02
      -2.10342616e-01 -6.71786442e-02 -3.20926905e-02 1.94007065e-02
      1.10151649e-01 2.95666307e-02 2.26664506e-02 -1.40407775e-02
      -6.11941814e-02 -4.81390804e-02 -1.10171167e-02 -8.52815211e-02
      4.09294888e-02 2.07940140e-03 2.00970639e-02 -2.92546805e-02</_>
    <_>
      9.57235321e-03 -1.05331158e-02 -1.15442397e-02 9.43360291e-03
      2.14055553e-02 1.24725103e-02 -1.17509849e-02 -1.34390565e-02
      2.97659845e-03 -6.70853481e-02 -7.26882741e-02 -2.16930568e-01
      -8.05958174e-03 -2.83004493e-02 1.68578010e-02 4.57938276e-02
      1.96423624e-02 -4.19015922e-02 7.18563888e-03 -3.75750549e-02
      5.14064636e-03 4.04797588e-03 6.68220893e-02 2.66570374e-02
      1.70404781e-02 -2.23327894e-02 2.99417917e-02 3.39671562e-04
      -1.17490582e-01 -8.32077265e-02 -5.09082302e-02 -3.01264431e-02
      -6.99366629e-03 5.77888787e-02 7.96104595e-02 -3.01749259e-02
      -5.73636033e-02 -3.88876088e-02 -1.22130655e-01 -3.09192040e-03
      -1.58370938e-02 3.07505764e-03 -8.04073550e-03 1.95401721e-02
      -3.61184105e-02 -1.26963854e-01 -1.94200277e-02 -5.54785766e-02
      -1.55999092e-03 -1.00665335e-02 -1.52986515e-02 -6.52785674e-02
      -1.90658234e-02 -1.11548468e-01 2.66487245e-02 -4.34019268e-02
      -1.51988581e-01 5.06729484e-02 -2.15152167e-02 2.78171450e-02
      5.83599918e-02 7.27618337e-02 8.00354779e-03 -6.66384911e-03
      -1.33695863e-02 -9.67810228e-02 5.95229603e-02 3.15612461e-03
      6.16511144e-02 -4.11207899e-02 -4.27624583e-02 -1.00081796e-02
      -3.83346677e-02 -9.32851620e-03 -1.53572550e-02 -1.03599532e-03
      -3.90959252e-03 -4.02209442e-03 -2.53607016e-02 -1.11605842e-02
      -6.49884492e-02 -5.74119426e-02 -1.75661854e-02 -1.08406479e-02
      -6.82120118e-03 -6.81306496e-02 7.76685774e-04 2.38587502e-02
      5.49226673e-03 -9.61963460e-02 -1.67992394e-02 -2.67631914e-02
      -5.51257581e-02 1.14559354e-02 6.34265468e-02 3.96107584e-02
      2.77912579e-02 3.41435219e-03 -1.01269325e-02 -1.06524281e-01
      -5.57649396e-02 -8.06157216e-02 4.84134890e-02 6.72644675e-02
      -7.97155604e-04 1.08852200e-01 2.74751876e-02 -1.11930765e-01
      -7.70621672e-02 -5.03090303e-03 -2.14065723e-02 -8.14950839e-03
      -7.74702504e-02 3.30052990e-03 4.95064557e-02 2.90795658e-02
      -1.05250694e-01 -5.31186238e-02 -1.52840875e-02 -6.99832942e-03
      -6.31546229e-03 -6.33400455e-02 8.72117374e-03 3.27471877e-03
      2.81966571e-02 -9.57219228e-02 -1.00519313e-02 -7.94969797e-02
      -6.62949681e-02 -9.33513325e-03 3.57488059e-02 1.15337875e-03
      1.53902486e-01 5.81044182e-02 -7.38216517e-03 -6.18505403e-02
      -2.52632610e-02 8.26945901e-03 -1.95314717e-02 -3.41753177e-02
      3.13267410e-02 -1.74893942e-02 2.14871224e-02 -5.91319352e-02
      1.55327907e-02 -4.32088785e-02 -1.84670407e-02 8.77615809e-03
      -3.15396711e-02 -1.61130974e-05 -2.06182171e-02 1.83400046e-02
      -3.61775793e-02 -2.26197373e-02 -7.61429742e-02 -7.42789283e-02
      2.44757626e-03 -1.02718398e-02 -9.25476197e-03 -1.72098782e-02
      -2.21797209e-02 -1.35679496e-02 -6.99361488e-02 -2.10756008e-02
      1.57455206e-02 6.84302300e-02 -2.29745246e-02 -7.50550441e-03
      -5.56101315e-02 -4.57782894e-02 -7.77210891e-02 -8.94741639e-02
      -1.34389028e-02 3.33263464e-02 8.36829245e-02 4.54871655e-02
      6.81928126e-03 2.95369588e-02 2.04472784e-02 -4.01194133e-02
      -6.05720207e-02 -4.86175716e-02 -7.19604567e-02 -3.37861502e-03
      -9.25989002e-02 -1.35278571e-02 -5.21896258e-02 -2.66566779e-02
      -2.46350579e-02 1.15181031e-02 -3.76111567e-02 -3.92183624e-02
      3.85866351e-02 2.21235268e-02 3.91253270e-03 4.09834273e-02
      3.90551500e-02 3.12085375e-02 -6.54816404e-02 8.04529246e-03
      5.83665352e-03 -1.71703240e-03 -7.74812400e-02 -3.32991704e-02
      -2.19146945e-02 1.89780928e-02 -3.66180427e-02 -2.91333348e-02
      -2.39078850e-02 2.11317670e-02 -1.90302581e-02 -4.69448641e-02
      3.93990939e-03 2.15469208e-03 2.72958279e-02 4.97529134e-02
      1.63060185e-02 -3.03938109e-02 1.11707496e-02 7.55853951e-02
      -8.77189683e-04 1.34300338e-02 3.44052948e-02 2.26992369e-02
      3.83618698e-02 -1.45812528e-02 1.48695428e-02 4.58513806e-03
      2.89709568e-02 -6.53877407e-02 -6.46917373e-02 -5.01448363e-02
      -2.19559018e-02 -1.61717664e-02 -1.58155426e-01 -1.88016202e-02
      6.27841949e-02 4.31025866e-03 -1.83288883e-02 5.84429130e-02
      -6.70614839e-02 -3.36466469e-02 -1.37111112e-01 -1.19766286e-02
      2.22159307e-02 7.37109855e-02 5.76493964e-02 -7.63658732e-02
      -2.96946596e-02 8.95752758e-03 -3.27552408e-02 -7.46811703e-02
      1.45573542e-02 -4.13733684e-02 -2.92890873e-02 8.93967506e-03
      3.23988274e-02 -2.18895935e-02 8.88021663e-03 5.14611194e-04
      3.97819504e-02 -2.85350289e-02 -1.16696000e-01 -5.79528101e-02
      -7.89281912e-03 -1.95171293e-02 -1.72698200e-02 8.14102497e-03
      7.26028532e-03 -2.62306072e-02 5.44176809e-02 -2.97157429e-02
      2.80315317e-02 4.02691029e-02 3.21494155e-02 -3.66288535e-02
      3.79163958e-02 3.59611474e-02 9.11445469e-02 -1.15738083e-02
      -1.62357762e-01 8.59952420e-02 1.74968258e-01 -3.67382281e-02
      -4.19678800e-02 -1.11157447e-01 9.88604315e-03 1.17557965e-01
      1.34588024e-02 -3.29679027e-02 -1.87305361e-02 4.04651016e-02
      -3.86052877e-02 8.09953455e-03 9.04321484e-03 2.47488003e-02
      1.48873646e-02 -7.00896680e-02 1.37993190e-02 1.33424914e-02
      4.39636856e-02 1.41322764e-03 4.50194739e-02 -2.91502997e-02
      -2.31937296e-03 -5.80562688e-02 -5.10840351e-03 -2.50084568e-02
      1.54836386e-01 1.43235857e-02 -5.87818548e-02 -1.08140055e-02
      -3.69381979e-02 1.60324406e-02 3.88690270e-02 -8.12216550e-02
      1.00811124e-01 1.29902914e-01 -2.65328940e-02 -8.92476887e-02
      -1.54266190e-02 -7.11655915e-02 1.16604418e-02 1.04320692e-02
      -8.53333697e-02 -1.39190461e-02 -3.25267315e-02 9.44433920e-03
      -4.54173377e-03 6.40347749e-02 1.56008196e-03 1.49333412e-02
      -6.45796508e-02 -4.89111766e-02 -3.96352187e-02 -7.53107369e-02
      6.01940118e-02 9.59506482e-02 5.21664508e-02 3.23989242e-02
      -2.17171013e-02 -7.42923841e-02 -4.43863217e-03 4.39938232e-02
      -2.98171062e-02 -7.23186433e-02 -8.20198059e-02 4.85501587e-02
      -5.75764924e-02 -1.11064091e-02 5.12454249e-02 2.10234858e-02
      -2.44278158e-03 -6.78055435e-02 6.78794906e-02 2.70021372e-02
      1.02262929e-01 8.70058984e-02 5.56471990e-03 -6.81718055e-04
      -6.39184341e-02 -1.92939099e-02 2.01970562e-02 2.88169011e-02
      6.71534687e-02 6.84395432e-02 5.96067533e-02 -2.00348515e-02
      -5.17793670e-02 -6.36634305e-02 1.43147132e-03 2.23246478e-02
      4.10496071e-03 -6.24263659e-03 -2.06397846e-02 -1.28373252e-02
      -2.26937570e-02 -6.46574423e-02 -3.29958424e-02 -2.36001220e-02
      1.04767531e-02 1.19217187e-01 1.02336608e-01 4.26305719e-02
      1.06893696e-01 -1.42381368e-02 -1.51502624e-01 1.10687511e-02
      2.08292920e-02 9.84216183e-02 9.99772102e-02 4.19137999e-02
      -1.07741497e-01 -2.37955209e-02 -8.63479003e-02 -6.39057681e-02
      1.13363778e-02 -6.17433339e-03 2.21391059e-02 1.16771333e-01
      4.72181737e-02 -3.43308598e-02 -4.57875654e-02 -1.65848657e-02
      1.10575194e-02 -5.58791831e-02 -4.49073315e-02 -3.42646684e-03
      7.59218261e-02 -8.14493671e-02 -4.01897803e-02 -1.09367981e-03
      -2.49506719e-03 -4.17872667e-02 4.78011034e-02 1.18949469e-02
      9.86019596e-02 7.93039203e-02 -3.63108106e-02 -9.55145210e-02
      -4.04045247e-02 8.13338347e-03 7.22204894e-03 2.75165103e-02
      -2.71836836e-02 4.11692224e-02 -4.02234569e-02 -6.89007416e-02
      -4.00087573e-02 6.33110404e-02 2.78599132e-02 -5.29341511e-02
      3.81830558e-02 2.98404656e-02 3.80050689e-02 1.04296813e-02
      -8.80428925e-02 -5.73397428e-02 -2.22972371e-02 3.48487049e-02
      3.82352173e-02 -1.02261249e-02 1.67725496e-02 -1.18926738e-03
      4.86679748e-03 -2.66470518e-02 4.17641969e-03 -6.86841905e-02
      -5.58079593e-03 7.37618608e-03 1.23630092e-02 1.02674030e-03
      -2.17977650e-02 -4.16913303e-03 -2.23879069e-02 1.22582400e-02
      9.16069672e-02 2.89438646e-02 -8.68114643e-03 3.12966816e-02
      6.00779355e-02 3.36013531e-04 5.35400845e-02 -3.85013856e-02
      3.36949714e-02 -2.73770727e-02 -2.59581041e-02 -8.78403895e-03
      -1.17968097e-01 -1.96547769e-02 -2.01656278e-02 3.17930318e-02
      -2.04014853e-02 4.41527739e-02 -4.19328585e-02 -5.57103008e-02
      -1.09616101e-01 6.49638399e-02 -1.84194539e-02 4.09931280e-02
      1.98458228e-02 5.01510464e-02 -3.02316863e-02 8.24530572e-02
      6.37156283e-03 2.08762176e-02 2.37850826e-02 5.20446934e-02
      -1.96126625e-02 3.66923138e-02 -5.66320978e-02 -4.31862958e-02
      -6.53964430e-02 -2.66263783e-02 -3.34630832e-02 2.65640728e-02
      -1.74478460e-02 -3.89867350e-02 -3.15799378e-02 4.64079045e-02
      -4.19659875e-02 3.44461063e-03 5.40902615e-02 6.89836591e-03
      2.81561296e-02 2.03845855e-02 6.31928742e-02 3.41089591e-02
      -1.68043729e-02 -4.90114242e-02 8.83134827e-02 7.32712895e-02
      2.26367433e-02 7.15454854e-03 -5.26378979e-04 3.34648862e-02
      1.58547848e-01 -5.03128506e-02 -5.40033430e-02 -2.77871341e-02
      1.83498543e-02 4.73094210e-02 -4.21960950e-02 4.99623492e-02
      1.49508804e-01 7.19538797e-03 -6.07153140e-02 -2.98544858e-02
      8.60161707e-02 8.10865164e-02 -5.13124615e-02 -4.47589047e-02
      1.59274668e-01 1.53636754e-01 4.95264903e-02 -5.57018183e-02
      -2.11500619e-02 -5.47820888e-02 1.92797445e-02 -3.85603458e-02
      -8.62245709e-02 -1.19542424e-03 1.08252831e-01 -1.42002674e-02
      -4.29721437e-02 8.50839913e-03 -1.86738241e-02 -1.57968048e-02
      -8.39757249e-02 -3.02849077e-02 6.01289421e-02 1.41563341e-01
      -4.61872332e-02 -5.54107130e-02 -5.23837730e-02 -6.49100691e-02
      -4.65625487e-02 -2.68347636e-02 -1.04134930e-02 1.28693834e-01
      2.10943356e-01 2.85828556e-03 -2.08202899e-02 1.05670862e-01
      2.62116734e-02 -2.97102402e-03 -6.17679134e-02 1.68939698e-02
      1.53128698e-01 2.68913865e-01 -3.84527333e-02 -9.74246114e-03
      -2.71833725e-02 3.88509892e-02 1.49865467e-02 -1.05459634e-02
      6.28452003e-02 4.80469614e-02 3.96304578e-02 -2.71226652e-02
      -7.05377236e-02 1.59832109e-02 -1.97898373e-02 -1.95330884e-02
      -2.60998011e-02 -3.49783190e-02 3.58914845e-02 -2.81045260e-03
      2.67790686e-02 -2.92862598e-02 2.71643624e-02 2.46508885e-02
      -6.72900584e-03 -6.80699646e-02 1.04207508e-01 7.46531412e-02
      8.35500658e-02 -1.02333546e-01 -3.19596939e-03 1.00689400e-02
      4.93509173e-02 4.36839797e-02 -7.92911625e-04 -5.20586334e-02
      6.03527837e-02 -5.35634570e-02 -5.96921630e-02 -1.00803971e-02
      1.73476078e-02 -4.24265163e-03 -2.99350396e-02 -6.01962991e-02
      -1.11047380e-01 2.00800225e-02 5.52164838e-02 8.29617977e-02
      -1.05122402e-02 -1.22875813e-02 8.45984519e-02 1.34021891e-02
      -1.55009016e-01 -1.76143236e-02 7.67164975e-02 1.50706038e-01
      8.66015926e-02 1.19930292e-02 -1.02713630e-01 -3.44930626e-02
      -4.61395830e-02 -1.04484782e-01 -6.84011960e-03 6.42446801e-02
      4.31885896e-03 2.96050459e-02 -5.87640665e-02 -5.15721217e-02
      1.45114847e-02 1.52420970e-02 -3.93650010e-02 1.11674257e-01
      1.17464878e-01 9.68079045e-02 -5.70472563e-03 -6.79952232e-03
      -8.82574618e-02 -6.49770200e-02 8.40950292e-04 4.59820107e-02
      -5.39058121e-03 3.83528210e-02 8.94413963e-02 -9.10462346e-03
      -1.21584143e-02 -6.89076409e-02 -3.33134830e-02 -9.39527247e-03
      -6.97587579e-02 -1.58385523e-02 -8.42154585e-03 1.78181976e-02
      -6.72815219e-02 -2.61916704e-02 8.52702372e-03 1.05750747e-01
      1.79749504e-02 -2.78678630e-02 7.08246082e-02 8.92699808e-02
      1.13935351e-01 -7.91936293e-02 -2.37516811e-04 -4.12155502e-02
      7.50733027e-03 -1.95394792e-02 4.13570330e-02 -2.20667534e-02
      -6.24009641e-03 3.64275351e-02 -7.30036870e-02 -7.07457447e-03
      2.14599967e-02 4.52588648e-02 -5.60159758e-02 -2.04456784e-02
      2.03000214e-02 1.82489771e-02 -1.54217659e-02 -2.76215281e-02
      -9.75255445e-02 6.20187353e-03 1.50755718e-01 2.39758641e-02
      -3.06272821e-04 1.18504867e-01 1.10947020e-01 3.46171074e-02
      6.04240559e-02 -9.06179622e-02 1.31787984e-02 -3.57084069e-03
      4.51420294e-03 2.56755352e-02 6.23856159e-03 7.13736489e-02
      8.06073546e-02 4.14999202e-02 -7.59186894e-02 -4.27428260e-02
      -4.71340269e-02 -6.09641671e-02 -6.49828538e-02 4.41889577e-02
      1.66325629e-01 2.13110615e-02 1.23537458e-01 -1.47886232e-01
      -4.48070355e-02 -5.54693192e-02 -3.57802934e-03 5.79140596e-02
      8.60552341e-02 5.46128266e-02 -1.68020837e-02 2.27668658e-02
      -1.02696605e-01 -6.78432733e-02 -1.12388939e-01 -8.79014935e-03
      8.36101733e-03 5.59514277e-02 1.09723061e-02 -6.81636184e-02
      -9.02036857e-03 3.89511511e-02 1.32724002e-03 -3.24424244e-02
      -5.58149554e-02 3.21923830e-02 2.74179932e-02 4.66655977e-02
      -3.48329917e-02 5.13151065e-02 -1.62868071e-02 -3.20675299e-02
      -7.98274726e-02 2.84025352e-03 4.53697555e-02 8.27772468e-02
      4.97852974e-02 8.33021328e-02 1.37598887e-02 7.19591528e-02
      5.92694692e-02 -8.69525969e-02 -5.42350188e-02 7.93978423e-02
      -1.72738563e-02 4.41659316e-02 7.29990005e-02 6.72919850e-04
      -1.29860314e-03 -3.98381576e-02 -2.18282770e-02 4.85557280e-02
      -2.45310906e-02 3.09846867e-02 1.42397568e-01 1.33683428e-01
      5.29130585e-02 -3.54092033e-03 1.28166173e-02 -9.53964069e-02
      2.47228798e-02 1.38288678e-03 -4.86871079e-02 6.30964041e-02
      7.75187016e-02 -9.45892592e-04 -4.61791679e-02 -3.04637477e-02
      -4.29589413e-02 2.93143019e-02 -5.63109294e-02 3.48756798e-02
      1.84148978e-02 -4.12927568e-02 1.47248898e-03 -3.54092033e-03
      3.01161129e-02 -7.43644238e-02 6.83993027e-02 9.79587138e-02
      -1.99462436e-02 1.32211536e-01 1.09609999e-01 -6.80317134e-02
      1.62418431e-03 1.69742741e-02 -7.41116107e-02 -3.24626192e-02
      1.28696775e-02 1.49002939e-01 1.20967396e-01 1.03110686e-01
      -1.43201455e-01 3.44319679e-02 -7.92176351e-02 -6.15158677e-02
      -1.40010174e-02 1.09833971e-01 8.87538344e-02 1.46592055e-02
      -9.34260115e-02 -1.70749858e-01 -2.33835122e-03 -4.55233414e-04
      -7.00442418e-02 -9.63450130e-03 1.14483826e-01 7.65570179e-02
      -6.52204305e-02 -1.24522023e-01 -1.63277894e-01 -3.43727111e-03
      -2.03920528e-02 -1.02162153e-01 -5.59512638e-02 3.92258540e-02
      1.53702140e-01 4.71591204e-02 1.03033576e-02 -1.06579699e-01
      6.13262206e-02 -3.23791094e-02 6.27672076e-02 5.44487536e-02
      1.85663894e-01 -5.84863909e-02 2.58917920e-02 -6.84916079e-02
      -8.33200142e-02 -9.67930350e-03 -9.13417786e-02 -7.17241690e-03
      -6.48710690e-03 -6.05989583e-02 3.38969729e-03 -1.07176423e-01
      -8.81351084e-02 2.87169889e-02 5.25019132e-02 4.71306331e-02
      6.10496337e-03 -1.84219703e-02 3.90807539e-02 -2.21225563e-02
      -4.30085249e-02 -4.28223535e-02 -1.08359205e-02 5.40925004e-03
      -3.07861958e-02 -9.54634547e-02 -8.64701271e-02 3.68875591e-03
      -3.55736190e-03 1.03030717e-02 -4.18364666e-02 -4.88277748e-02
      -8.35437551e-02 -8.41214657e-02 -1.57720521e-02 1.03411879e-02
      -6.53434470e-02 1.46273270e-01 4.48551495e-03 -1.17847538e-02
      -8.72175172e-02 1.88605618e-02 -6.70301989e-02 -4.41028029e-02
      1.71987619e-03 1.02958806e-01 4.03092988e-02 1.47502087e-02
      -1.56019889e-02 -4.11580242e-02 -3.05431592e-03 -4.86773290e-02
      -4.38715965e-02 -1.03837773e-02 -2.99932552e-03 1.19907357e-01
      2.74497699e-02 3.78852636e-02 -7.40466714e-02 1.53683778e-02
      -5.26347756e-02 -3.48427109e-02 2.20506899e-02 1.37360513e-01
      2.16882229e-01 4.12356891e-02 1.27956700e-02 -1.42384067e-01
      -2.54293866e-02 -1.17869377e-01 -1.01932764e-01 -4.16523628e-02
      1.04248725e-01 8.65091458e-02 1.13708407e-01 4.51058447e-02
      -6.40868321e-02 -1.24015631e-02 -1.21351443e-01 -4.23033386e-02
      -8.96560326e-02 3.41316313e-02 2.48305544e-01 6.37001693e-02
      5.54363616e-02 -1.07810527e-01 -2.42705196e-02 -1.28232852e-01
      -4.25857231e-02 -2.16755029e-02 1.90794155e-01 1.92328215e-01
      2.03458995e-01 4.97853681e-02 -7.10519850e-02 -1.61061976e-02
      -1.25309020e-01 9.00410023e-03 2.12456044e-02 6.82388246e-02
      1.06096759e-01 1.53990969e-01 9.07926783e-02 5.72738945e-02
      -3.87250632e-02 -6.32249564e-02 -7.25142881e-02 -3.66032571e-02
      3.08745503e-02 2.34082211e-02 9.52148214e-02 -2.56762691e-02
      1.68699641e-02 -1.35469571e-01 3.18387151e-02 -1.16306849e-01
      1.03794783e-03 -1.99590577e-03 1.66469917e-01 1.92689389e-01
      -3.49967629e-02 -1.35714868e-02 -8.02075416e-02 -2.50752978e-02
      7.34249130e-02 8.42148140e-02 8.66570845e-02 3.90111394e-02
      -1.16614718e-02 -1.95467502e-01 -6.51450828e-02 -1.21437393e-01
      1.02501020e-01 -1.81252621e-02 5.59622906e-02 8.71899426e-02
      3.12624797e-02 4.13629152e-02 -5.04080392e-02 2.15952266e-02
      -6.54679686e-02 -2.36793631e-03 -2.68460065e-02 -1.25739099e-02
      -2.45211814e-02 2.65433751e-02 2.87871100e-02 1.25358164e-01
      3.53791043e-02 3.14377993e-02 5.34217246e-02 1.54440895e-01
      2.70671938e-02 4.33582318e-04 3.37420702e-02 -6.89294795e-03
      -1.14153385e-01 -1.87663585e-02 -1.30018711e-01 6.68482855e-03
      4.93524421e-04 -1.73355006e-02 7.50645064e-04 -2.39439923e-02
      2.50924379e-02 1.17393181e-01 2.25974880e-02 2.72893887e-02
      6.74967989e-02 1.49514064e-01 3.04204542e-02 -2.55410876e-02
      -2.21344247e-03 2.55557615e-02 6.48259595e-02 -2.82804631e-02
      -8.75135064e-02 4.41240147e-03 -1.66364089e-02 1.66004756e-03
      -2.20491346e-02 1.12523578e-01 -3.24573815e-02 -6.15851507e-02
      -1.18896645e-02 -5.83168305e-02 1.11340070e-02 -5.86136840e-02
      5.66112101e-02 1.22355707e-01 3.01130582e-02 1.22626983e-02
      5.82638308e-02 -1.25702890e-02 -7.35236853e-02 6.73182681e-02
      5.68243861e-02 2.05801781e-02 2.99101435e-02 1.45675912e-01
      -3.09899058e-02 -4.22940440e-02 4.04907875e-02 -5.83168305e-02
      5.59124164e-02 -4.26398069e-02 9.51246023e-02 1.81758299e-01
      1.59037679e-01 -6.28073737e-02 -1.39613762e-01 -1.81588069e-01
      -3.99719775e-02 -1.09974071e-02 -4.18224223e-02 2.66936831e-02
      1.85785085e-01 -8.11406691e-03 -1.88449115e-01 -1.81444019e-01
      -1.46079212e-01 2.97575444e-02 6.06151372e-02 -1.94092579e-02
      -3.86698730e-02 6.82483369e-04 1.29206702e-01 -5.97800203e-02
      -8.11057091e-02 -6.65462613e-02 -4.17714119e-02 3.45254540e-02
      -6.60051927e-02 4.67386879e-02 1.82213262e-01 8.72925073e-02
      -9.78168920e-02 -1.12197973e-01 -7.11593218e-03 9.77485776e-02
      1.34588122e-01 -5.00487015e-02 -2.69326009e-02 9.95867923e-02
      -1.30102053e-01 -2.12843224e-01 -1.66418552e-01 -8.81298259e-03
      4.12171148e-02 1.14875391e-01 -2.02788487e-02 -6.67272583e-02
      -4.29823324e-02 -5.60782924e-02 -7.96185583e-02 -7.70737380e-02
      3.18171158e-02 2.07802448e-02 5.31153828e-02 -8.78501013e-02
      -1.27606422e-01 -7.17980135e-03 3.32535803e-02 -8.37027282e-02
      -1.25864595e-01 9.46048200e-02 1.47523984e-01 1.81387573e-01
      2.98599843e-02 -2.69035306e-02 1.04402520e-01 6.45776689e-02
      -2.35118363e-02 -6.60919473e-02 1.12514190e-01 1.14502292e-02
      1.39784455e-01 -4.72178310e-03 -3.16917673e-02 3.18024494e-02
      1.37623930e-02 -1.37321400e-02 -7.63710728e-03 -2.07005464e-03
      -9.45396256e-03 -3.65288593e-02 -6.84243068e-02 -7.73350671e-02
      7.16156559e-03 1.22896105e-01 3.82004641e-02 7.50090554e-02
      -8.14073160e-02 -1.73983071e-02 -5.74196801e-02 -6.53354311e-03
      -1.47321010e-02 1.32356152e-01 3.61865051e-02 -5.46518527e-03
      -6.86821574e-03 3.21746729e-02 -2.93388087e-02 -1.22518083e-02
      -2.11634431e-02 -4.58847173e-02 -2.48022489e-02 1.05908811e-01
      4.09698263e-02 7.80875608e-02 -1.71422623e-02 -3.65607850e-02
      -1.28331324e-02 4.24085483e-02 -1.31814452e-02 1.37929097e-01
      2.17771247e-01 4.75771353e-02 9.08052847e-02 -1.13768727e-01
      -7.32244402e-02 -6.78615198e-02 -6.70882827e-03 2.15639430e-03
      1.74308360e-01 1.67246252e-01 1.12321816e-01 6.18105121e-02
      -1.02701373e-01 -6.95700794e-02 -9.96667445e-02 4.68904227e-02
      9.44531485e-02 9.34885964e-02 1.19738027e-01 -8.58182926e-03
      4.17610966e-02 -1.00160159e-01 -7.18045384e-02 -4.02425975e-02
      1.27769941e-02 2.83241384e-02 1.37744740e-01 5.59916869e-02
      4.55679698e-03 -2.12839618e-02 -1.46294996e-01 -5.32823205e-02
      -5.96539490e-02 9.32029262e-03 2.13270430e-02 4.44591790e-02
      1.24845296e-01 1.22089520e-01 -2.83925328e-02 -7.66993091e-02
      -6.41604438e-02 -1.23689063e-01 1.00828655e-01 8.63123462e-02
      6.06590137e-02 2.84695625e-02 9.12743737e-04 -1.42023683e-01
      -4.58139665e-02 -1.19468443e-01 1.75845507e-03 9.74976178e-03
      4.28032167e-02 5.32056987e-02 5.30790500e-02 5.58570027e-02
      -1.01479841e-03 -7.45617524e-02 -1.19238012e-01 -8.91826227e-02
      2.44566649e-02 -4.62923723e-04 4.32949960e-02 -2.54206378e-02
      6.13843650e-02 -1.66972242e-02 3.08104809e-02 -3.68710719e-02
      4.57289070e-02 9.52310786e-02 8.99221376e-02 3.99696007e-02
      3.43044698e-02 2.31636297e-02 -3.01741809e-02 -4.86425236e-02
      -8.38285908e-02 -3.55846994e-02 -6.61650077e-02 -1.74362604e-02
      -4.56794444e-03 3.87311727e-02 7.16115087e-02 1.58834115e-01
      1.63103975e-02 1.52047113e-01 6.13484569e-02 3.07102669e-02
      -1.85802002e-02 1.40099516e-02 -5.36914244e-02 -3.39044305e-03
      -5.77822365e-02 -3.27917039e-02 -9.73879695e-02 1.89245259e-03
      -1.32843051e-02 3.96665111e-02 -5.86131811e-02 9.29334760e-02
      -2.59057828e-03 3.90261621e-03 1.73023790e-02 1.21932730e-01
      2.72384640e-02 6.53256103e-03 1.05668027e-02 2.71264426e-02
      1.69566460e-02 2.42206305e-02 7.04772472e-02 7.80191133e-03
      -6.89934343e-02 9.29031670e-02 6.23618141e-02 1.78816970e-02
      1.96838807e-02 2.73129586e-02 1.03062065e-02 -6.39187545e-03
      6.82106540e-02 -1.25052466e-03 2.80292556e-02 2.97861698e-04
      7.78790414e-02 7.59324431e-02 1.79212485e-02 1.02632018e-02
      2.26680953e-02 4.84773889e-03 -1.04517080e-01 6.34925663e-02
      1.19756777e-02 7.63596874e-03 6.19735010e-02 2.29029991e-02
      -1.56164095e-02 -1.26922399e-01 -5.10461954e-03 -1.31646963e-02
      -6.51524495e-03 -1.84603352e-02 1.12773188e-04 1.91210508e-02
      1.37724325e-01 -8.11804365e-03 -5.80424517e-02 -5.35049811e-02
      -7.99327865e-02 6.83473144e-03 -3.56603637e-02 4.22714651e-02
      1.57077998e-01 2.33035639e-01 1.97972972e-02 -7.84778967e-02
      2.92417426e-02 6.16777837e-02 8.52000490e-02 -6.76024035e-02
      3.04760574e-03 2.04790413e-01 -3.65800038e-02 1.61293254e-03
      -9.73287448e-02 -5.57355694e-02 -1.02445900e-01 -7.40556717e-02
      -6.20547459e-02 -5.18885329e-02 -2.52965651e-03 7.29021281e-02
      -1.53013645e-02 -1.27618521e-01 -3.28131691e-02 -2.11261734e-02
      -1.58627110e-03 -1.03178941e-01 -4.71696332e-02 1.70106534e-02
      1.50392950e-01 2.01281514e-02 -1.10201448e-01 9.14979130e-02
      1.22268893e-01 1.15326837e-01 1.33680087e-02 -5.61571587e-03
      1.17583044e-01 2.45516617e-02 -3.47940549e-02 -1.14095420e-01
      4.34144288e-02 3.33892368e-02 9.38916355e-02 4.26999852e-02
      1.81741230e-02 -1.47789745e-02 3.62677909e-02 -2.23996099e-02
      -1.09043837e-01 7.63562648e-03 2.16180123e-02 4.54636365e-02
      2.38897614e-02 -1.30445801e-03 -1.45569304e-02 -3.34427133e-02
      -3.35204713e-02 -1.18996121e-01 -2.75328849e-02 -5.95698915e-02
      7.85411801e-03 3.92989181e-02 -2.12667529e-02 -4.20707278e-02
      9.46970563e-03 -4.30272184e-02 -5.57321124e-02 1.02539081e-02
      1.16964681e-02 5.24401180e-02 1.98244844e-02 4.64894958e-02
      4.99125570e-02 3.71145010e-02 -1.83899200e-03 -6.72741383e-02
      -2.62891483e-02 -1.84509605e-02 6.58696294e-02 7.95682147e-02
      6.89377785e-02 1.35004655e-01 -7.58089824e-04 -1.33918980e-02
      -3.94624211e-02 -3.45849171e-02 -3.74682695e-02 1.91960540e-02
      -2.72759646e-02 4.26751235e-03 2.52120476e-02 -6.25702040e-03
      -2.06181332e-02 -9.10851210e-02 -4.24794592e-02 -8.36962238e-02
      3.17083001e-02 1.51863731e-02 6.05857335e-02 1.04346415e-02
      2.16322690e-02 -6.83519244e-03 -9.04637054e-02 -1.13542832e-01
      -2.39036772e-02 5.46718240e-02 8.24645385e-02 1.11885667e-01
      1.41658828e-01 -4.60084453e-02 -1.03083923e-02 -7.55478218e-02
      -1.16630696e-01 -5.19574657e-02 3.67982052e-02 7.71026015e-02
      3.71720605e-02 5.84212318e-02 -1.40371174e-02 -3.61881219e-02
      -8.77687111e-02 -4.78700288e-02 -5.70995584e-02 2.64648255e-02
      5.35597205e-02 6.43628240e-02 -9.95915383e-03 -1.05022267e-02
      -5.06671779e-02 -9.56387371e-02 -1.14442267e-01 -9.74899083e-02
      6.37823418e-02 1.36014491e-01 9.25316587e-02 3.27930823e-02
      -4.79298979e-02 1.64202359e-02 -5.97535819e-02 -8.06924179e-02
      -9.02897641e-02 -1.69273186e-02 3.00051700e-02 -2.34091338e-02
      2.52217799e-02 -3.70566882e-02 -1.85379516e-02 -6.32511526e-02
      -3.83096822e-02 -5.18575534e-02 1.95519030e-02 -1.86647233e-02
      1.66582298e-02 3.08546890e-02 3.47766578e-02 -1.24345636e-02
      -3.96112390e-02 -5.31647280e-02 -3.67708802e-02 4.96633500e-02
      1.58091486e-01 5.45221269e-02 1.22682042e-01 2.96983384e-02
      2.42646020e-02 -6.68613007e-03 3.64812054e-02 -4.22428399e-02
      2.16355827e-02 -1.63136180e-02 2.25189365e-02 5.67419082e-02
      -5.44219725e-02 5.43704769e-03 -4.26889658e-02 1.20107401e-02
      -1.29295543e-01 8.11023638e-03 3.18732448e-02 2.63272151e-02
      -9.15174857e-02 5.85195422e-02 -2.03434229e-02 -3.68644781e-02
      -1.95941445e-03 -2.12951861e-02 -2.07877606e-02 7.08308220e-02
      4.24963571e-02 4.27497402e-02 1.80811733e-02 8.46112240e-03
      4.77180965e-02 3.48143862e-03 -5.81975952e-02 -2.48068036e-03
      2.33883429e-02 4.00653295e-02 3.28331031e-02 -3.55687141e-02
      3.72763313e-02 3.27012688e-02 -2.53963433e-02 -7.95497671e-02
      -3.90052870e-02 4.16097343e-02 5.94259501e-02 9.30124149e-03
      -2.27431413e-02 -1.54404482e-02 -5.78588545e-02 -1.68204010e-02
      -3.17955129e-02 2.57034060e-02 -3.79477851e-02 1.69228227e-03
      5.48772439e-02 7.05977306e-02 -5.88585660e-02 -1.16511963e-01
      -4.72841039e-02 4.30968180e-02 4.56862785e-02 9.48763639e-02
      2.10985727e-05 6.05024546e-02 1.28831835e-02 -8.47326964e-03
      4.99853538e-03 -9.84129030e-03 3.25275473e-02 -1.58986449e-02
      -9.47515946e-03 -7.85313640e-03 7.95602892e-03 -3.13605852e-02
      -2.81826295e-02 -3.58772501e-02 -1.35700144e-02 -1.26939043e-01
      -3.77772702e-03 4.50281380e-03 2.47337832e-03 -3.94346006e-03
      -2.82979459e-02 -2.62524486e-02 -1.41484395e-01 -3.34505029e-02
      -6.95088804e-02 -2.31422819e-02 -3.31141092e-02 -3.65317911e-02
      -1.63054261e-02 8.84116963e-02 -3.38946693e-02 -9.49986130e-02
      -1.76172666e-02 1.04328217e-02 -4.70732432e-03 -4.82068397e-02
      -5.79782352e-02 6.66850135e-02 -4.30677366e-03 -1.27517562e-02
      -1.21456664e-02 -8.37835297e-03 -3.86652015e-02 -3.00651789e-03
      -1.25313166e-03 -2.81446287e-03 -3.27758957e-03 2.54997611e-02
      -1.71480384e-02 -1.05628197e-03 -1.56271774e-02 4.85994704e-02
      -2.89703738e-02 -2.29358785e-02 -1.92844942e-02 2.11526733e-02
      4.18292917e-02 -1.42078903e-02 -1.78589318e-02 1.52144395e-02
      -5.82779087e-02 -1.79575458e-02 5.48253357e-02 5.27418405e-03
      1.45486789e-02 1.73463039e-02 5.15956543e-02 2.49505173e-02
      2.17867619e-03 3.83987986e-02 -1.82536226e-02 2.51326021e-02
      2.82454863e-02 -6.81096222e-03 -2.12404933e-02 1.23074576e-02
      3.69971693e-02 -2.70546810e-03 -6.55931747e-03 -4.42814231e-02
      -2.51318142e-02 -4.64452151e-03 -3.31821144e-02 -7.32356980e-02
      2.26516668e-02 5.08800745e-02 -1.45022599e-02 -9.37012676e-03
      -2.15145182e-02 -1.02905836e-02 2.27236981e-03 -5.16620167e-02
      -4.37727990e-03 8.29569101e-02 4.73029576e-02 -5.77816507e-03
      1.12419493e-01 2.80350680e-03 -1.02943589e-03 2.03711987e-02
      -1.80217214e-02 -5.67126200e-02 1.70017518e-02 6.77628592e-02
      5.51399998e-02 5.84866963e-02 1.37584535e-02 2.03556195e-02
      5.79844834e-03 -5.35205565e-02 -8.30395296e-02 2.85264533e-02
      4.49084723e-03 -1.07394913e-02 2.06355490e-02 -1.06635159e-02
      -2.30345950e-02 -1.00600636e-02 -3.99145223e-02 -4.87725213e-02
      1.54362107e-02 3.81511860e-02 2.09496133e-02 -1.03638945e-02
      8.75653885e-03 4.02427104e-04 -2.18846947e-02 -1.78871360e-02
      -1.34854540e-02 -2.94036642e-02 3.24193239e-02 6.60140067e-02
      1.47865424e-02 2.89535280e-02 2.22884621e-02 -2.50969827e-02
      -3.02364696e-02 3.78845856e-02 -4.51252870e-02 -8.56801495e-03
      -4.84140329e-02 -2.06003591e-04 3.07954997e-02 8.76377448e-02
      5.65766655e-02 -6.50307117e-03 -1.83001589e-02 1.82862952e-02
      6.43400177e-02 1.60363205e-02 8.63443688e-03 1.65845994e-02
      -4.30732667e-02 -3.95275801e-02 -1.60138421e-02 2.09388528e-02
      2.93592215e-02 3.84715162e-02 -8.67410470e-03 6.97861193e-03
      -6.70534372e-03 -1.45346988e-02 -3.77284735e-02 4.29519117e-02
      4.51739728e-02 -5.54263266e-03 4.79879417e-02 -6.24875911e-02
      -7.14909807e-02 -4.72876988e-03 5.94565831e-02 8.06434229e-02
      5.01047000e-02 4.22951020e-03 6.81051239e-02 1.35806233e-01
      -1.47181062e-03 -3.30321491e-02 1.10463416e-02 4.24892120e-02
      2.84712296e-02 2.60287933e-02 -8.54310300e-03 2.36837491e-02
      4.63102795e-02 -1.57739390e-02 -5.36702611e-02 -3.01720984e-02
      -1.15906459e-03 -1.92629509e-02 6.98632095e-03 -5.63232345e-04
      1.52058713e-03 4.57344763e-02 -4.65034842e-02 -8.75710845e-02
      -1.44582763e-02 -4.61497232e-02 -3.75301903e-03 -1.44614428e-02
      -6.94589282e-04 4.03250530e-02 5.58325611e-02 8.94209966e-02
      2.48389249e-03 6.58264384e-02 9.50906277e-02 2.37712078e-02
      4.27690335e-02 -6.35133386e-02 2.72274055e-02 5.27618676e-02
      -6.65328130e-02 -3.57254483e-02 2.26752553e-02 3.42249386e-02
      4.93914448e-02 9.25639924e-03 -2.66833026e-02 -2.50771195e-02
      -4.75230115e-03 -3.18578631e-02 -7.50694573e-02 1.86714847e-02
      -7.37604825e-03 -2.80467770e-03 -3.33906971e-02 4.45827991e-02
      -4.20642905e-02 -5.79985119e-02 -5.21453880e-02 -1.46845639e-01
      9.72960144e-03 6.57766545e-03 3.68818380e-02 3.27317901e-02</_>
    <_>
      -2.51950938e-02 -1.30289083e-03 5.46718063e-03 6.11729780e-03
      -4.60327826e-02 -3.94027121e-03 -4.04909998e-02 -1.61213502e-02
      -4.30230238e-02 -4.54679541e-02 -7.40210563e-02 -1.75948769e-01
      1.79227218e-02 -4.27780934e-02 5.60026895e-03 -4.95737121e-02
      -2.42874417e-02 -6.59677014e-02 3.82835902e-02 3.37651521e-02
      -4.70872298e-02 3.15869749e-02 1.80093630e-03 3.15923691e-02
      -2.09499914e-02 -2.98877396e-02 -1.72757618e-02 -7.15162084e-02
      -3.98559719e-02 2.21610162e-02 1.14790136e-02 1.82422101e-01
      7.48211369e-02 9.62278917e-02 1.65947750e-02 -8.76127854e-02
      -6.19160794e-02 -3.12860683e-02 -8.77838209e-02 6.11182535e-03
      -7.27056265e-02 -1.99678796e-03 -3.66465747e-02 -2.02023610e-02
      -8.06863233e-02 -7.60467276e-02 -3.57825286e-03 -8.24837983e-02
      2.63779350e-02 -1.16628511e-02 -4.17618034e-03 -2.65747253e-02
      -1.60802267e-02 -1.15294121e-01 7.43902568e-03 5.45426905e-02
      -5.10958694e-02 3.75354523e-03 1.18980762e-02 3.29658166e-02
      3.19472328e-02 -1.51562039e-02 1.06040072e-02 1.53053273e-03
      7.98861459e-02 -9.28696468e-02 -8.36735312e-03 -2.31238939e-02
      4.88975085e-03 4.50096391e-02 -2.18913667e-02 4.22047451e-04
      -1.05343629e-02 9.32212267e-03 -5.50939776e-02 2.11384445e-02
      -5.07852547e-02 1.29640996e-02 -6.38090726e-03 -4.97898925e-03
      -6.99866191e-02 -4.29373197e-02 4.10979167e-02 -2.52401605e-02
      1.97612755e-02 -1.22657537e-01 5.25926612e-03 -1.86044071e-02
      -1.87647808e-02 -7.69269094e-02 -3.20895053e-02 -3.91170476e-03
      -4.74844277e-02 -1.64729804e-02 3.73050123e-02 2.88889688e-02
      7.37596899e-02 5.57502871e-03 -3.14903893e-02 -3.57487537e-02
      -2.38969829e-02 -5.09338304e-02 4.33508009e-02 6.03121482e-02
      1.39327040e-02 1.25877475e-02 -3.29047963e-02 -3.77412178e-02
      -3.36885825e-02 8.26539285e-03 -6.37043864e-02 3.97114269e-03
      -2.81554274e-02 3.12300492e-03 -2.75574885e-02 -1.98279181e-03
      -3.37131508e-02 8.96229688e-03 2.25972198e-02 1.65472198e-02
      7.43523147e-03 2.57729813e-02 1.55583071e-02 -4.33399118e-02
      3.16173993e-02 -1.60812270e-02 4.20297943e-02 -3.92871201e-02
      -5.84237166e-02 -1.51577238e-02 6.72373101e-02 -3.08810510e-02
      8.61266479e-02 3.50474939e-02 5.48320264e-02 -9.25662443e-02
      6.26997575e-02 1.14346733e-02 -8.98127332e-02 -1.91116408e-02
      3.09107117e-02 1.03322454e-02 3.96815240e-02 -1.12858400e-01
      3.21630388e-02 1.15195420e-02 1.55604677e-02 8.10454041e-03
      7.05218269e-03 -8.28370638e-03 1.31966807e-02 3.75067927e-02
      7.66819064e-03 2.98476703e-02 -1.64701547e-02 -3.33109722e-02
      7.55178416e-03 -1.35602131e-02 -1.26583856e-02 6.09227829e-03
      6.36695651e-03 -1.12902429e-02 -7.72567093e-02 5.73234968e-02
      4.87691239e-02 -1.29106632e-02 -2.73136757e-02 2.40134392e-02
      2.14882176e-02 -3.31646316e-02 -1.13032833e-01 -4.52799909e-02
      4.98629212e-02 6.67188093e-02 2.57222988e-02 -5.33107575e-03
      -6.76371809e-03 1.04916543e-01 -1.40544381e-02 -5.40790372e-02
      -3.72736156e-02 -1.73192807e-02 -2.20667999e-02 4.15595528e-03
      -1.13473805e-02 -1.59345921e-02 1.88999958e-02 8.42809118e-03
      9.39675886e-03 -3.55659164e-02 -3.71700078e-02 -2.27837451e-02
      2.40943450e-02 4.67084721e-02 3.53957936e-02 1.28670111e-01
      4.77374233e-02 -5.74339293e-02 -9.39175338e-02 4.75474074e-02
      3.00336890e-02 -4.67004068e-02 -4.38538268e-02 -5.21365143e-02
      7.44546950e-02 2.91493088e-02 -7.17197880e-02 -7.28789791e-02
      -7.27640018e-02 -4.57234569e-02 -2.55335439e-02 -4.16357853e-02
      3.67285460e-02 9.28738341e-03 -2.08971705e-02 -2.23544557e-02
      -7.32119158e-02 -2.06576101e-02 -2.06784755e-02 4.52516638e-02
      5.29218316e-02 3.87055352e-02 7.95078799e-02 1.73738375e-02
      -7.07387105e-02 -4.19494919e-02 1.64152570e-02 -2.22181883e-02
      2.53906809e-02 -9.05799195e-02 -5.24072796e-02 -6.78998530e-02
      -3.66516896e-02 -6.98070973e-02 -6.32421449e-02 -6.05545901e-02
      -2.46599596e-02 -1.58756319e-02 -1.01407893e-01 8.79185572e-02
      -5.13507873e-02 2.04014080e-03 -3.56125459e-02 -5.09242155e-02
      1.12234941e-02 6.79490641e-02 2.95149703e-02 -5.15599102e-02
      -2.63475422e-02 5.17696962e-02 -4.04769890e-02 -5.92309572e-02
      -6.36132658e-02 -2.34164577e-02 -7.41971806e-02 -2.41499278e-03
      -1.42522166e-02 -1.14749395e-03 -7.49449134e-02 -3.91832106e-02
      -3.36886048e-02 -1.37779233e-03 -1.02267161e-01 -2.20027100e-02
      -1.11018298e-02 7.76262656e-02 2.79603880e-02 -2.61511765e-02
      -1.87678989e-02 4.04684767e-02 -6.39352575e-02 -4.01603654e-02
      4.43184702e-03 1.59931071e-02 -2.56474465e-02 -2.44043600e-02
      -6.93246629e-03 4.03179461e-03 2.30680313e-03 3.93306874e-02
      -1.00310184e-01 3.70931737e-02 5.07226661e-02 6.06867559e-02
      1.30427461e-02 -9.99160949e-03 -5.64499944e-03 8.94510970e-02
      8.47618505e-02 -2.46595088e-02 4.17395420e-02 -2.97233202e-02
      -1.08050844e-02 7.73905683e-03 -6.81682210e-03 -5.97840687e-03
      1.26452923e-01 -1.37550682e-02 7.80597143e-03 3.97524945e-02
      -4.02464606e-02 2.94844862e-02 -8.32521077e-03 1.48205766e-02
      7.07422942e-03 -1.21163381e-02 4.12248895e-02 -4.69678231e-02
      1.58000905e-02 -3.64848971e-02 -8.43414217e-02 -2.86628269e-02
      -6.51842207e-02 -2.63304263e-02 5.00185676e-02 -1.11601725e-02
      -1.71515550e-02 -2.73691900e-02 -7.78451785e-02 -6.82773441e-02
      -1.19617596e-01 -1.17627747e-01 -1.60099175e-02 2.34550666e-02
      -2.96080690e-02 -2.56303251e-02 -1.17861235e-03 1.17200185e-02
      3.02791297e-02 1.44651067e-02 2.93403417e-02 1.35998735e-02
      -3.82314436e-02 -4.24297303e-02 -1.30797522e-02 -1.16788102e-02
      8.71595591e-02 1.82691365e-01 5.11095561e-02 9.84855369e-03
      1.13466782e-02 -6.07374720e-02 -2.56888103e-02 6.79586502e-03
      -3.30402814e-02 -4.54563089e-02 -1.59145534e-01 -5.51403500e-02
      -7.91200623e-02 -1.48926983e-02 2.57408116e-02 -2.86079128e-03
      7.29226023e-02 1.89479850e-02 1.32489204e-01 -1.73558295e-02
      9.84329507e-02 8.36533215e-03 3.32343578e-02 1.72235130e-03
      -5.39099537e-02 -2.12568622e-02 2.11449843e-02 4.42011468e-02
      1.31693617e-01 5.55327255e-03 -9.67541896e-03 -1.49565833e-02
      -7.11415187e-02 -3.77075151e-02 1.52874431e-02 -2.64940457e-03
      -1.61407553e-02 -1.90350115e-02 4.04572161e-03 -2.10905727e-02
      -3.19407061e-02 -4.08047624e-02 -7.90963788e-03 2.26436555e-02
      3.45325805e-02 1.06189564e-01 6.12373017e-02 3.01740449e-02
      -4.38377373e-02 -2.25151908e-02 -2.97710877e-02 7.75271654e-02
      3.47458869e-02 7.37005174e-02 6.35141805e-02 5.07890135e-02
      -2.10261662e-02 -2.13934019e-01 -6.86189085e-02 5.71135879e-02
      4.06734608e-02 6.88274726e-02 9.50422324e-03 2.49145124e-02
      7.72958323e-02 2.90595051e-02 4.18524519e-02 6.19973941e-03
      1.96950883e-02 -5.30611388e-02 6.09637424e-02 -5.89492629e-05
      -1.88198928e-02 -9.15790573e-02 6.27266848e-03 1.81698650e-02
      -2.18134206e-02 -6.76426888e-02 1.52390212e-01 3.82785685e-02
      3.21290381e-02 5.08408509e-02 -3.59473564e-02 -9.65212379e-03
      -1.14202790e-01 6.33480307e-03 8.55246559e-02 1.03470646e-02
      -3.46844532e-02 -9.96390954e-02 -8.09018463e-02 -8.92177075e-02
      3.37840095e-02 -1.59641472e-03 2.76147593e-02 -3.11981104e-02
      3.13083418e-02 6.29506782e-02 1.29816923e-02 -5.48250228e-02
      -5.64276539e-02 -1.28997238e-02 -1.46055343e-02 -3.56486365e-02
      -2.94700433e-02 -5.25215082e-02 -8.89792200e-03 -3.90634388e-02
      8.42152862e-04 2.09450405e-02 2.12051179e-02 -9.52444822e-02
      -5.31669259e-02 -7.92019963e-02 -6.70890370e-03 2.97262855e-02
      -7.52797797e-02 -2.45635621e-02 2.19232216e-02 8.12231824e-02
      6.57491460e-02 2.13634614e-02 -4.26450931e-03 -3.85206416e-02
      8.67706761e-02 6.02203645e-02 7.05983341e-02 -4.46980894e-02
      3.94367166e-02 -8.89344439e-02 -5.67563847e-02 -4.56169732e-02
      -1.46808818e-01 -3.93962376e-02 -7.36854151e-02 -3.82498372e-03
      -1.54547086e-02 2.22109333e-02 -3.93668842e-03 -7.62048066e-02
      -1.02892041e-01 9.14078429e-02 1.56872869e-02 7.65113682e-02
      -2.55817920e-02 8.40580538e-02 -1.07627278e-02 -2.31726724e-03
      -2.87896506e-02 7.40165338e-02 1.02982176e-02 5.62577099e-02
      4.15076427e-02 -2.85892785e-02 -7.34348372e-02 -8.73055607e-02
      -7.53829181e-02 -3.30415517e-02 -5.86290285e-03 -3.97455646e-03
      2.81324349e-02 4.74837311e-02 -8.30881298e-02 -1.93635877e-02
      -1.08357638e-01 -8.36990401e-02 -2.46858187e-02 -5.79135818e-03
      -3.71284131e-03 2.45369226e-03 6.30321130e-02 1.61496103e-02
      -7.79230520e-02 -2.89379749e-02 1.37338698e-01 4.15696017e-02
      -1.19028529e-02 8.11164305e-02 -8.98809452e-03 -4.67970930e-02
      6.69187447e-03 6.29456388e-03 6.77940547e-02 4.67486419e-02
      -4.75425320e-03 1.00762986e-01 1.58004346e-04 -6.12641592e-03
      5.46406209e-02 4.06417064e-03 -1.02890372e-01 -1.40264686e-02
      8.91430676e-02 1.97240505e-02 1.15288636e-02 -6.13111071e-02
      -3.42943594e-02 7.34528201e-03 -9.54023451e-02 -4.45764139e-02
      4.35528681e-02 -5.95477335e-02 -4.95891124e-02 7.58818537e-03
      -1.04106300e-01 -2.41108588e-03 -8.74948278e-02 -7.23749027e-02
      -3.05672381e-02 7.99591616e-02 -3.14640664e-02 -2.19492763e-02
      -9.31149349e-02 -1.75504554e-02 6.57145455e-02 2.38122568e-02
      -1.68200694e-02 9.19694267e-03 -4.39055078e-02 -1.05782688e-01
      -3.13932113e-02 -7.36667886e-02 6.86508939e-02 -1.28279785e-02
      -6.80574253e-02 -4.07658070e-02 2.54151020e-02 1.62838668e-01
      -4.18941602e-02 -2.06994303e-02 4.00201231e-02 7.96114206e-02
      1.32209167e-01 2.55877525e-02 6.58258870e-02 -1.82650238e-02
      5.72027341e-02 -8.31877142e-02 -1.53799644e-02 2.03960370e-02
      -8.23147967e-03 2.87564285e-02 2.30927952e-02 3.37885916e-02
      -7.17181787e-02 -4.24648635e-02 -8.13548639e-02 -4.87373210e-02
      -7.77231380e-02 -2.40507759e-02 1.72882155e-02 2.30098478e-02
      1.33899286e-01 -6.98311813e-03 5.12688197e-02 5.04483804e-02
      1.48313055e-02 -1.27731236e-02 1.72078654e-01 1.22148328e-01
      3.55658531e-02 -1.30177131e-02 -3.52444053e-02 -3.52153555e-02
      -9.41617265e-02 -7.83558786e-02 -5.01845554e-02 2.34239399e-02
      1.39049543e-02 -5.31614870e-02 -1.16711874e-02 -1.52335095e-03
      1.31942555e-02 -6.52655819e-03 -5.27597331e-02 -4.08857455e-03
      -4.80662175e-02 2.85029504e-02 4.68603373e-02 1.05096787e-01
      3.29587422e-02 2.92281806e-02 2.90573556e-02 3.04474179e-02
      1.14457710e-02 5.13336957e-02 9.38113481e-02 1.20167628e-01
      7.60751739e-02 -6.55591441e-03 -3.69077288e-02 -1.82158679e-01
      -1.67693477e-02 1.45387277e-03 -3.99055742e-02 1.16982628e-02
      -2.23657023e-02 4.11174633e-03 -8.97873566e-03 6.88259536e-03
      -2.80777155e-03 2.28259675e-02 -5.17650247e-02 3.14544290e-02
      1.07898518e-01 3.03548500e-02 4.75963531e-03 -1.70714166e-02
      -6.93034008e-02 -7.32675195e-02 7.85307307e-03 -1.12813532e-01
      1.51436374e-01 7.07074851e-02 8.86304080e-02 7.64626935e-02
      -3.04433983e-02 -4.34865877e-02 -1.45865008e-01 -1.93323265e-03
      6.98347837e-02 6.22412898e-02 -1.28746005e-02 -6.73573986e-02
      -4.81902100e-02 -4.99582700e-02 -2.28246003e-02 1.97326741e-03
      6.93233833e-02 4.09375764e-02 1.32792801e-01 9.71807018e-02
      8.30386654e-02 1.40304258e-02 -3.47641967e-02 -9.65865403e-02
      -7.10879490e-02 4.25514765e-02 -5.38639761e-05 8.05583000e-02
      6.72912523e-02 -6.99745193e-02 -6.79248869e-02 -2.99319085e-02
      -1.04838416e-01 -1.43143639e-01 5.98341972e-02 3.10651213e-02
      3.99755649e-02 6.23634085e-03 -8.52852091e-02 -1.96569003e-02
      -7.41020814e-02 -3.34456339e-02 5.99485375e-02 6.46386445e-02
      4.29748632e-02 3.96459550e-02 1.11077473e-01 1.58308417e-01
      1.56732708e-01 -3.50361131e-02 5.55866165e-03 -1.22730009e-01
      -1.64039508e-02 -8.04833248e-02 3.87286022e-02 8.66227672e-02
      4.36227731e-02 6.00569397e-02 -1.35474965e-01 -1.52765244e-01
      -1.85699612e-01 -3.57227772e-02 5.40086208e-03 2.80104089e-03
      1.14826165e-01 9.47605893e-02 1.79429889e-01 -6.41904473e-02
      -1.27858579e-01 -1.27242565e-01 -5.88579588e-02 -2.65469588e-02
      -2.35300772e-02 6.39536232e-02 7.82977790e-02 1.02069236e-01
      9.92345158e-05 -7.91353807e-02 -1.18055277e-01 -2.77214497e-03
      -6.57246187e-02 -3.21423635e-02 3.31695788e-02 -3.96158844e-02
      5.92012983e-03 7.81133678e-03 -3.68119627e-02 -6.63393065e-02
      -5.16970921e-03 8.51042382e-03 -2.79031377e-02 3.17931138e-02
      -7.02966079e-02 8.43202844e-02 -5.85769117e-03 -8.30292404e-02
      -8.29896145e-03 9.71122086e-03 -4.10606787e-02 2.66473889e-02
      2.28272863e-02 -4.23063822e-02 3.10141984e-02 1.31043773e-02
      5.45710362e-02 -4.10660058e-02 1.32145630e-02 4.49315533e-02
      4.13938612e-02 -7.66791217e-03 3.21977213e-02 1.10438094e-03
      2.85098143e-02 -6.76211119e-02 2.38760263e-02 7.43011571e-03
      4.45735380e-02 5.32060042e-02 -1.21273529e-02 5.34278899e-02
      -1.62067171e-02 -2.25943606e-02 3.43913399e-02 -1.17594846e-01
      -7.01131225e-02 9.86155123e-02 4.82060462e-02 1.86652920e-04
      2.60946564e-02 3.57357552e-03 -4.11840491e-02 -7.56618306e-02
      -4.10207966e-03 -4.82446747e-03 -1.52071901e-02 1.16543345e-01
      -3.02815586e-02 -7.69207776e-02 -1.36023536e-02 -1.91633869e-02
      2.35511698e-02 -9.75845903e-02 -2.75730137e-02 1.33123308e-01
      1.63109973e-01 4.30412730e-03 -3.69821005e-02 -7.35543966e-02
      -5.18830121e-02 7.94699043e-03 -1.47761747e-01 -5.75557835e-02
      1.55565426e-01 2.16641411e-01 1.73067078e-01 -3.79568301e-02
      -1.27373978e-01 -1.67382672e-01 -1.53497949e-01 -2.16277122e-01
      -1.02418952e-01 1.46921799e-01 1.51948676e-01 4.55529243e-03
      -7.05073848e-02 -9.90231410e-02 2.27913242e-02 -2.45974362e-02
      -1.08694427e-01 -4.00702171e-02 1.27422839e-01 8.90259743e-02
      1.82221457e-01 -8.54055677e-03 -1.68864697e-01 -1.91771358e-01
      -2.17262015e-01 -2.14901328e-01 -1.14783987e-01 1.60045493e-02
      2.68518150e-01 2.08954945e-01 6.34184852e-02 -1.55125866e-02
      -8.52761865e-02 -1.20248668e-01 -1.18371114e-01 -9.54055265e-02
      1.30060434e-01 3.88779081e-02 4.09510583e-02 -1.40069276e-02
      -4.70600724e-02 1.48203149e-02 -5.19036911e-02 -2.19388288e-02
      -4.92399409e-02 -2.98997089e-02 1.41341961e-03 1.63698032e-01
      8.54830965e-02 7.62017220e-02 -1.85941726e-01 -1.10559456e-01
      -1.16429418e-01 -5.95429614e-02 -1.31236970e-01 -3.20709869e-02
      2.12118030e-02 5.40375300e-02 3.94613706e-02 5.61755500e-04
      -5.35362102e-02 -8.71344656e-02 -1.37461899e-02 -3.56349573e-02
      -4.66679484e-02 -2.40026787e-02 -4.50004339e-02 -5.33918552e-02
      -4.75719720e-02 -3.20068784e-02 2.67467219e-02 4.80227266e-03
      -7.66657516e-02 9.63086262e-02 -1.41894994e-02 -3.70282196e-02
      -5.58190942e-02 -1.37922959e-02 -1.47822779e-02 9.38800164e-03
      6.48447638e-03 -1.31929442e-02 -1.02602560e-02 3.29822465e-03
      -7.76666868e-03 -1.69901606e-02 -1.14678480e-02 -1.41709205e-02
      1.56541839e-02 8.54581688e-03 -3.57902534e-02 8.55382010e-02
      1.47813382e-02 6.74177110e-02 -2.79172044e-02 2.10045706e-02
      1.99142215e-03 3.23170908e-02 3.39910313e-02 6.00417629e-02
      1.78892449e-01 1.22145331e-02 -1.26237776e-02 -6.10317960e-02
      -3.85333970e-02 -1.17649816e-01 -4.52310331e-02 3.48790586e-02
      4.78856415e-02 1.04767941e-01 9.06967744e-02 -2.36924849e-02
      -5.59168980e-02 -8.16191211e-02 -1.53710634e-01 -1.17364988e-01
      4.91687730e-02 7.52329230e-02 1.70475543e-01 1.92039628e-02
      1.24623477e-02 -6.07034154e-02 -5.35551831e-02 -8.77790228e-02
      1.02198320e-02 4.61669266e-02 1.49551913e-01 1.55534670e-01
      9.03660282e-02 -2.62131933e-02 -1.06164604e-01 -1.44290268e-01
      -1.28051445e-01 -2.42436845e-02 7.16107637e-02 1.14101484e-01
      6.55512735e-02 1.43322751e-01 1.00333996e-01 8.64838436e-02
      -1.36677191e-01 -1.27709135e-01 -1.40658930e-01 -2.50039040e-03
      1.06851391e-01 4.95339446e-02 3.24061476e-02 1.21102026e-02
      1.00368910e-01 -1.18188344e-01 -7.40997195e-02 -8.10920671e-02
      8.12926982e-03 7.23933205e-02 1.53012022e-01 1.50444865e-01
      1.10426620e-02 1.42911365e-02 -1.23191133e-01 -5.52349128e-02
      -1.42237237e-02 8.09089243e-02 1.29733920e-01 7.66159147e-02
      1.77266002e-02 -1.18942171e-01 1.97442295e-03 -1.70445502e-01
      1.59445759e-02 -3.05066928e-02 4.32355218e-02 8.39239210e-02
      4.74222675e-02 -1.52223436e-02 -9.23278332e-02 -4.97268736e-02
      -7.25132301e-02 -3.65800150e-02 -3.13705206e-02 1.02139087e-02
      5.70258871e-02 9.66405589e-03 -3.09203356e-03 1.05061997e-02
      8.65378417e-03 -2.11035758e-02 5.77693135e-02 1.12507276e-01
      2.09273584e-03 3.28093320e-02 3.33831869e-02 6.64953375e-03
      -8.49517062e-02 -7.27756321e-02 -1.12511739e-01 -3.88446376e-02
      -1.68104321e-02 -7.96026736e-03 5.84885553e-02 -2.57615745e-02
      5.38053587e-02 4.84202541e-02 3.86790931e-02 -3.34754772e-02
      -8.91936105e-03 1.11927316e-01 -7.52887107e-04 4.71484885e-02
      3.04464833e-03 -7.27938395e-03 -7.30393967e-03 -6.57932740e-03
      -9.04604644e-02 -3.48492488e-02 -4.43537235e-02 -1.68082062e-02
      -1.43427402e-02 9.19260234e-02 -7.42262006e-02 -1.60887912e-01
      -8.15328676e-03 -1.39996475e-02 2.08669566e-02 -7.57263377e-02
      1.72288176e-02 1.59967512e-01 4.82636094e-02 -1.99824255e-02
      -3.36291641e-03 2.67823841e-02 -1.45777375e-01 2.30633207e-02
      -1.61945466e-02 -9.44279251e-04 5.67772798e-02 8.88577327e-02
      -7.01019540e-02 -9.09484997e-02 -6.24778727e-03 -1.39996475e-02
      4.29908223e-02 -1.85802039e-02 6.65382147e-02 1.36159122e-01
      1.10688165e-01 -3.22239101e-02 -1.50052667e-01 -9.05969590e-02
      -2.75468342e-02 4.94284593e-02 -6.93764724e-03 2.80633923e-02
      1.64957017e-01 -5.25676943e-02 1.50611028e-02 -9.11431909e-02
      -1.54822677e-01 -1.66846827e-01 -6.48244610e-03 -5.00929728e-02
      -3.30808922e-03 -5.04489355e-02 -8.99532158e-03 -5.07335514e-02
      -7.93585330e-02 -5.65111712e-02 -3.89088504e-02 1.11995853e-01
      5.30547928e-03 8.63002688e-02 9.93014127e-02 7.55804777e-02
      -6.26345947e-02 -1.18509956e-01 -1.05940685e-01 -4.74454463e-02
      8.81511122e-02 -3.60186510e-02 6.20936081e-02 1.14135444e-01
      -2.04469845e-01 -1.88400261e-02 -6.35988712e-02 2.50596441e-02
      -1.59190208e-01 1.02091758e-02 -3.34120318e-02 3.59226987e-02
      -2.01810792e-01 -1.39201790e-01 2.22621653e-02 5.24910055e-02
      9.61221308e-02 2.25638459e-03 1.19536780e-02 -3.02451812e-02
      1.69015452e-02 -7.35460892e-02 3.18230651e-02 3.55696715e-02
      -2.97774728e-02 3.21790799e-02 -5.77841420e-03 4.75612395e-02
      -1.46562355e-02 8.12033638e-02 9.00912881e-02 4.15936597e-02
      1.29962921e-01 1.09638795e-01 1.45799011e-01 -8.14420823e-03
      1.14219062e-01 3.90058383e-02 1.10371761e-01 1.72854625e-02
      -3.14978696e-02 3.36268917e-02 3.58965695e-02 -4.65247920e-03
      -8.17555282e-03 -3.40930857e-02 -2.01146696e-02 -1.58682875e-02
      -2.59639099e-02 7.94292465e-02 9.37675983e-02 9.30196866e-02
      -5.39414510e-02 -3.29705477e-02 -7.10559338e-02 2.98921596e-02
      2.47493442e-02 2.45926864e-02 -5.45208715e-02 5.50277382e-02
      8.10062736e-02 3.71003747e-02 -4.24451120e-02 -4.75219600e-02
      -3.64053831e-03 2.11196113e-02 -8.73744413e-02 6.84001222e-02
      7.34688118e-02 1.02425784e-01 6.42807782e-02 -3.26785073e-02
      -1.39950931e-01 7.76692852e-03 1.26104662e-02 7.26868957e-02
      1.35194585e-01 4.22533564e-02 7.79489055e-02 -7.71089643e-02
      -4.03256603e-02 -7.25392848e-02 1.29530188e-02 3.22488770e-02
      1.61440030e-01 1.04988180e-01 8.08577612e-02 3.54067655e-03
      -1.47152543e-01 -1.76655293e-01 -6.51139840e-02 4.97367121e-02
      7.93816671e-02 1.23832665e-01 1.32135198e-01 -2.59269886e-02
      3.91140655e-02 -3.44003253e-02 -1.89664531e-02 -1.04912475e-01
      3.74936238e-02 6.44100234e-02 1.55573249e-01 -2.68197656e-02
      -2.97005810e-02 -4.72591296e-02 -1.61967874e-01 -1.66885689e-01
      -4.39403951e-02 8.26348830e-03 3.31457667e-02 1.62324011e-02
      5.80809079e-02 1.32283077e-01 2.72580562e-03 -2.78754961e-02
      -5.38119897e-02 -5.91723174e-02 3.49059850e-02 1.96787901e-02
      2.78896540e-02 3.90299708e-02 3.11294142e-02 -9.76197645e-02
      3.24892439e-02 -1.16667382e-01 -6.22170558e-03 -3.28768827e-02
      -9.91564337e-03 -2.83037070e-02 -4.96110842e-02 1.13893367e-01
      -1.16611924e-02 -7.73617998e-03 -6.15159869e-02 5.67354448e-02
      2.27977708e-02 -4.51110043e-02 -7.59529844e-02 -3.38845849e-02
      2.45650448e-02 -4.74028252e-02 3.63484062e-02 -4.80649099e-02
      1.26343325e-01 6.37495220e-02 3.17540914e-02 -2.20299396e-03
      4.07032482e-02 5.37656285e-02 2.46630181e-02 -3.05339303e-02
      -1.06786445e-01 -8.58567283e-02 -7.31989667e-02 -1.82270687e-02
      7.87746720e-03 5.40362904e-03 9.50048640e-02 1.14911363e-01
      5.98559752e-02 2.83647608e-02 -3.95350419e-02 -3.99183184e-02
      -2.21985262e-02 5.89484535e-03 -3.67330536e-02 2.71789264e-03
      -6.93582520e-02 -2.99375057e-02 -1.17464945e-01 2.50838660e-02
      -2.31435709e-02 -2.96124048e-03 -3.21549885e-02 4.95028310e-02
      3.59382965e-02 3.72913224e-03 6.64011389e-02 8.32406953e-02
      4.84215049e-03 -4.99184616e-02 -6.26388714e-02 1.23880608e-02
      4.01928313e-02 8.75360891e-03 5.71638010e-02 2.85350997e-02
      -8.03266242e-02 3.00900023e-02 3.60987559e-02 2.70523899e-03
      4.46673557e-02 1.69844565e-03 2.03156210e-02 3.06612607e-02
      3.76968086e-02 6.00585081e-02 -6.80773482e-02 3.07859331e-02
      1.60180330e-02 1.61715783e-02 2.87701841e-02 -1.37192775e-02
      8.93663964e-04 2.80476008e-02 -1.11084394e-01 8.89553595e-03
      -3.88452387e-03 -1.99573170e-02 5.53101711e-02 -4.76693362e-02
      -3.61427292e-02 -1.01167239e-01 -3.19194864e-03 3.28439400e-02
      -1.36100620e-01 -6.13816781e-03 -1.10024393e-01 -1.12475917e-01
      5.80630964e-03 -5.77733889e-02 -8.22730735e-02 -6.18165582e-02
      -1.22223618e-02 -1.63156688e-02 -5.66832386e-02 -3.93991126e-03
      6.22208044e-02 2.28933632e-01 -1.04119210e-02 -5.64763732e-02
      -2.34317519e-02 -2.95776371e-02 1.93556324e-02 -5.88084087e-02
      -4.74463776e-03 1.83664069e-01 -3.15361209e-02 -5.17703146e-02
      -1.80839255e-01 -3.94506007e-02 -5.30705228e-02 -8.23466554e-02
      6.73048710e-03 -7.48831406e-02 -2.28643529e-02 8.11868161e-02
      -2.54706368e-02 -8.77646655e-02 -1.18124550e-02 -5.19196317e-02
      -7.52208242e-03 -2.66436227e-02 -7.82885104e-02 7.89251849e-02
      2.01495498e-01 5.35417385e-02 -1.88720319e-02 4.23709117e-02
      -4.08991128e-02 -5.16233034e-03 -6.41462803e-02 -2.63029877e-02
      1.02460854e-01 1.13661386e-01 4.25199121e-02 3.96347009e-02
      9.84485522e-02 1.24994889e-02 3.79705392e-02 3.53167616e-02
      6.10567443e-02 4.13433947e-02 -2.22686809e-04 -1.09754493e-02
      -2.45742612e-02 3.82052772e-02 -1.38578802e-01 -1.14997569e-02
      -6.19387701e-02 -8.07808042e-02 -2.10057832e-02 -8.07740390e-02
      -3.10411770e-02 -5.82715534e-02 4.19521518e-02 -6.91257268e-02
      -3.58508006e-02 -2.11375300e-03 -1.90653522e-02 -1.07825033e-01
      2.84822751e-02 -3.83875030e-03 4.32102121e-02 5.70275746e-02
      7.57424012e-02 2.41774367e-03 2.50837840e-02 4.17898037e-02
      1.77300200e-02 7.74520710e-02 2.69293915e-02 -6.05658116e-03
      9.41668358e-03 -9.79911885e-04 -3.71726267e-02 7.11625069e-03
      6.89446274e-03 1.03480577e-01 -5.67676537e-02 -4.97232117e-02
      -4.08515260e-02 -9.04519763e-03 7.65238032e-02 2.41360478e-02
      -6.42564439e-04 -3.38940434e-02 -3.34188193e-02 4.44521755e-02
      -1.92118417e-02 -1.25602543e-01 -8.66847187e-02 -6.98880292e-03
      8.21366068e-03 7.25774541e-02 1.07786842e-02 9.39943641e-03
      4.43458445e-02 -3.71727757e-02 -5.51017337e-02 -6.35771155e-02
      1.87970733e-03 -1.32548381e-02 5.34934439e-02 1.63298175e-01
      1.46991700e-01 -9.48439166e-02 -6.33146763e-02 -6.26271889e-02
      -1.17080741e-01 -1.14172108e-01 2.07814984e-02 4.31595817e-02
      8.78647119e-02 6.61002323e-02 -2.70163137e-02 -1.24386782e-02
      -5.72548695e-02 -1.02704890e-01 -3.20451520e-02 -1.68015875e-04
      1.49795771e-01 1.16920196e-01 1.14454012e-02 2.30342001e-02
      -5.20103462e-02 -4.82216440e-02 -1.25972956e-01 -5.04272170e-02
      5.53041101e-02 7.50690103e-02 7.32017532e-02 1.84759814e-02
      -7.56793320e-02 2.65369890e-03 -6.95984960e-02 -7.39906356e-02
      -4.64800261e-02 3.37157734e-02 -3.76480110e-02 -5.30279800e-02
      2.39055250e-02 -2.86327694e-02 1.30186351e-02 -2.62790713e-02
      -3.93684059e-02 -3.17252427e-02 2.64218785e-02 -2.14468371e-02
      1.15942478e-03 2.29376312e-02 2.89058667e-02 -4.05845158e-02
      -8.39325637e-02 -8.30328986e-02 -2.69091800e-02 1.77089069e-02
      3.40855718e-02 -1.88374298e-03 8.24572667e-02 1.18429512e-01
      5.82818687e-02 4.56242599e-02 -2.22049020e-02 -1.30677804e-01
      -3.50735821e-02 -6.01109937e-02 2.34489646e-02 9.25076976e-02
      -1.64310560e-02 8.12964514e-02 -7.25352904e-03 -4.10187319e-02
      -6.83860779e-02 4.22683321e-02 2.47978549e-02 -7.71102868e-03
      -1.71727370e-02 4.24828492e-02 2.89261825e-02 5.41622862e-02
      6.64595440e-02 5.08306250e-02 5.11929281e-02 -8.82277032e-04
      -3.36645022e-02 6.79091644e-03 -8.40030089e-02 9.77225974e-02
      1.74023673e-01 -1.85540766e-02 -1.23958759e-01 -1.82823222e-02
      -1.72564220e-02 3.22019756e-02 -4.94887494e-02 -9.06309411e-02
      9.50495675e-02 1.35228708e-01 5.44451736e-02 -4.32486683e-02
      1.39024071e-02 3.51574011e-02 6.47042841e-02 -5.88720366e-02
      9.34482366e-02 -2.82567758e-02 -6.30491897e-02 1.99068151e-02
      -1.29331172e-01 1.97501406e-02 2.74907034e-02 8.10201187e-03
      1.34275287e-01 3.43470238e-02 -6.50999248e-02 -2.72983700e-01
      -2.00930201e-02 1.44720867e-01 -9.35618356e-02 8.67730305e-02
      -1.12567618e-01 2.95652095e-02 -1.13571109e-02 -6.74963882e-03
      -2.67773941e-02 4.19819169e-03 7.11877225e-03 -8.65020906e-04
      9.50115640e-03 9.91742127e-03 9.55357682e-04 -3.32866833e-02
      -4.62474972e-02 -1.23643368e-01 -1.91755537e-02 -1.41139150e-01
      -1.20547470e-02 -4.65974817e-03 8.61089677e-03 -2.59159077e-02
      -7.49895256e-03 -4.24483009e-02 -1.91976160e-01 -3.23009342e-02
      5.27084805e-02 -5.01945540e-02 5.37928976e-02 -3.57113034e-02
      -3.76087278e-02 5.00525907e-02 1.48649411e-02 -6.90274639e-03
      -2.27879770e-02 -1.57157928e-02 -3.02034821e-02 1.45638306e-02
      -8.20827857e-02 4.97130118e-02 -6.37502817e-05 -2.18169987e-02
      -5.85701019e-02 -1.76021270e-02 -6.36982396e-02 -9.57575999e-03
      -1.39166126e-02 7.00866804e-03 6.22825930e-03 3.66202109e-02
      4.25018892e-02 6.42697886e-02 -3.45879458e-02 -7.83945259e-04
      -9.51150805e-03 -3.88284139e-02 -3.65251042e-02 4.35208119e-02
      1.52695347e-02 2.26266421e-02 5.28785288e-02 2.20917049e-03
      -5.10476530e-02 -3.72201800e-02 1.13085378e-02 -2.99419014e-04
      1.07835662e-02 -3.80975232e-02 3.90222743e-02 2.32636146e-02
      1.28381280e-02 8.49579424e-02 -2.09515728e-02 3.71199846e-02
      6.91136494e-02 -4.17210720e-02 -3.08167357e-02 6.13027439e-02
      9.48816836e-02 -3.53401378e-02 -6.93758875e-02 -3.02001983e-02
      -7.58354366e-02 1.94512773e-02 -2.62639076e-02 -1.20066339e-02
      4.38211486e-02 4.82648611e-02 -1.70316675e-03 3.59191597e-02
      -6.44748099e-03 -4.22150232e-02 3.12158596e-02 -3.99330296e-02
      -8.79536420e-02 1.31886527e-02 3.92055847e-02 2.71631684e-02
      1.20094232e-01 4.48554419e-02 5.94630986e-02 4.34854142e-02
      -5.24426214e-02 -8.82869065e-02 1.93081144e-02 2.16192566e-02
      6.45857304e-02 4.85112779e-02 4.74582426e-02 1.74507082e-01
      9.30302963e-02 -6.83778971e-02 -4.33961190e-02 4.70700413e-02
      5.50384931e-02 5.48571767e-03 5.50980903e-02 2.00218484e-02
      3.21209012e-03 -1.05797490e-02 -6.84336126e-02 -1.93896908e-02
      1.67285781e-02 5.84166758e-02 3.27631496e-02 -2.84322314e-02
      2.67623607e-02 7.25051090e-02 1.06657753e-02 1.47999628e-02
      -6.29991889e-02 1.81901939e-02 5.13429195e-03 2.19816435e-02
      3.99542600e-03 1.67433098e-02 9.96389315e-02 1.96556449e-02
      -3.77074257e-02 1.58028845e-02 -2.11748183e-02 -5.98444091e-03
      -8.98879543e-02 3.98160256e-02 5.02503617e-03 3.36607546e-02
      -1.07011292e-02 -2.06888933e-02 4.79743890e-02 8.39275029e-03
      5.89900799e-02 3.05098705e-02 -3.81798223e-02 -1.43285759e-03
      8.67203635e-04 -1.41378213e-02 6.98852092e-02 4.11336944e-02
      1.56799040e-03 4.26436290e-02 2.66209096e-02 -1.73953678e-02
      -2.96008475e-02 -2.93495553e-03 -2.09607650e-02 1.53479772e-02
      2.50740498e-02 -6.16564713e-02 -6.67829886e-02 -7.13815019e-02
      -5.34635186e-02 -8.81772023e-03 -3.56712565e-02 -9.24294000e-04
      1.10468147e-02 8.65778849e-02 5.57036661e-02 1.00664750e-01
      -2.58433465e-02 -1.29038557e-01 -4.22408059e-02 3.74266808e-03
      3.46092395e-02 8.51522163e-02 3.28794159e-02 -1.09474063e-02
      3.76604423e-02 2.12815907e-02 2.22940091e-02 -7.87107460e-03
      -1.13980673e-01 -5.21184877e-02 2.72575337e-02 3.95138785e-02
      -1.22892605e-02 6.80041388e-02 -1.22872069e-02 -5.04736304e-02
      -4.42250352e-03 -1.01383179e-01 -2.75822002e-02 2.33569425e-02
      4.11246121e-02 1.76897317e-01 1.36589810e-01 -2.26358119e-02
      -1.40959278e-01 -6.93103671e-02 4.96007986e-02 3.40175591e-02
      7.47325495e-02 -7.71731511e-02 1.07046098e-01 6.75637424e-02
      -2.77803987e-02 -6.21935390e-02 -5.34993671e-02 1.04966406e-02
      5.18139042e-02 -3.31120081e-02 -1.45346411e-02 -1.84722245e-03
      7.68807530e-02 -1.75770593e-03 -5.81661202e-02 -2.57541724e-02
      -3.48205827e-02 -8.84698238e-03 -4.80151325e-02 6.90448657e-02
      2.71823965e-02 1.62478741e-02 -3.18416469e-02 -1.48485243e-01
      -4.09297869e-02 2.35050414e-02 1.49666835e-02 5.13784960e-02</_></support_vectors>
  <uncompressed_sv_total>119</uncompressed_sv_total>
  <uncompressed_support_vectors>
    <_>
      4.28119041e-02 4.76304349e-03 2.76896283e-02 5.03972080e-03
      9.31641310e-02 0. 1.01946473e-01 4.16359678e-02 6.40844405e-02
      1.13192536e-01 2.81957388e-02 1.69586167e-01 2.58624330e-02
      1.78258911e-01 0. 2.04815373e-01 7.66687542e-02 1.44157007e-01
      1.09348379e-01 2.30023209e-02 9.60165039e-02 1.41272712e-02
      3.01166892e-01 9.46024805e-03 3.01166892e-01 1.76338360e-01
      1.96155608e-01 3.01166892e-01 1.24970421e-01 3.01166892e-01
      1.16428554e-01 3.01166892e-01 3.13487127e-02 3.01166892e-01
      2.63393015e-01 3.01166892e-01 8.60406309e-02 3.32470722e-02
      1.17175356e-01 1.62373334e-02 1.25247881e-01 5.59583947e-04
      5.48709743e-02 2.28969753e-02 9.21091437e-02 9.93715823e-02
      4.56091203e-02 1.24244854e-01 8.43200926e-03 1.22521564e-01
      4.07669554e-03 5.28964363e-02 2.94804759e-02 1.08872220e-01
      3.04396838e-01 1.98258489e-01 3.04396838e-01 7.95221776e-02
      3.04396838e-01 1.81735083e-02 1.51973486e-01 6.98323548e-02
      3.04396838e-01 3.04396838e-01 2.06628591e-01 3.04396838e-01
      2.67027710e-02 2.95533776e-01 1.23585863e-02 1.58123881e-01
      1.01483971e-01 3.04396838e-01 1.03210486e-01 3.69681306e-02
      1.39114290e-01 1.67338643e-02 1.61116630e-01 1.71877369e-02
      1.49723124e-02 9.02545080e-03 1.22965217e-01 1.52339026e-01
      4.15836312e-02 1.01263635e-01 2.10389718e-02 2.40555614e-01
      2.52618399e-02 3.57179418e-02 1.50727481e-02 1.59974158e-01
      3.14520210e-01 1.06440842e-01 2.96607256e-01 3.25544141e-02
      3.14520210e-01 4.61954959e-02 4.13256288e-02 4.48889434e-02
      3.14520210e-01 3.14520210e-01 1.41332671e-01 2.40759581e-01
      5.58873489e-02 3.14520210e-01 7.03855455e-02 1.03518181e-01
      7.61485174e-02 3.14520210e-01 1.33206636e-01 4.00420278e-02
      6.11279123e-02 1.21633308e-02 1.84558749e-01 2.68665459e-02
      5.84212951e-02 1.72444154e-02 1.33003607e-01 1.12194024e-01
      6.07958846e-02 9.78924036e-02 8.80477019e-03 1.52860358e-01
      3.64286602e-02 1.62202381e-02 3.50139500e-03 1.39684275e-01
      3.13079983e-01 1.70361742e-01 1.64480805e-01 4.78410795e-02
      3.13079983e-01 9.29339677e-02 1.59907237e-01 7.08696917e-02
      3.13079983e-01 3.13079983e-01 2.53704846e-01 2.69373327e-01
      2.70317886e-02 3.13079983e-01 1.39081329e-01 4.64026034e-02
      4.65362407e-02 3.13079983e-01 1.48566112e-01 4.58575226e-02
      6.35115132e-02 2.31863968e-02 1.90523013e-01 2.53458414e-02
      6.17998326e-03 8.93400330e-03 1.61595494e-01 1.58506528e-01
      8.12849123e-03 5.04544284e-03 2.94869822e-02 2.18503296e-01
      2.43771859e-02 5.42654134e-02 3.18299793e-02 1.54990494e-01
      3.09059113e-01 1.83212683e-01 1.88845694e-01 4.89977114e-02
      3.09059113e-01 7.72892162e-02 5.90253808e-02 1.47135600e-01
      3.09059113e-01 3.09059113e-01 3.80299725e-02 1.79675631e-02
      5.52309230e-02 3.09059113e-01 5.71468025e-02 2.06754997e-01
      2.75526434e-01 3.09059113e-01 1.46611378e-01 2.62037909e-04
      4.17037576e-04 2.95045823e-02 2.12128788e-01 2.73082145e-02
      7.89677054e-02 2.91437246e-02 1.22663662e-01 1.59137741e-01 0. 0.
      3.92794870e-02 2.25543499e-01 1.82325318e-02 9.76642817e-02
      2.72983406e-02 1.26511589e-01 3.16094726e-01 7.17800483e-03
      3.51434643e-03 9.71660465e-02 3.16094726e-01 7.03242198e-02
      2.27431849e-01 1.69066355e-01 3.16094726e-01 3.16094726e-01
      1.06502138e-03 3.74047850e-05 1.45745367e-01 3.16094726e-01
      5.81135973e-02 2.68265009e-01 1.06773466e-01 3.16094726e-01
      1.69145420e-01 1.81569450e-03 5.43322973e-03 2.16274578e-02
      1.51041299e-01 4.65268549e-03 5.16488329e-02 1.41087202e-02
      1.62001938e-01 2.90160239e-01 3.52736264e-02 1.36730731e-01
      1.54362442e-02 1.35781780e-01 4.66681644e-03 1.48594030e-04
      1.66357984e-03 2.35163406e-01 3.22146952e-01 3.00387782e-03
      6.98558101e-03 7.24730045e-02 3.22146952e-01 4.46590856e-02
      1.39470488e-01 9.59473252e-02 3.22146952e-01 3.22146952e-01
      5.37469275e-02 2.30371863e-01 9.02718678e-02 3.22146952e-01
      9.12815183e-02 2.74127517e-02 7.59142786e-02 3.22146952e-01
      8.67375359e-02 4.36456725e-02 1.37493402e-01 1.09205442e-02
      2.81518936e-01 9.78953857e-03 1.86413184e-01 8.59129876e-02
      1.25382051e-01 3.60764027e-01 1.34663805e-01 3.60764027e-01
      1.66194171e-01 3.60764027e-01 6.38689995e-02 2.64820963e-01
      1.12397946e-01 3.17540228e-01 3.42571437e-02 2.01955177e-02
      6.46994039e-02 4.08599060e-03 1.36868626e-01 6.52635936e-04
      6.44970918e-03 2.02982710e-03 3.42571437e-02 8.64832476e-02
      5.35615683e-02 1.51315421e-01 1.05757497e-01 3.60764027e-01
      4.31571715e-02 1.77036263e-02 2.57459981e-03 6.60487935e-02
      3.04352820e-01 1.14412867e-01 1.63347587e-01 9.40693393e-02
      3.04352820e-01 4.62273210e-02 5.61090037e-02 2.57621203e-02
      2.22265795e-01 3.04352820e-01 9.34429765e-02 1.10710718e-01
      2.04459075e-02 9.76394489e-02 2.19120886e-02 7.92214572e-02
      7.29817972e-02 3.04352820e-01 1.75530866e-01 5.85748367e-02
      6.91224858e-02 1.16288655e-01 3.04352820e-01 4.50528562e-02
      3.37872021e-02 1.27899405e-02 1.45151779e-01 3.04352820e-01
      5.71186617e-02 5.77568822e-02 8.94119442e-02 3.04352820e-01
      4.70896438e-02 9.44318548e-02 7.90169314e-02 3.04352820e-01
      2.81591296e-01 5.00313789e-02 9.32353511e-02 1.07066380e-02
      1.13562129e-01 3.03889811e-02 5.37963286e-02 6.68654814e-02
      2.81591296e-01 2.81591296e-01 9.59007964e-02 1.07248500e-01
      3.30145434e-02 1.70233756e-01 3.68732736e-02 5.24266027e-02
      6.10931925e-02 2.81591296e-01 2.81591296e-01 4.15357165e-02
      6.19214140e-02 6.39775842e-02 2.81591296e-01 9.41860899e-02
      1.17011726e-01 8.66624564e-02 2.81591296e-01 2.81591296e-01
      1.32370353e-01 1.81051224e-01 1.80734545e-01 2.81591296e-01
      1.31209195e-01 8.90068561e-02 8.29969943e-02 1.94215417e-01
      2.62781829e-01 1.22540951e-01 7.35020339e-02 3.07637360e-02
      1.25182971e-01 3.35593969e-02 6.08884096e-02 4.87891398e-02
      2.62781829e-01 2.62781829e-01 1.18815511e-01 9.40177664e-02
      1.78818293e-02 1.59998178e-01 6.45474344e-02 5.75112626e-02
      6.88284785e-02 2.62781829e-01 2.62781829e-01 1.63207278e-01
      1.42058566e-01 1.82681635e-01 2.62781829e-01 9.14520621e-02
      7.90800229e-02 1.27511680e-01 2.62781829e-01 2.62781829e-01
      6.99108541e-02 7.54881501e-02 1.43090099e-01 2.45260984e-01
      1.13766253e-01 1.70735821e-01 1.61787659e-01 2.62781829e-01
      2.79673219e-01 6.40784428e-02 7.36958981e-02 3.37817408e-02
      2.79673219e-01 5.16715348e-02 7.18065575e-02 1.07359335e-01
      2.79673219e-01 2.44648889e-01 3.54653001e-02 4.91399691e-02
      4.12344225e-02 2.47452289e-01 3.57301943e-02 9.65204537e-02
      1.57371283e-01 2.79673219e-01 8.05739537e-02 1.97744258e-02
      9.16840285e-02 1.62371367e-01 2.79673219e-01 7.28429034e-02
      1.79896146e-01 6.94943368e-02 1.15882047e-01 2.00753808e-01
      1.65291950e-01 2.79673219e-01 1.74719065e-01 2.79673219e-01
      4.53403182e-02 1.05672196e-01 4.14804146e-02 2.17173055e-01
      2.60650128e-01 1.73492152e-02 2.35046800e-02 3.62020694e-02
      1.02716938e-01 2.43738517e-02 7.17982203e-02 7.81503320e-02
      2.68205345e-01 2.68205345e-01 7.44750071e-03 2.20917817e-02
      6.68810233e-02 1.32645413e-01 1.84087120e-02 6.98824674e-02
      4.68563810e-02 2.68205345e-01 2.33703002e-01 1.05305597e-01
      2.14758635e-01 6.55962974e-02 2.68205345e-01 6.94140196e-02
      1.79417074e-01 6.79635108e-02 2.68205345e-01 2.53012121e-01
      3.48732434e-02 2.68205345e-01 1.31215796e-01 2.68205345e-01
      6.18379116e-02 2.68205345e-01 9.89808068e-02 2.13258818e-01
      2.64781445e-01 7.36971432e-03 1.62514430e-02 3.30256224e-02
      1.18428968e-01 2.74414849e-02 4.85734791e-02 8.65335315e-02
      2.64781445e-01 2.18295231e-01 9.85447969e-03 3.61709706e-02
      3.76659073e-02 2.64781445e-01 7.07817823e-02 4.95375320e-02
      8.26111883e-02 2.64781445e-01 2.64781445e-01 5.51021993e-02
      2.64781445e-01 7.94145614e-02 2.64781445e-01 6.72752634e-02
      2.64781445e-01 2.03166708e-01 2.64781445e-01 1.02098130e-01
      4.15942185e-02 7.33066574e-02 5.76971695e-02 2.64781445e-01
      9.10105482e-02 2.64781445e-01 1.44815043e-01 1.73479214e-01
      7.15488847e-03 0. 0. 0. 1.34993628e-01 0. 0. 0. 7.15488847e-03
      2.83482075e-02 6.61082566e-02 2.95087323e-02 1.12119749e-01
      6.71817541e-01 5.83512038e-02 4.44719493e-02 2.17323899e-02
      1.83707774e-02 0. 0. 0. 0. 1.54692993e-01 0. 0. 0. 0.
      8.03064462e-03 5.59350699e-02 2.53226738e-02 7.01698586e-02
      6.71817541e-01 7.61594698e-02 7.94600323e-02 5.17092049e-02
      2.38341023e-03 1.35178685e-01 9.19679701e-02 4.17273007e-02
      1.01624973e-01 3.16613853e-01 6.20194897e-02 5.27419001e-02
      3.03303804e-02 1.40521482e-01 3.16613853e-01 9.42611024e-02
      6.32622764e-02 1.41486481e-01 3.16613853e-01 1.08831950e-01
      7.65276328e-02 7.35106915e-02 3.16613853e-01 9.81909484e-02
      6.84992969e-02 3.80407684e-02 7.11964369e-02 3.16613853e-01
      8.65006670e-02 9.00221169e-02 6.91014007e-02 1.08542576e-01
      3.16613853e-01 9.20031145e-02 8.56006593e-02 1.20950244e-01
      1.89181224e-01 1.30982384e-01 1.29586950e-01 1.40957057e-01
      3.16613853e-01 2.52208740e-01 4.30583805e-02 5.72262220e-02
