<?xml version="1.0"?>
<opencv_storage>
<opencv_ml_svm>
  <format>3</format>
  <svmType>C_SVC</svmType>
  <kernel>
    <type>LINEAR</type></kernel>
  <C>2.</C>
  <term_criteria><epsilon>1.1920928955078125e-07</epsilon>
    <iterations>1000</iterations></term_criteria>
  <var_count>1764</var_count>
  <class_count>3</class_count>
  <class_labels type_id="opencv-matrix">
    <rows>3</rows>
    <cols>1</cols>
    <dt>i</dt>
    <data>
      0 1 2</data></class_labels>
  <sv_total>3</sv_total>
  <support_vectors>
    <_>
      1.94203723e-02 1.33927139e-02 2.52215602e-02 2.58427914e-02
      3.82588618e-02 1.08812945e-02 1.64960511e-02 2.94143660e-03
      2.18548086e-02 1.58028789e-02 1.36989942e-02 8.62998422e-03
      2.23271921e-02 3.95512953e-02 8.09798762e-03 -4.25925255e-02
      -1.28864618e-02 2.43169870e-02 -7.34559745e-02 -3.07005504e-03
      -1.30600929e-02 6.90702349e-03 -1.18774017e-02 1.10927504e-02
      8.16624537e-02 4.02456410e-02 -2.03340445e-02 -3.14319171e-02
      -1.69446133e-02 5.65360673e-03 -1.76648591e-02 -1.75949391e-02
      -2.25580838e-02 -6.39118552e-02 -6.37463033e-02 -1.18793817e-02
      2.95445658e-02 2.26326585e-02 9.79815796e-03 2.22297828e-03
      3.83883864e-02 1.93839963e-03 -1.59489773e-02 1.82081982e-02
      3.11210155e-02 -1.43288565e-03 3.17499600e-02 3.48164290e-02
      -6.88556442e-03 -3.26952748e-02 -2.78619165e-03 -2.90203840e-02
      -9.84664191e-04 -2.93731457e-03 -5.87378480e-02 -4.43210229e-02
      -2.96492130e-02 1.49565600e-02 1.66121479e-02 1.13066128e-02
      -2.58885007e-02 -1.37858465e-02 -5.06305993e-02 5.56541532e-02
      -1.68453138e-02 1.53149816e-03 2.66442820e-02 1.09044082e-01
      3.67050134e-02 -2.03685127e-02 -2.34053619e-02 5.56541532e-02
      -1.07509261e-02 1.12548117e-02 -2.01861523e-02 -1.94634811e-03
      -4.28565703e-02 -2.40683788e-03 2.25302530e-03 1.97842659e-04
      -1.13176210e-02 -4.35981005e-02 -2.12418158e-02 -1.02168940e-01
      1.25893150e-02 -7.37923384e-02 -2.84629827e-03 3.62060927e-02
      2.44157109e-02 -6.27582446e-02 -3.41016240e-02 2.91653350e-02
      2.20557209e-02 3.73429395e-02 3.25338244e-02 2.55209990e-02
      1.16234347e-02 -1.51924882e-03 -1.59210153e-02 7.40706101e-02
      -9.08817630e-03 -3.64990570e-02 5.18556349e-02 7.96175525e-02
      -1.22821511e-04 1.40482828e-01 5.81966527e-02 6.38187379e-02
      -2.73786448e-02 1.45353414e-02 -3.43367718e-02 6.00286573e-03
      -9.87376347e-02 2.29108427e-03 3.17107700e-02 3.19272876e-02
      -6.53772801e-02 -8.95069763e-02 1.46332160e-02 -2.66401339e-02
      1.71836605e-03 -1.46384433e-01 -1.51883543e-03 5.07023185e-03
      1.71285514e-02 -1.07530043e-01 6.39492869e-02 -2.51346212e-02
      -2.71955486e-02 2.91673020e-02 3.45220156e-02 1.80048365e-02
      1.40108094e-01 8.65846574e-02 5.65838441e-02 9.43405926e-02
      -2.57625766e-02 6.86187893e-02 1.81947220e-02 -3.78410937e-03
      7.95982312e-03 4.49929759e-02 5.98694719e-02 9.51730609e-02
      -5.95809221e-02 1.29875736e-02 -4.36679386e-02 6.89058471e-03
      -8.26242790e-02 4.34881309e-03 -4.02082317e-02 -1.61333848e-02
      -7.48351961e-02 -5.51828630e-02 -1.06870644e-02 -5.39205149e-02
      6.38570683e-03 -3.56399417e-02 1.71669982e-02 -2.90692039e-02
      -2.20440719e-02 -6.52464554e-02 8.31895601e-03 1.71432830e-02
      6.95028082e-02 3.36339958e-02 -3.56773892e-03 -4.49923277e-02
      -2.78357770e-02 1.09533092e-03 1.69682577e-02 9.95511538e-04
      6.72121942e-02 9.48693678e-02 2.90229097e-02 3.26044969e-02
      4.91158012e-03 -5.98279946e-02 -1.34072043e-02 2.03050282e-02
      -3.42269726e-02 3.39556560e-02 -5.32804392e-02 1.80545461e-03
      -9.22504291e-02 1.31058516e-02 -4.06443700e-02 -2.45539490e-02
      -4.18448560e-02 4.26187217e-02 2.57429667e-02 -2.86729373e-02
      -2.38389242e-03 -3.67817022e-02 -8.63828231e-03 -5.89413717e-02
      -1.73067413e-02 3.89650576e-02 1.45601751e-02 7.07121715e-02
      1.28821880e-01 -1.00128790e-02 7.66498270e-04 2.96433195e-02
      -3.94789279e-02 -4.47239988e-02 3.56889926e-02 -2.01170873e-02
      2.71500554e-02 1.00602165e-01 -1.09672742e-02 4.33650985e-02
      1.00693917e-02 -1.48594901e-02 -2.49774922e-02 3.64084840e-02
      9.84370708e-02 6.51908619e-03 -3.18884873e-03 1.74482912e-02
      9.08117276e-03 2.80153076e-03 -6.19716458e-02 -2.30360627e-02
      8.07728618e-02 4.26381417e-02 4.58782492e-03 -8.27144738e-03
      2.37459075e-02 8.36119577e-02 1.08153131e-02 -2.50961119e-03
      -5.26815141e-03 4.56944704e-02 -5.50094210e-02 1.58093739e-02
      5.22477627e-02 3.63007165e-03 8.21754336e-02 -3.48012988e-03
      -8.21565390e-02 -1.19375989e-01 -3.41401100e-02 -7.00316429e-02
      -1.80305149e-02 -3.69193070e-02 4.82024401e-02 -3.88587862e-02
      3.64603512e-02 1.54833244e-02 -1.16769504e-03 -7.82638714e-02
      1.54898793e-04 4.67917277e-03 7.50634400e-03 1.00439359e-02
      -7.39384303e-03 1.33321481e-02 7.59433657e-02 4.25825715e-02
      1.94450188e-02 -1.22378297e-01 1.30106965e-02 7.78224915e-02
      2.18025148e-02 -1.49038449e-01 2.35423940e-04 -1.46663766e-02
      -1.42944893e-02 -9.79769900e-02 1.07112557e-01 1.36064654e-02
      4.48757820e-02 1.66049544e-02 9.49561447e-02 1.64258424e-02
      5.15815727e-02 6.72656484e-03 7.17341900e-02 -6.25511557e-02
      3.49976607e-02 1.24165557e-01 6.63249195e-02 -5.22996485e-02
      -4.35641743e-02 2.62101777e-02 2.08318699e-02 -7.35091195e-02
      -9.93888453e-02 -1.49879679e-02 -2.10621889e-04 2.69406121e-02
      -8.37422013e-02 1.01743937e-02 -2.44742334e-02 5.21016307e-03
      -6.68920279e-02 -2.83279903e-02 9.07952152e-03 -2.99130799e-03
      3.87548506e-02 1.24006644e-02 3.62108201e-02 -3.20614199e-03
      -1.40198600e-02 -1.44589888e-02 -2.68459357e-02 5.92007898e-02
      1.03887551e-01 9.26255584e-02 -2.44078469e-02 -4.48366627e-03
      2.98952479e-02 5.14118448e-02 -1.18095605e-02 -2.52211895e-02
      1.16779767e-01 5.54434247e-02 2.58477107e-02 -4.00479287e-02
      4.86485474e-02 8.84448066e-02 4.41214778e-02 -2.04432551e-02
      -1.77488327e-02 -1.57691650e-02 -4.07557050e-03 2.40977630e-02
      3.75373699e-02 2.86927652e-02 -1.09824743e-02 -2.04886328e-02
      -2.15514749e-02 -1.11661404e-02 -6.63215518e-02 -5.04347496e-02
      2.02968474e-02 1.57380942e-02 4.04800521e-03 6.92596436e-02
      1.12537257e-02 -1.75272208e-02 -4.98518907e-03 1.81324184e-02
      -1.50967203e-02 -2.76635159e-02 -7.93507230e-03 2.06058640e-02
      4.50274087e-02 2.97429208e-02 2.20933929e-03 1.01575442e-02
      -4.98645455e-02 3.24476813e-03 -6.50846437e-02 -5.67230284e-02
      -6.35385886e-02 9.20016244e-02 3.81818376e-02 1.48141757e-02
      -1.49046201e-02 -5.30546755e-02 1.16846180e-02 1.41110308e-02
      4.41297777e-02 3.43846753e-02 1.13235123e-01 3.70039046e-02
      2.08877353e-03 -9.33772698e-03 -4.03802730e-02 3.09470892e-02
      7.71301286e-03 2.23293174e-02 1.00353407e-02 6.38451055e-02
      3.20788994e-02 4.38098004e-03 -5.46743795e-02 -2.03257333e-02
      5.84947877e-02 -1.03072673e-02 -6.04755208e-02 -8.36590119e-03
      1.40658438e-01 4.89674248e-02 -3.38820741e-02 -5.87106496e-02
      1.57289580e-03 3.82952578e-03 3.04084783e-03 -3.66945714e-02
      -1.46481432e-02 8.60864818e-02 1.86307430e-02 -2.80803423e-02
      -1.77237410e-02 -1.33839343e-02 4.99071889e-02 6.52025938e-02
      -3.07275308e-03 -2.78840493e-02 -2.53849942e-02 5.63242938e-03
      6.05750550e-03 1.73628256e-02 2.87262890e-02 5.54377437e-02
      3.55860069e-02 3.31062567e-03 -3.49232145e-02 -5.19600026e-02
      1.14839617e-02 3.06226015e-02 -7.77450949e-02 6.80479163e-04
      1.50249072e-03 3.47554721e-02 -2.41805390e-02 5.43715432e-03
      1.25379879e-02 9.79083218e-03 -2.91939732e-02 1.27877435e-02
      1.09583279e-02 5.54767177e-02 2.36244202e-02 6.13652505e-02
      -4.23215255e-02 -2.86077475e-03 9.57536884e-03 -1.09325489e-03
      2.69975998e-02 2.86301058e-02 6.35645241e-02 2.11939937e-03
      1.90882478e-02 7.42779393e-03 -1.45189418e-02 1.26992185e-02
      5.02847545e-02 -1.49925379e-02 7.98817724e-03 5.79105504e-02
      3.08603924e-02 3.31563666e-03 1.53378062e-02 -1.62473693e-02
      -2.10855547e-02 3.37370150e-02 6.03146553e-02 -2.32819021e-02
      2.26163212e-02 -1.85215706e-03 -4.02804427e-02 -4.78676222e-02
      -3.76147553e-02 7.36923981e-03 2.74410043e-02 2.31997240e-02
      -4.58310731e-03 -2.29292214e-02 6.30646246e-03 2.09498941e-03
      2.82095280e-02 -6.44889707e-03 3.22432630e-02 5.68954349e-02
      -4.43480276e-02 1.58023089e-04 -7.66708341e-04 1.15140919e-02
      7.69613450e-03 -1.11442069e-02 -3.21698263e-02 -2.89315097e-02
      -2.31546387e-02 -3.59359905e-02 -4.75826450e-02 -7.26211369e-02
      1.80022568e-02 -3.41328885e-03 4.38523889e-02 1.38627529e-01
      4.45627235e-02 -1.73330437e-02 5.80277061e-03 -1.48746837e-02
      -5.68091609e-02 -1.35620348e-02 -8.90787318e-03 1.18050985e-02
      3.62333320e-02 1.93106327e-02 4.09698486e-02 1.77627290e-03
      -6.36256784e-02 -7.54716918e-02 -1.39404938e-03 6.89338893e-02
      4.50296961e-02 9.53117758e-02 1.35490550e-02 2.46365704e-02
      4.04318348e-02 1.17575247e-02 2.75443345e-02 1.93037912e-02
      4.36877124e-02 4.91764350e-03 1.25957802e-02 -4.53680783e-04
      1.01676919e-02 -5.74964285e-02 6.94687441e-02 6.98873997e-02
      1.39518812e-01 -4.35168557e-02 -7.30106756e-02 -7.24062510e-03
      1.50848851e-02 -1.34867474e-01 -9.35987309e-02 3.57293934e-02
      1.23076811e-01 2.15858947e-02 -6.07655682e-02 4.77368012e-03
      7.06634484e-03 2.49891263e-02 -8.05444792e-02 -4.38771630e-03
      1.62301183e-01 1.94702104e-01 8.80218297e-02 -4.49083629e-04
      1.37094790e-02 5.57694286e-02 3.11315544e-02 -2.55650375e-02
      2.30198856e-02 4.95929532e-02 5.10292947e-02 7.88818970e-02
      -3.49301174e-02 -7.80783445e-02 1.21530320e-03 2.51206756e-02
      -4.79222797e-02 3.37269716e-03 3.44934762e-02 1.35987131e-02
      -3.48894075e-02 -3.12633440e-02 -8.39942484e-04 7.86966309e-02
      3.20382789e-02 1.96776055e-02 1.43637722e-02 1.02874137e-01
      1.36562467e-01 -1.15118187e-03 -2.87820566e-02 -5.25371805e-02
      -6.53892662e-03 4.81159566e-03 1.49440700e-02 -2.61907130e-02
      1.44896610e-02 9.58476588e-02 -1.14486165e-01 3.14831850e-03
      -2.84222532e-02 4.08497527e-02 6.01010444e-03 -1.54807698e-04
      2.39409469e-02 2.15807818e-02 -1.29042864e-02 -6.46507293e-02
      -2.84185167e-02 1.44708464e-02 5.73964901e-02 2.95237433e-02
      2.11267695e-02 -4.26628515e-02 4.86357026e-02 5.92846461e-02
      -7.46669918e-02 -5.01980074e-02 -2.17843466e-02 4.68828380e-02
      -4.96547809e-03 -3.84683199e-02 -7.73101626e-03 -3.33028361e-02
      1.66375004e-02 -7.93900192e-02 3.56037691e-02 1.97669584e-02
      3.80266011e-02 3.66187133e-02 4.24669944e-02 -9.49812457e-02
      3.38912606e-02 4.27485816e-02 -4.59078923e-02 -1.58849580e-03
      1.39850122e-03 2.20879018e-02 2.67680753e-02 -3.72921885e-03
      -6.05889931e-02 2.71712709e-02 2.93245055e-02 -1.72464792e-02
      -7.47750849e-02 -2.87604816e-02 6.60181418e-02 2.38261325e-03
      -6.54733032e-02 -3.48619409e-02 1.92704739e-03 -5.40977418e-02
      1.28450729e-02 -2.46611284e-03 -6.29424164e-03 3.84710431e-02
      -6.60841702e-04 -2.08660197e-02 4.08214405e-02 7.04829544e-02
      7.64464661e-02 6.80864369e-03 -3.29655260e-02 -1.32044479e-02
      2.08657477e-02 -8.24903976e-03 2.35218611e-02 4.45049070e-02
      2.98727117e-02 2.12129876e-02 4.79904003e-02 -9.50186886e-03
      1.75184235e-02 -2.16135625e-02 -2.00320277e-02 7.57131875e-02
      -5.36032580e-02 -1.51849655e-03 -4.25697342e-02 -1.30306697e-02
      3.21242660e-02 1.63202155e-02 3.62689719e-02 1.00616412e-02
      -2.93519720e-02 -1.75560676e-02 -2.58330517e-02 -1.88731123e-03
      -9.73612722e-03 3.87940668e-02 -1.49275567e-02 8.00047722e-03
      -1.46497739e-02 -2.54449602e-02 -3.05116158e-02 9.81049519e-03
      5.04512992e-03 5.34840021e-03 2.63928473e-02 3.06086428e-02
      2.62549780e-02 -4.61547077e-03 -1.35512091e-02 -5.04215322e-02
      -5.60691915e-02 -5.32463752e-02 -6.56713685e-03 3.03176958e-02
      4.64016534e-02 1.64656732e-02 -2.25833468e-02 -6.02671504e-02
      7.46052489e-02 -1.20957652e-02 2.02075355e-02 -2.62044072e-02
      -5.69041334e-02 1.00993970e-03 -1.95024256e-02 -1.52619863e-02
      5.90799674e-02 7.17862025e-02 -3.15552112e-03 -3.14239115e-02
      -3.77741456e-02 -3.05292699e-02 8.83096159e-02 1.70015935e-02
      3.92516032e-02 9.72936898e-02 4.06262502e-02 9.50437598e-03
      -4.00895700e-02 -2.60597710e-02 -2.91327946e-02 4.28196192e-02
      -5.68369078e-03 -2.63548587e-02 -1.72059808e-03 3.53355967e-02
      2.57727802e-02 -2.59078015e-02 -9.19225160e-03 -6.37680218e-02
      7.50269294e-02 3.08100916e-02 1.69500764e-02 8.02543834e-02
      4.93483953e-02 -3.70886549e-03 -1.83753613e-02 -4.80550751e-02
      -9.75033268e-02 2.10757405e-02 2.75739818e-03 1.08776093e-02
      6.63755238e-02 4.43382524e-02 -2.16776952e-02 -4.62609110e-03
      -1.64242834e-02 4.73109856e-02 2.28734836e-02 1.44003034e-02
      -2.42766999e-02 5.23980223e-02 2.59738378e-02 2.28222683e-02
      4.54983264e-02 -2.83618886e-02 -8.29303041e-02 6.53597154e-03
      -6.04435569e-03 1.72038786e-02 5.63352183e-02 4.18878421e-02
      4.12092842e-02 5.56325242e-02 -3.15714404e-02 4.33997251e-02
      1.36822485e-03 -1.80143991e-03 6.73124567e-03 4.68545184e-02
      -8.58214051e-02 3.17575410e-02 7.35084713e-02 1.94173288e-02
      -2.03326549e-02 4.46339548e-02 -5.89148095e-03 1.76730081e-02
      -7.25883022e-02 -7.11421669e-02 8.63822773e-02 1.22942433e-01
      3.27776261e-02 -9.99631733e-03 5.47436178e-02 7.48095065e-02
      -5.34022041e-03 -7.10910559e-02 2.74990220e-02 2.82922182e-02
      4.46775556e-02 1.78623591e-02 6.91484436e-02 6.11950047e-02
      1.04816528e-02 1.48874177e-02 2.20418125e-02 -6.09104782e-02
      3.73962522e-02 6.17922805e-02 -1.90093312e-02 -1.21983988e-02
      1.05978027e-01 1.01896815e-01 -1.02879843e-02 -6.11577779e-02
      -8.25894326e-02 5.63695580e-02 9.68080387e-02 -3.36641930e-02
      1.55022200e-02 -8.96054727e-04 5.13974577e-02 -5.59919514e-03
      6.64319901e-04 -2.85355616e-02 -4.31964174e-02 5.23614138e-02
      -5.02000973e-02 1.18115202e-01 3.57491970e-02 5.41576371e-02
      2.69052982e-02 8.41285009e-03 -3.32192294e-02 1.30981356e-02
      9.26449429e-03 -5.39477579e-02 -1.21172825e-02 5.10197831e-03
      8.06056410e-02 -1.16857952e-02 1.13281067e-02 -2.84240879e-02
      -9.56147760e-02 -5.41604385e-02 -6.54110918e-04 4.87971380e-02
      4.74081561e-02 4.15264666e-02 2.58859787e-02 1.61999241e-02
      -2.00631395e-02 -1.15998536e-01 -3.85683142e-02 -6.32666573e-02
      1.25166893e-01 5.15332595e-02 4.52113487e-02 4.75276187e-02
      8.86248127e-02 -1.03989884e-01 -4.29348759e-02 -2.55444571e-02
      -4.23348695e-03 1.36925466e-02 -2.38534659e-02 9.07036196e-03
      1.66743528e-02 -1.53738130e-02 -6.21933537e-03 -1.62087187e-01
      -1.21874660e-01 -8.30799900e-03 1.11638874e-01 8.16937163e-02
      3.74774598e-02 2.94608958e-02 7.41904378e-02 -1.50195102e-03
      -6.62438869e-02 -1.07669160e-01 -1.92185864e-02 3.76610793e-02
      5.12657240e-02 -1.04992324e-02 -3.16630788e-02 6.94980994e-02
      3.35140377e-02 3.84627730e-02 4.56982031e-02 1.05729643e-02
      -2.37865187e-02 -3.34560946e-02 -1.23379147e-02 -5.28649485e-04
      3.14340703e-02 1.21825747e-02 2.79732235e-02 3.95057537e-02
      2.14667409e-04 -7.31676002e-04 -2.47544572e-02 -4.41987701e-02
      -2.10699532e-02 5.82109503e-02 1.03733465e-02 2.36503463e-02
      -2.28880830e-02 -1.92955304e-02 -9.91880149e-03 -1.17323846e-02
      -4.36852425e-02 1.03008402e-04 6.02676980e-02 2.64304653e-02
      7.96090905e-03 -1.63988043e-02 -3.20045315e-02 -1.51901701e-02
      -3.16408426e-02 -3.57276313e-02 -1.72892096e-03 3.12337447e-02
      3.04765403e-02 2.60797422e-03 1.64182205e-02 9.82294045e-03
      1.50346914e-02 -9.98599734e-03 1.84387416e-02 -1.15565890e-02
      7.48740043e-03 -3.76806557e-02 -1.12788137e-02 -4.92605940e-02
      -1.63104925e-02 4.07815389e-02 -2.78562345e-02 7.86901638e-03
      -3.68691161e-02 -6.84106350e-02 5.96206337e-02 5.60955470e-03
      1.13308495e-02 1.34310676e-02 6.85035309e-04 -9.32505541e-03
      9.28469934e-03 -2.06027296e-03 1.14461118e-02 -1.40709626e-02
      2.66687982e-02 -2.21619196e-02 -5.12913195e-03 8.62648413e-02
      -1.78423394e-02 1.19785788e-02 -9.40006506e-03 -3.51262428e-02
      5.07585891e-02 3.84478755e-02 -5.63546568e-02 -3.65983173e-02
      -1.03198262e-02 1.47574414e-02 7.31018372e-03 -2.27250531e-02
      -3.93592045e-02 3.59721631e-02 3.69968973e-02 -1.11495731e-02
      -4.92785871e-02 -2.20245589e-02 9.33385044e-02 3.88572202e-03
      -1.49688944e-02 1.74582433e-02 3.58197019e-02 3.91021483e-02
      -6.06684834e-02 -5.65196462e-02 -2.19856557e-02 2.35527754e-02
      6.28803624e-03 4.68978062e-02 3.26319900e-03 1.04697989e-02
      8.33128672e-03 3.16117005e-03 -2.20755562e-02 3.84646244e-02
      8.57764110e-02 -2.56291945e-02 6.57569198e-03 9.76806507e-03
      4.13337164e-03 3.41918990e-02 2.93229874e-02 -5.11225732e-03
      -4.96752299e-02 5.42716198e-02 1.36010759e-02 -2.19499459e-03
      7.55792530e-03 3.30340303e-03 4.85027581e-02 6.80564567e-02
      -2.92733591e-03 2.04008035e-02 9.25796479e-03 -2.80155521e-02
      2.33888458e-02 -4.49090591e-03 -1.16635952e-02 1.94387678e-02
      -3.23824473e-02 -3.26097347e-02 -1.43640712e-02 6.19751848e-02
      -2.89859287e-02 -1.14122941e-03 -1.64003167e-02 1.91281717e-02
      3.46575566e-02 3.27035077e-02 -2.04637088e-02 9.29553434e-03
      5.16625568e-02 -3.23453061e-02 3.35759260e-02 -2.04024911e-02
      3.46116200e-02 2.00198088e-02 3.77158113e-02 6.74531702e-03
      5.27519882e-02 5.56335375e-02 -1.67956576e-04 7.36794202e-03
      3.06709260e-02 -1.89218801e-02 4.36378568e-02 4.24442776e-02
      1.19424751e-03 -3.96432318e-02 8.77563506e-02 3.81284542e-02
      1.13291917e-02 -8.57799426e-02 -8.27161595e-03 2.73266826e-02
      4.20267768e-02 7.28918659e-03 3.65044400e-02 5.50723262e-02
      2.48661432e-02 1.33805955e-03 -4.44764737e-03 3.08255944e-02
      2.18789820e-02 -7.47769699e-03 3.75818536e-02 -3.96432318e-02
      1.03423111e-01 3.21624638e-03 1.69940181e-02 4.19508666e-02
      6.07341006e-02 6.20136596e-03 1.18214618e-02 -1.28576187e-02
      2.69757882e-02 -4.04421203e-02 1.36287464e-02 -2.08958555e-02
      2.33051963e-02 6.81839371e-03 -5.91589101e-02 -2.48311404e-02
      4.50867750e-02 4.09748331e-02 1.65422298e-02 1.68216880e-02
      -9.37990379e-03 4.98573892e-02 4.67075519e-02 -4.55535948e-03
      2.35281559e-03 2.79191812e-03 6.48921961e-03 -4.21689227e-02
      -3.89001518e-02 -4.18165773e-02 3.65783498e-02 1.51388235e-02
      -2.86268424e-02 -1.17673341e-03 2.38610841e-02 4.94333133e-02
      -9.69348755e-03 4.10159380e-04 -4.83863316e-02 1.26512833e-02
      -1.49781937e-02 -1.18669964e-01 -9.33418199e-02 2.26179510e-02
      7.91556835e-02 8.34236592e-02 -1.04148938e-04 -3.71788852e-02
      5.31193875e-02 2.28321161e-02 -5.25984690e-02 -1.19896375e-01
      -4.93978299e-02 3.71037088e-02 5.29634394e-02 -4.04667929e-02
      -3.43497284e-02 3.85023467e-02 -1.47020854e-02 -8.69722292e-02
      -5.65674864e-02 2.40081567e-02 8.70331600e-02 7.57741481e-02
      -2.51982943e-03 -7.55584389e-02 4.08196356e-03 -2.90638767e-03
      -5.94528057e-02 -9.63397399e-02 -5.10334261e-02 4.56450097e-02
      5.62022105e-02 -7.84705430e-02 -7.31829032e-02 7.59630557e-03
      4.95974422e-02 2.98135960e-03 -6.61116913e-02 -5.68751898e-03
      -5.75610399e-02 -1.47550069e-02 -5.46698794e-02 7.29439966e-03
      5.85626960e-02 4.64097485e-02 -4.36044596e-02 -1.45248584e-02
      1.56107862e-02 -3.18267979e-02 -7.30307028e-03 -1.06097441e-02
      1.74871236e-02 2.34470572e-02 5.19183353e-02 1.16611887e-02
      -2.32563168e-02 9.29507776e-04 1.18228858e-02 -3.40900570e-03
      -6.97863325e-02 -1.95802338e-02 4.31748591e-02 1.69823803e-02
      -2.16076374e-02 -7.23110093e-03 2.24116258e-02 9.77173448e-03
      6.00754982e-03 -2.55176704e-03 -2.92082168e-02 -3.81442765e-03
      3.77600081e-02 -2.47550514e-02 2.74009141e-03 5.56784961e-03
      2.18097455e-04 1.18066855e-02 -2.68126605e-03 2.09495425e-02
      1.96023751e-02 1.90695794e-03 -1.12323230e-03 2.44893832e-03
      -1.68006141e-02 6.39655143e-02 -2.01464631e-02 -2.58681295e-03
      1.75597537e-02 1.81710552e-02 -3.46730463e-02 -1.50303142e-02
      5.30238915e-03 3.00244568e-03 -5.98305743e-03 4.78122663e-03
      -2.26065088e-02 2.05333997e-03 -2.57810652e-02 -1.73707027e-02
      3.04760481e-03 -2.93469299e-02 -3.70359272e-02 7.21580535e-02
      -2.59405058e-02 -2.29715575e-02 9.56739951e-03 5.34150563e-03
      3.78348865e-02 2.73030214e-02 -4.36235890e-02 -2.92075966e-02
      -2.29792073e-02 -2.62270346e-02 3.74874868e-03 4.49985676e-02
      6.37102053e-02 -1.24887610e-02 -1.65911776e-03 2.19526868e-02
      -4.34268964e-03 -5.81197627e-03 2.74208598e-02 5.98653965e-03
      1.88698601e-02 2.94947568e-02 1.33602927e-02 -2.00679787e-02
      -5.20695709e-02 -6.89528212e-02 -3.75178717e-02 -7.50563368e-02
      -2.20784117e-02 5.56741618e-02 7.24728480e-02 -1.29161607e-02
      8.88674892e-03 4.13182229e-02 1.72033608e-02 1.56566352e-02
      -2.70240530e-02 1.45980539e-02 4.65701520e-02 2.93021686e-02
      1.93196833e-02 -9.89513006e-04 -5.19548990e-02 -4.03182581e-02
      -4.23239954e-02 2.07383130e-02 -3.31797674e-02 -1.02126459e-02
      2.71724118e-03 1.80866010e-02 1.68360397e-02 2.72015296e-02
      -1.95970498e-02 9.22450330e-03 3.53640169e-02 2.40060152e-03
      8.96993279e-03 -2.37192344e-02 9.74625722e-03 2.30190977e-02
      2.35176776e-02 -7.68289343e-03 -2.54844353e-02 -1.16773816e-02
      -3.53642926e-02 -5.76246530e-03 -3.70533112e-03 2.04000715e-02
      3.19780819e-02 -1.56955456e-03 1.13286469e-02 2.94229519e-02
      1.62069909e-02 5.95618859e-02 2.87048630e-02 1.27714789e-02
      5.82439639e-03 2.66229846e-02 3.68982963e-02 2.15624217e-02
      -3.66019108e-03 5.87483905e-02 3.64536457e-02 9.36892908e-03
      1.52867706e-02 8.39606486e-03 -4.07894738e-02 -1.55919716e-01
      8.24355148e-03 -2.71993242e-02 8.48354772e-02 4.25995886e-03
      2.85204779e-02 6.80455863e-02 1.08199157e-02 2.18431484e-02
      2.67951563e-02 -7.06590386e-03 3.07077449e-02 5.69588915e-02
      3.29171643e-02 2.12709699e-02 2.22234111e-02 -2.71842033e-02
      -6.86154217e-02 -1.68288410e-01 -8.77076481e-03 -4.39215116e-02
      1.13679998e-01 6.07990064e-02 9.68171880e-02 4.03688215e-02
      8.44490379e-02 -1.32592022e-02 -7.87287652e-02 5.60308294e-03
      -3.76975238e-02 9.37286671e-03 2.50586425e-03 3.94897796e-02
      9.92618203e-02 2.38523539e-02 -1.55634549e-03 -3.88586111e-02
      1.77667360e-03 2.80057266e-02 -5.20615233e-03 -3.35586518e-02
      -5.21726068e-03 2.45625228e-02 2.15883665e-02 -2.70933453e-02
      -1.12827867e-01 -5.77095244e-03 -4.37487382e-03 8.39825533e-03
      1.50470119e-02 8.15749988e-02 4.05673608e-02 -2.18708091e-03
      1.33718913e-02 -8.06390345e-02 -2.02934500e-02 -1.39124384e-02
      -4.72455323e-02 -8.94447789e-02 2.29513235e-02 -8.47401842e-03
      -4.38501202e-02 -2.22433619e-02 -1.17300125e-02 3.11455820e-02
      1.88126370e-01 6.12770319e-02 2.13959590e-02 -3.43736238e-03
      8.10247194e-03 -8.63673761e-02 -1.51007865e-02 -5.51987365e-02
      -1.60648692e-02 1.19435608e-01 8.37127715e-02 6.02892740e-03
      8.35606176e-03 -1.94022059e-02 -2.41904147e-02 1.21454298e-02
      -2.64388658e-02 3.28015280e-03 6.98520243e-02 1.38830980e-02
      -4.85575274e-02 3.06554828e-02 -1.24409078e-02 -4.36915644e-02
      -2.09488869e-02 -6.03747703e-02 4.21814562e-04 3.06241605e-02
      3.53410728e-02 -6.94012269e-02 1.43691143e-02 -2.13405062e-02
      8.98097828e-03 5.69047173e-03 -3.74038741e-02 -1.76624227e-02
      9.30432323e-03 2.69108694e-02 -2.49230359e-02 -2.92653944e-02
      2.24401671e-02 2.70294189e-03 1.01646893e-02 2.00015400e-02
      3.86018194e-02 3.16938460e-02 2.70303041e-02 1.87019277e-02
      -2.14830209e-02 1.52311688e-02 -5.26704490e-02 -3.59847397e-02
      -4.16692495e-02 2.55679637e-02 -8.65106098e-03 2.41174195e-02
      -9.68531668e-02 -2.89001279e-02 1.55884419e-02 -3.96307036e-02
      -4.18614224e-02 1.10272663e-02 7.25901350e-02 3.49256024e-03
      3.96628380e-02 -4.28885110e-02 -2.13038288e-02 1.90755762e-02
      -8.09066743e-03 9.69035085e-03 -1.74471810e-02 2.44912710e-02
      -1.10160774e-02 1.89490970e-02 -3.10616344e-02 -3.25068273e-02
      -1.46997590e-02 1.25069199e-02 9.25760809e-03 -8.04117024e-02
      -3.92143242e-02 5.09024151e-02 -1.18834442e-02 -4.15496202e-03
      -2.32438408e-02 -2.92469226e-02 -1.61181986e-02 -1.64701492e-02
      -3.32967155e-02 6.74587265e-02 3.82543355e-02 7.00924173e-02
      -6.86611421e-03 6.62826118e-04 1.25107700e-02 -3.59357335e-02
      -1.59793217e-02 -6.43136352e-02 5.29106334e-03 1.32810948e-02
      2.18107048e-02 2.99939029e-02 1.59578025e-03 -3.02216467e-02
      2.48931292e-02 1.09985815e-02 -5.93991810e-03 -2.33053658e-02
      1.37561802e-02 -3.86791117e-02 3.12866010e-02 2.47370563e-02
      3.95082012e-02 2.29184423e-02 1.20915892e-02 2.97255330e-02
      -2.50892453e-02 3.09422165e-02 1.29598351e-02 -4.62692566e-02
      -5.38298882e-05 5.29078953e-02 -1.64598953e-02 1.43152839e-02
      7.71969045e-03 2.47764476e-02 2.90491041e-02 -8.72532744e-03
      4.27252688e-02 1.28587792e-02 -3.20257433e-02 -4.56688218e-02
      -1.36767626e-02 -1.08765941e-02 -1.13307312e-02 9.87037830e-03
      4.22872752e-02 -5.45879714e-02 -2.70699803e-02 9.46958363e-03
      3.20223980e-02 2.29405072e-02 9.33237094e-03 -1.55825019e-02
      -2.14316621e-02 -7.29919411e-03 -1.19305313e-01 -1.41709140e-02
      1.57166589e-02 3.77186835e-02 7.58534297e-03 -5.29048108e-02
      2.26740399e-03 9.62672755e-03 -6.93667587e-03 3.48598771e-02
      2.93811783e-02 6.04771040e-02 6.14497587e-02 -3.68188322e-02
      -7.13867024e-02 -3.52890864e-02 -6.90499917e-02 1.10401455e-02
      -1.20626546e-01 -2.23781839e-02 7.96339810e-02 5.39689474e-02
      -4.08524498e-02 -2.98326313e-02 -7.86811952e-03 -4.59716022e-02
      -1.78773850e-02 -5.25570139e-02 -3.05725504e-02 5.70435673e-02
      -4.41406891e-02 1.88884865e-02 4.30576392e-02 -6.83227507e-03
      1.05879689e-02 4.49598767e-02 -1.09527893e-02 4.49770270e-03
      -4.69999053e-02 2.21488643e-02 -3.35779227e-02 -5.75086363e-02
      -2.70487368e-03 -5.20031229e-02 1.29493102e-01 1.42011434e-01
      2.32105926e-01 5.90583533e-02 7.40003586e-03 9.35183186e-03
      3.21499966e-02 4.21539182e-03 7.02034608e-02 9.70210321e-03
      -5.59521746e-03 -4.29982366e-03 -2.84723775e-03 -1.30172949e-02
      -8.20990838e-03 -3.81939895e-02 1.58640947e-02 -8.05998445e-02
      8.96321330e-03 -6.62067756e-02 -5.55582531e-03 1.17843263e-02
      1.17929485e-02 -1.06016872e-02 -4.24468778e-02 9.62697156e-03
      4.36592242e-03 -1.17237156e-03 1.07615981e-02 6.58802763e-02
      5.32223098e-02 -1.57039464e-02 2.42581628e-02 -5.97955398e-02
      1.44563699e-02 1.52814370e-02 -3.42250317e-02 -1.23203039e-01
      8.21771100e-03 -8.22993182e-03 1.45466831e-02 -8.61442939e-04
      7.29074841e-03 2.05363389e-02 2.64000371e-02 -4.69261361e-03
      -8.81795809e-02 -2.83627659e-02 2.28093360e-02 4.39275503e-02
      -2.43869913e-03 5.07873762e-03 3.74638028e-02 7.33562335e-02
      9.62238293e-03 -1.12677276e-01 -4.38645743e-02 4.24321182e-02
      -2.71587968e-02 3.67931426e-02 -1.18261687e-02 1.04949484e-02
      9.53353848e-03 2.47416832e-02 -8.42739418e-02 -2.75159092e-03
      -1.45900408e-02 -1.92731135e-02 3.31617557e-02 1.27863996e-02
      1.66637935e-02 3.22252512e-02 3.15068364e-02 -1.59505710e-01
      -4.08024453e-02 -1.45900408e-02 5.82692809e-02 8.54605716e-03
      -6.54287217e-03 2.90805325e-02 1.39770120e-01 2.82987580e-02
      -8.53508785e-02 -3.59599963e-02 6.62893206e-02 -2.53837388e-02
      3.52613442e-02 3.03228516e-02 1.62892528e-02 7.32212588e-02
      2.85232756e-02 -9.85278562e-02 -2.38914173e-02 -6.32352475e-03
      -1.15720322e-02 3.22487205e-02 9.81338769e-02 4.18609120e-02
      6.07833304e-02 2.06213389e-02 -1.57826141e-01 -7.27107897e-02
      1.43921012e-02 1.09203076e-02 -6.76394328e-02 4.91821505e-02
      7.07156658e-02 4.15789969e-02 2.48926077e-02 -9.90477353e-02
      -5.78636378e-02 4.37076055e-02 -4.16462682e-02 3.02079245e-02
      5.99730760e-02 1.15087591e-02 1.73674505e-02 5.37711242e-03
      -9.36998129e-02 -2.55033001e-02 9.88447922e-04 -1.76756531e-02
      -3.49697471e-02 -2.55826451e-02 6.90319203e-03 4.20650207e-02
      6.38971198e-03 -6.62554353e-02 -3.30923833e-02 -2.33880971e-02
      -2.65736207e-02 -6.05979078e-02 -5.97668365e-02 9.83743593e-02
      1.88624281e-02 8.06310251e-02 3.90711520e-03 -1.78760532e-02
      -2.13192627e-02 -1.55243138e-02 -2.43133809e-02 -4.16816585e-02
      5.01173101e-02 -1.74502619e-02 1.02857642e-01 3.27030942e-02
      -2.69692857e-03 -3.28646004e-02 -2.66026463e-02 -2.87184231e-02
      -5.33237606e-02 -2.61644311e-02 -8.56116135e-03 1.70443747e-02
      1.02538662e-02 1.04789920e-02 -3.69364247e-02 -7.26079242e-03
      2.29733046e-02 4.35028672e-02 -1.12086665e-02 2.36697476e-02
      5.69923734e-03 5.07421866e-02 4.11191247e-02 2.44934727e-02
      -1.77748073e-02 3.91970538e-02 4.69219983e-02 2.69864909e-02
      5.11212051e-02 3.22411768e-02 6.31129071e-02 2.42207088e-02
      9.55468160e-04 -5.74895218e-02 -3.24285515e-02 -7.31520802e-02
      4.16986179e-03 -3.24985804e-03 2.41814703e-02 -3.55140492e-02
      -2.58626509e-02 -2.55795699e-02 -2.33089495e-02 4.73671854e-02
      8.10202584e-02 -2.17102654e-02 2.16176212e-02 -5.28224232e-03
      7.15870857e-02 3.67055908e-02 4.73744236e-03 -5.27245551e-02
      6.45286357e-03 -7.45054241e-03 -2.87425090e-02 -2.59610917e-02
      -5.28592011e-03 1.97728127e-02 2.92713344e-02 -4.58579920e-02
      5.46329515e-03 -7.31657296e-02 -1.04224615e-01 1.25616984e-02
      -1.42535446e-02 6.11319095e-02 -6.38520867e-02 -6.22041263e-02
      4.34687026e-02 5.63451871e-02 -3.43996547e-02 -2.93172002e-02
      -1.85754406e-03 -2.55986229e-02 3.19024026e-02 -8.59291255e-02
      -4.30331305e-02 6.53900355e-02 -2.66359337e-02 -1.90033242e-02
      -5.02193086e-02 -1.36539396e-02 -5.94251677e-02 2.84256530e-03
      9.52122733e-03 1.20008606e-02 -2.21189782e-02 4.76331003e-02
      -1.68092009e-02 -7.24908477e-03 -4.17300267e-03 -2.27553267e-02
      1.14310998e-02 -4.43634717e-03 1.28932064e-02 4.12806980e-02</_>
    <_>
      -1.40802059e-02 -1.47086466e-02 -2.03889366e-02 1.22198183e-02
      -1.31427683e-02 6.25925185e-03 2.83329369e-04 -3.46744596e-03
      -8.96245148e-03 -5.00614531e-02 -2.48497445e-02 -3.72424349e-02
      -1.11196830e-03 -2.67075039e-02 -1.16896059e-03 2.88696401e-02
      1.51415868e-02 -4.40495312e-02 -3.67156863e-02 -4.79212729e-03
      -5.98197477e-03 5.34882257e-03 -2.89084595e-02 1.36747528e-02
      1.42290350e-02 -4.01140377e-03 -2.83103250e-02 -7.49756694e-02
      -3.57082821e-02 4.30584960e-02 -2.21866071e-02 -4.75040963e-03
      7.08482321e-03 3.37896310e-03 3.45443487e-02 -7.25530311e-02
      -3.91617008e-02 -1.66070014e-02 -1.98351927e-02 -4.05151537e-03
      -5.55822533e-03 -4.46013920e-03 9.70561150e-03 1.55975530e-02
      -4.09321897e-02 -5.12886755e-02 -1.36772625e-03 3.08168549e-02
      6.25744753e-04 3.41608934e-03 -3.36098741e-03 -2.51660589e-02
      -1.04110111e-02 -6.14591129e-02 -5.51214442e-02 -3.41086313e-02
      -3.13714636e-03 2.79316818e-03 -1.56129235e-02 3.67351901e-03
      1.81508642e-02 2.02160981e-02 -5.49858995e-02 6.81079971e-03
      -3.55760939e-02 -5.23559225e-04 4.53861523e-03 4.43622135e-02
      5.49114030e-03 -3.69656682e-02 -3.77626009e-02 6.81079971e-03
      -3.09053082e-02 7.92888552e-03 1.99384801e-02 3.52902280e-04
      -2.45339634e-05 4.50982386e-03 -3.70354997e-03 -1.01409759e-02
      -6.06402420e-02 -4.87312078e-02 2.37140805e-04 -1.49711687e-02
      5.77388797e-03 -2.30384991e-02 4.13486268e-03 2.89365724e-02
      -2.72697164e-03 -7.43938163e-02 -6.72227219e-02 3.10994755e-03
      1.22638224e-02 6.85241306e-03 9.51079745e-03 1.21697308e-02
      -1.15417654e-03 -1.66292824e-02 -6.24510981e-02 -3.53769469e-03
      1.25357439e-03 -4.94532334e-03 1.27059687e-02 3.58734392e-02
      -5.12847863e-03 5.93075342e-02 -3.27241770e-03 -9.62514523e-03
      -5.37900515e-02 1.94718200e-03 -2.29455307e-02 1.40050927e-03
      -2.22455245e-02 5.94739942e-03 4.06553932e-02 1.73364300e-02
      -5.89781776e-02 -6.39647841e-02 -1.05868597e-02 -3.34271491e-02
      2.52707337e-04 -2.31558401e-02 2.10351381e-03 1.99948680e-02
      1.78077519e-02 -8.40943679e-02 1.61900688e-02 -1.72172152e-02
      -1.83604602e-02 -1.31550068e-02 2.29233280e-02 1.05547234e-02
      9.06583965e-02 4.12138887e-02 1.53794270e-02 -2.25425209e-03
      -1.70885362e-02 -2.22757529e-03 -1.67746861e-02 2.60571856e-02
      2.73592100e-02 4.69253436e-02 2.76672263e-02 -1.76259112e-02
      -5.03771603e-02 2.16257852e-03 -3.00834570e-02 1.20846601e-02
      -6.65630586e-03 -3.44870286e-03 5.49044041e-03 8.19051825e-03
      -7.15439990e-02 -3.51922028e-02 -3.01424079e-02 -5.35648093e-02
      1.11258002e-02 6.50439039e-03 1.28771306e-03 3.03198528e-02
      9.61496402e-03 -4.21738736e-02 -3.94110605e-02 -7.54233869e-03
      -2.96046725e-03 1.08446740e-02 2.43484750e-02 -6.45895535e-03
      1.66630503e-02 -2.72657275e-02 -5.91545291e-02 -5.12801334e-02
      7.02967681e-03 1.55626042e-02 2.63409596e-02 9.34270490e-03
      -1.01905735e-02 5.86377420e-02 9.05819889e-03 -4.25343178e-02
      -4.58769388e-02 -5.69774257e-03 -3.41442116e-02 2.95416964e-03
      -2.68895663e-02 -1.49536598e-03 2.34679263e-02 1.36132622e-02
      -2.94877179e-02 -2.38908036e-03 6.58254197e-04 -6.61534071e-03
      1.14311744e-02 2.81693507e-02 5.77141577e-03 2.69702319e-02
      2.16757189e-02 1.53178116e-02 -4.87134606e-02 6.57165609e-03
      6.80171326e-03 1.82147967e-04 -3.50933261e-02 -1.54586425e-02
      1.74848307e-02 -3.79560655e-03 -3.68529707e-02 -3.97558473e-02
      9.04297165e-04 1.44272055e-02 -7.98739120e-03 -2.12866534e-02
      1.38440980e-02 -3.41059477e-03 1.12348739e-02 -2.58361883e-02
      -6.45106519e-03 -1.04599185e-02 1.00778108e-02 2.83640157e-02
      1.64129725e-03 -1.12884454e-02 1.64184626e-02 2.23678001e-03
      9.28256195e-03 -2.91046599e-04 2.34083813e-02 8.14002752e-03
      1.79111008e-02 1.16414363e-02 -2.44670231e-02 1.30954515e-02
      -4.33296012e-03 8.16011243e-03 -1.50110215e-01 1.39449593e-02
      4.73634228e-02 2.36885343e-02 2.51841340e-02 8.29276349e-03
      4.02116217e-03 -5.47396159e-03 -1.40702561e-01 -5.30409813e-02
      1.00147352e-02 1.29025765e-02 3.17357853e-02 -2.36548148e-02
      -3.40896547e-02 4.29898091e-02 -1.60293351e-03 -8.62437412e-02
      -2.96352594e-03 -4.95223282e-03 -3.18668084e-03 2.39806529e-03
      -3.19844261e-02 -2.00442895e-02 -1.66375786e-02 -4.70940629e-03
      5.23216836e-03 -4.21444438e-02 -5.26192524e-02 3.39889564e-02
      -1.41072143e-02 -7.23836720e-02 -1.18185272e-02 1.20092575e-02
      6.54139277e-03 -2.13530771e-02 4.79985960e-02 -2.92912708e-03
      2.22186260e-02 3.62529024e-03 2.13780794e-02 -3.97722721e-02
      5.38359676e-03 7.44940294e-03 5.36432862e-02 4.34777662e-02
      -6.22221380e-02 -7.27624458e-04 3.45877632e-02 -3.30493338e-02
      -4.53043580e-02 3.93850310e-03 1.62080843e-02 5.83353415e-02
      -2.56832000e-02 -2.16315631e-02 1.84692852e-02 -6.82161795e-03
      -5.24238907e-02 4.83705662e-04 4.61285794e-03 3.24482843e-03
      -8.51093139e-03 -2.06769872e-02 1.48784444e-02 2.22842563e-02
      -1.41539099e-03 -1.37137319e-03 2.21605762e-03 -1.01430062e-02
      -1.09259626e-02 -2.13852283e-02 1.43767856e-02 -8.01184215e-03
      3.51566337e-02 -7.36869359e-03 -2.33868044e-02 -4.53126244e-03
      6.56102272e-03 8.40476656e-04 1.30881835e-02 -3.22200023e-02
      7.14759827e-02 4.33892608e-02 -2.47092824e-02 -8.93308036e-03
      -2.59475689e-02 -1.47334635e-02 -1.51742501e-02 -2.80720298e-03
      -9.83427837e-03 8.91759899e-03 -2.37123505e-03 -6.46172464e-03
      -4.97490820e-03 9.94935911e-03 -7.24885566e-03 1.42299372e-03
      -1.17575722e-02 -1.50742158e-02 -3.24421260e-03 -2.54542101e-02
      4.31390246e-03 1.95010342e-02 5.39316051e-03 1.18412338e-02
      -5.92154870e-03 -2.63429098e-02 9.24357027e-03 2.99939122e-02
      -1.22317709e-02 -4.96651940e-02 -2.89381873e-02 -4.50917566e-03
      -3.37436236e-02 -7.27862492e-03 2.22082660e-02 8.28563329e-03
      -6.60654530e-03 -6.01197639e-03 -2.03812327e-02 -1.37873348e-02
      -2.04108953e-02 -1.64950509e-02 -1.56292990e-02 1.35674533e-02
      -2.23104171e-02 -3.36378217e-02 8.98314454e-03 9.10418981e-04
      5.78452460e-02 3.55915911e-02 4.88824472e-02 3.63702630e-03
      -2.58562900e-02 -2.90894266e-02 -3.02831084e-02 -9.08291899e-03
      -7.96688627e-03 4.40840647e-02 2.28585750e-02 5.65305874e-02
      4.65067849e-03 -4.76540998e-02 -3.64794098e-02 -2.73349397e-02
      2.77841296e-02 -1.08661931e-02 2.77666654e-02 -2.14246549e-02
      -2.20329966e-04 -3.61333638e-02 -4.26574312e-02 -2.90544014e-02
      -1.90070353e-03 3.12932581e-02 -1.89821573e-03 3.50389816e-02
      -2.69254223e-02 7.18454551e-03 -3.00447568e-02 -1.84907764e-02
      -4.30996679e-02 8.34665960e-04 1.28512206e-02 4.42129783e-02
      4.94433865e-02 7.73100881e-03 2.56251153e-02 -1.54999569e-02
      -2.90471641e-03 -5.08502387e-02 -1.78368925e-03 1.49332173e-02
      3.03044729e-02 -5.95501885e-02 -3.01560722e-02 -2.09888034e-02
      -2.31745392e-02 -3.46883573e-02 1.33456173e-03 -3.05010751e-03
      2.18998492e-02 2.99689304e-02 3.04622371e-02 -2.61172350e-03
      1.32125011e-02 3.14785779e-04 -8.87506362e-03 -4.93005402e-02
      -3.31538767e-02 -2.38907821e-02 4.44935262e-03 -2.67490122e-05
      -9.63902287e-03 -2.69068815e-02 -3.45346294e-02 -1.03317834e-01
      1.94823593e-02 3.69633324e-02 5.43717667e-03 1.31577794e-02
      -2.95004193e-02 1.81415360e-02 1.33141419e-02 1.54778804e-03
      -6.53201528e-03 -6.48928108e-03 1.19753219e-02 -2.14033760e-02
      3.49265970e-02 2.44688499e-03 6.77093714e-02 1.05071375e-02
      1.22563923e-02 -2.58866269e-02 -1.74867839e-03 8.74764845e-03
      -4.22637276e-02 1.77027471e-02 -2.86389217e-02 3.10829338e-02
      -1.23282056e-02 -3.87432687e-02 -4.18960825e-02 -7.38660665e-03
      9.01513640e-03 -3.58761176e-02 4.89888154e-02 -1.47184143e-02
      6.38878718e-02 -1.30975852e-02 -7.11778551e-03 -2.92888675e-02
      -9.73004922e-02 -1.10459607e-03 -3.20004188e-02 3.19966897e-02
      -2.26482525e-02 3.12995501e-02 2.22212113e-02 -1.58758368e-02
      -8.75635445e-02 -4.91608260e-03 -1.65821379e-03 2.04834640e-02
      2.74807643e-02 -3.59748257e-03 7.40089361e-03 7.93090090e-02
      2.37222370e-02 -7.36226607e-03 -2.18399428e-02 7.56250974e-03
      -3.20420563e-02 2.05251947e-02 -1.69290118e-02 1.13143586e-02
      -1.48250656e-02 -2.40160171e-02 -3.17648761e-02 -1.23445950e-02
      5.84921194e-03 -5.83425909e-03 -6.77664531e-03 1.38760451e-02
      4.52926522e-03 5.23305051e-02 1.63963120e-02 -1.58792101e-02
      3.25077847e-02 1.84762087e-02 4.87419963e-02 1.07834470e-02
      1.68438826e-03 -4.64960784e-02 4.47032303e-02 2.66655330e-02
      2.11482067e-02 1.86312925e-02 1.22050541e-02 1.23811057e-02
      5.88094443e-03 -6.34022802e-02 -5.16320616e-02 9.66871064e-03
      6.33501913e-03 2.86724437e-02 6.20950293e-03 1.20153660e-02
      7.18553215e-02 3.79774813e-03 -4.60236073e-02 -3.46811898e-02
      3.37803252e-02 3.26848365e-02 -1.47424557e-03 -5.15858817e-04
      6.21271878e-02 1.19947881e-01 8.27954151e-03 -2.60382798e-02
      -3.58235650e-02 -2.65894836e-04 1.85445417e-03 -2.16854792e-02
      -1.98888648e-02 4.42866050e-03 2.42126584e-02 -2.76197381e-02
      -7.00234249e-03 9.53369774e-04 7.79211568e-03 -7.74125522e-03
      -4.24742065e-02 -1.42375864e-02 2.81614922e-02 2.29427144e-02
      -3.14234570e-02 -1.11048308e-03 -3.28352675e-02 1.49222428e-03
      -1.00033134e-02 1.68131525e-03 1.44388862e-02 5.48838377e-02
      7.93856159e-02 -1.35997124e-02 1.11696851e-02 1.51439933e-02
      -1.14181591e-02 3.46990698e-03 -1.65218022e-02 3.79542611e-03
      3.30399089e-02 2.98392605e-02 -3.68395597e-02 1.51149556e-02
      -3.91253047e-02 -2.67159194e-03 1.09845689e-02 -3.05637252e-03
      4.18110117e-02 3.34380902e-02 -4.76670312e-03 -3.49402092e-02
      -2.22515874e-02 -1.68923922e-02 -3.98166385e-03 9.93094128e-03
      1.65234040e-02 -6.99083647e-03 2.42214184e-02 8.95320345e-03
      -2.15337202e-02 -2.35272963e-02 -3.42461541e-02 -2.41947938e-02
      -2.29224842e-02 4.32579266e-03 4.74735461e-02 2.71761417e-02
      2.91595911e-03 -5.62596656e-02 8.65169894e-03 -1.53188789e-02
      -4.14421549e-03 3.07155363e-02 1.73781291e-02 -9.42876190e-03
      5.44617884e-03 -1.37740665e-03 -3.22126187e-02 8.06842372e-03
      -3.17916088e-02 9.19311028e-03 -1.14689758e-02 -1.53131941e-02
      -4.06568423e-02 -3.69175896e-03 7.53544923e-03 -7.38226529e-03
      -7.00297253e-03 -3.27427760e-02 -1.86732281e-02 -2.86846962e-02
      -2.08333116e-02 -2.02769060e-02 1.43394936e-02 2.15658918e-02
      1.33762294e-02 3.79814543e-02 -1.71820153e-04 5.54160972e-04
      -1.11070666e-02 -1.24309091e-02 4.00231546e-03 -1.01689408e-02
      -1.70683842e-02 -1.98253710e-02 -1.16804726e-02 -4.78174202e-02
      -8.55978020e-03 -1.57310832e-02 -1.14030158e-02 2.50654723e-02
      3.08591407e-03 -6.71453681e-03 -1.91569596e-03 2.74128560e-02
      3.06000031e-04 7.25655444e-03 1.26469210e-02 -9.21298936e-03
      -1.31332586e-02 -7.39017909e-04 8.34145991e-04 8.30510445e-03
      3.44062895e-02 7.87164643e-03 6.04995806e-03 4.48155357e-03
      -1.91683974e-02 -8.06719139e-02 -3.40710767e-02 -4.76275720e-02
      7.98880705e-04 4.78019472e-03 1.54091557e-03 -2.45260596e-02
      -2.92835366e-02 -9.28901359e-02 1.44722043e-02 -1.29536813e-04
      1.89351942e-02 -5.04457718e-03 3.84568423e-02 3.82638234e-03
      1.55161722e-02 4.87056701e-03 -2.32420992e-02 -9.03612748e-02
      -3.00570931e-02 -4.38798591e-02 1.22113153e-02 2.53718924e-02
      1.82496160e-02 -2.23933253e-02 -4.78297211e-02 -1.12124138e-01
      2.95847749e-05 3.67877036e-02 -6.94355462e-03 4.20057774e-02
      -2.18209550e-02 4.82934527e-02 -1.91145968e-02 -4.91814921e-03
      -3.02994121e-02 4.18316089e-02 2.89551653e-02 -2.77558137e-02
      4.76265959e-02 -5.54274879e-02 8.15049931e-02 2.12224689e-03
      3.64083946e-02 4.51096240e-03 -3.54337022e-02 5.52543774e-02
      -1.42365163e-02 7.74964392e-02 -2.07579974e-02 4.85407524e-02
      -3.64415385e-02 -2.30532959e-02 -6.66282028e-02 -1.92878097e-02
      5.54086864e-02 -6.43640310e-02 7.02241138e-02 -6.55832887e-02
      3.71570848e-02 -6.14138134e-02 2.68823467e-02 -2.04426125e-02
      -1.49625447e-02 4.32384387e-03 -4.09594066e-02 3.27922963e-02
      -4.41209190e-02 4.17971052e-02 1.76448212e-03 1.23606203e-02
      -2.11797804e-02 2.41873600e-03 3.07563506e-02 -1.01075256e-02
      1.59661025e-02 4.39768583e-02 5.42110540e-02 4.22903486e-02
      1.45164505e-02 5.66824013e-03 -6.39294386e-02 5.34037082e-03
      -8.49420205e-02 4.26523574e-02 -3.81575450e-02 8.77448265e-03
      -5.33606000e-02 2.27256399e-02 -7.03195706e-02 -3.72617990e-02
      3.69934253e-02 1.49810063e-02 3.12476475e-02 3.07587609e-02
      6.21610545e-02 -1.23181297e-02 -6.76225917e-03 -4.74459045e-02
      8.34189542e-03 1.81779789e-03 1.94279235e-02 1.01705668e-02
      -4.13633995e-02 -3.62350158e-02 -4.12940106e-04 2.01744419e-02
      -8.11473560e-03 3.90807241e-02 3.92227061e-02 7.14274347e-02
      4.82945628e-02 -1.04188928e-02 -1.12878736e-02 -1.57276187e-02
      3.12807295e-03 1.58595424e-02 4.69611958e-03 1.39312102e-02
      2.59289220e-02 1.11868801e-02 -2.56175585e-02 -7.53524760e-03
      -3.01303286e-02 1.01144183e-02 -1.28886309e-02 3.60936858e-02
      -3.41398316e-03 -2.12468393e-02 3.32665723e-03 -1.04188928e-02
      1.04072513e-02 -8.20246991e-03 8.13696906e-03 4.29127142e-02
      -1.21588015e-03 5.11276983e-02 4.17078994e-02 -4.64689359e-03
      1.26855471e-03 -2.28603203e-02 -1.76879633e-02 1.00416946e-03
      -1.99169829e-03 2.49494985e-02 3.90329584e-02 3.20549798e-03
      -5.61815687e-02 7.11092399e-03 -2.66544893e-02 -2.29822900e-02
      1.29613271e-02 1.10143293e-02 2.48907413e-02 7.78928259e-03
      -3.16351727e-02 -5.08947968e-02 2.01216131e-03 -1.92120653e-02
      1.04128178e-02 -9.91109293e-03 3.86004820e-02 2.25968771e-02
      -1.14982249e-02 -3.53297181e-02 -4.74462733e-02 6.27729902e-03
      1.08029535e-02 -1.20049287e-02 -9.92340315e-03 7.09490757e-03
      2.79210564e-02 8.77723191e-03 3.27952235e-04 -5.12652248e-02
      2.29519345e-02 -1.18592046e-02 5.52877691e-03 2.56841257e-02
      3.91500071e-02 -1.38643757e-02 -2.34032702e-02 -3.13417357e-03
      -3.36986966e-02 4.41244291e-03 -4.13658097e-02 1.71174183e-02
      -4.56236070e-03 -3.57863158e-02 -8.63683037e-03 -4.07879390e-02
      -1.58983730e-02 8.31411965e-03 2.42715366e-02 2.04132441e-02
      6.99247839e-03 5.32991719e-04 1.04189403e-02 1.89538917e-03
      -3.61911654e-02 2.97641265e-03 -1.87590420e-02 9.39897541e-03
      -1.45045109e-04 -1.57819092e-02 -4.24252525e-02 2.96149426e-03
      -1.05554322e-02 -2.81201918e-02 -2.33684313e-02 -3.07171550e-02
      -1.25801647e-02 -3.93498875e-02 1.82130802e-02 -6.00237213e-03
      -3.87646854e-02 2.44550705e-02 -3.84466648e-02 -2.72270944e-02
      -9.64028481e-03 3.26966159e-02 1.93141296e-03 2.33861506e-02
      2.66267406e-03 5.44323178e-04 4.27018479e-03 -2.16070171e-02
      -1.06247263e-02 -2.05055811e-02 4.00419757e-02 -1.58002600e-02
      -4.70888894e-03 -3.68660763e-02 7.25220598e-04 1.61264259e-02
      -3.54266576e-02 1.20233372e-03 -1.00877006e-02 3.76320519e-02
      -1.03695411e-02 2.09389068e-02 -1.38826631e-02 2.00682655e-02
      4.72343303e-02 -3.36023495e-02 5.25738113e-03 -1.02986991e-02
      2.98408661e-02 -2.10637283e-02 3.71255074e-03 -1.34442607e-02
      -1.26485238e-02 -6.29743263e-02 1.31933922e-02 -2.15035714e-02
      5.72010540e-05 2.71707382e-02 -4.50446643e-02 -3.88991609e-02
      -6.29814342e-02 -9.64994356e-02 1.68755706e-02 -1.62995346e-02
      2.41962448e-02 -1.55876465e-02 3.42834704e-02 -2.49064919e-02
      7.75839109e-03 -2.96356026e-02 9.92931146e-03 -1.05838589e-02
      5.70685565e-02 -1.14314426e-02 -1.75836105e-02 3.89619246e-02
      -4.55906615e-02 -3.04722656e-02 -4.92923073e-02 -7.56503642e-02
      -9.85800661e-03 7.61241540e-02 9.17270966e-03 8.11228752e-02
      6.03324780e-03 4.30085883e-02 -2.18920987e-02 -9.45600797e-04
      -4.62169498e-02 -2.49568913e-02 4.11858149e-02 -6.80356622e-02
      4.83403578e-02 -7.60972202e-02 5.54135889e-02 -6.46690354e-02
      2.57676430e-02 -4.42559235e-02 -1.27904804e-03 8.29243436e-02
      -7.55147822e-03 5.81683330e-02 -2.63259746e-02 5.16987480e-02
      2.80909101e-03 3.84577923e-02 -2.96494793e-02 -5.72370999e-02
      1.41781727e-02 -7.62193948e-02 3.46624181e-02 -5.62860556e-02
      7.85949305e-02 -5.29084206e-02 4.54979837e-02 -4.66074161e-02
      -6.17486835e-02 1.99648216e-02 -6.65633231e-02 4.70506735e-02
      -2.67929789e-02 5.98443039e-02 -2.16941051e-02 2.86907684e-02
      -6.64362013e-02 -6.00103252e-02 1.58565994e-02 4.13512327e-02
      5.34366593e-02 2.25175247e-02 8.40904564e-02 5.46186380e-02
      3.71262655e-02 -5.44840582e-02 -8.66555795e-02 1.24859521e-02
      -7.74384737e-02 3.30501609e-02 -3.61512341e-02 5.93139417e-02
      -4.56544617e-03 3.24158408e-02 -8.72509852e-02 -7.81469047e-02
      8.10735766e-03 4.17086817e-02 5.97562157e-02 1.25272544e-02
      9.08712596e-02 7.89949968e-02 5.77910058e-02 -6.47058636e-02
      5.32536581e-03 4.46196599e-03 1.49425473e-02 -8.69103801e-03
      -6.07078820e-02 1.76044162e-02 -2.99730822e-02 -3.71302664e-03
      1.05856257e-02 4.12849933e-02 -1.50736496e-02 -3.75346430e-02
      -1.00369481e-02 -1.59424171e-02 5.56871854e-03 -3.21942903e-02
      -7.27449823e-03 5.50310165e-02 2.14794930e-03 5.71083743e-03
      1.02830390e-02 2.07745447e-03 -6.75910637e-02 5.20676784e-02
      3.04723233e-02 2.86597759e-03 2.19423231e-02 5.74954823e-02
      -3.35406102e-02 -4.73400354e-02 -1.45674460e-02 -1.59424171e-02
      1.92985628e-02 1.62344463e-02 3.07315122e-02 7.28024170e-02
      5.07852547e-02 -1.76982358e-02 -4.89657745e-02 -5.50511405e-02
      -5.84225263e-03 -1.63721852e-02 -9.64867696e-03 -1.27217984e-02
      5.24706878e-02 -7.10486528e-03 -5.94163090e-02 -5.00179976e-02
      -1.70771815e-02 2.55794097e-02 5.08716404e-02 2.67152488e-03
      -2.60300487e-02 -1.41539983e-02 3.65103818e-02 -2.56979950e-02
      -2.81195939e-02 -4.49207574e-02 -1.52930431e-02 -3.66558041e-03
      -7.46344822e-03 1.38431881e-02 5.89224212e-02 1.65318884e-02
      -2.42595468e-02 -2.41632536e-02 -3.27144051e-03 2.53240597e-02
      4.76892628e-02 3.47372354e-03 -1.41622415e-02 2.64817122e-02
      -4.37799878e-02 -6.59393966e-02 -4.91921715e-02 5.18517010e-03
      1.84542872e-02 4.23292629e-02 4.92654741e-03 -2.10311152e-02
      -2.35872120e-02 -9.76676866e-03 -3.74123640e-02 -5.68348961e-03
      -1.93336643e-02 2.34280638e-02 1.99869610e-02 -1.52892657e-02
      -5.07748239e-02 -1.68693494e-02 -5.97305084e-03 -3.27472202e-02
      -3.35328802e-02 2.12669130e-02 3.45634632e-02 5.37756830e-02
      4.48215054e-03 -1.07660983e-02 3.11171892e-03 1.63615700e-02
      -8.80928151e-03 -1.01669375e-02 5.89899439e-03 1.06245521e-02
      4.55800667e-02 -2.21282989e-02 8.65385681e-03 4.85534500e-03
      1.70970913e-02 -3.13491039e-02 -5.72957704e-03 -2.39116121e-02
      2.57915445e-02 -3.16666216e-02 -2.40652282e-02 -6.06785603e-02
      2.02269224e-03 2.40861531e-02 -3.61492671e-02 3.43428813e-02
      -9.99720488e-03 3.12240552e-02 -3.21415141e-02 8.42331629e-03
      -3.53565216e-02 1.88721381e-02 -2.00225040e-02 -8.09665769e-03
      -1.07571762e-03 -2.04864983e-02 6.01924723e-03 -3.64053771e-02
      -3.67898196e-02 -2.23361775e-02 -2.50762552e-02 4.63240454e-03
      -2.74026254e-03 4.86163162e-02 2.11047437e-02 2.69123148e-02
      -2.87952516e-02 -1.31839868e-02 -3.66431512e-02 2.59874109e-02
      1.66813489e-02 -1.08077368e-02 5.84868677e-02 -2.35420559e-02
      4.06384692e-02 -1.11241136e-02 -3.91551666e-03 -4.00838591e-02
      1.71351545e-02 -1.16387922e-02 2.00179704e-02 8.43406562e-03
      -3.64093520e-02 3.44665013e-02 -2.52900105e-02 -2.23450130e-03
      -1.15712499e-02 -3.14121433e-02 -3.23457420e-02 -2.65140273e-02
      2.15671286e-02 1.19737221e-03 4.30329777e-02 -9.09000821e-03
      -3.53301242e-02 -3.78779583e-02 -2.40619760e-02 -7.43546262e-02
      -3.82613204e-02 -7.04266652e-02 -6.56002760e-02 1.46639766e-02
      -2.14485242e-03 -1.96534451e-02 -2.31452212e-02 -6.49078339e-02
      -3.10950764e-02 4.83032502e-02 -2.14627031e-02 2.54106019e-02
      -6.41553150e-03 1.71211560e-03 1.73727758e-02 2.82247439e-02
      -3.84328850e-02 -8.51205215e-02 9.36575420e-03 -6.05476126e-02
      2.59358753e-02 -7.24772513e-02 2.26459447e-02 -4.67223376e-02
      1.87194757e-02 -6.82524145e-02 -5.18432036e-02 2.39792094e-02
      -3.33625712e-02 2.18344089e-02 -7.69598689e-03 3.05582620e-02
      1.53983505e-02 4.21277732e-02 -1.99641101e-02 -6.77015781e-02
      2.48145740e-02 1.00999568e-02 6.19891360e-02 -9.65927076e-03
      5.65372780e-02 6.26090588e-03 4.81307842e-02 -2.47946791e-02
      -6.72998875e-02 1.42989354e-03 -4.60961126e-02 6.38256641e-03
      -4.24334705e-02 -6.73171366e-04 -4.68454249e-02 -3.89189599e-03
      -1.11103110e-01 -4.73782867e-02 -3.39459977e-03 3.64034921e-02
      2.91536786e-02 1.71671044e-02 5.53585812e-02 3.13639753e-02
      2.08135694e-02 -6.37040511e-02 -4.54549827e-02 5.38941380e-03
      -4.12560999e-03 2.83328351e-02 -2.24306248e-02 2.89409608e-02
      -4.07852568e-02 8.95141158e-03 -3.73378396e-02 2.11037807e-02
      3.18560041e-02 2.03003641e-02 4.98037450e-02 7.28435516e-02
      4.42316905e-02 4.32823077e-02 2.34789681e-02 2.73788497e-02
      2.41340394e-03 1.91396922e-02 3.17805149e-02 1.51394727e-02
      -5.97513691e-02 6.18284605e-02 3.35582159e-02 8.66876636e-03
      1.62658971e-02 3.49344052e-02 -1.43058514e-02 -3.49155255e-02
      -8.63585714e-03 1.99541934e-02 -9.61471349e-03 9.63976793e-03
      3.24677750e-02 4.83568572e-02 1.66322961e-02 9.16599110e-03
      5.42062940e-03 -3.69611545e-04 -5.72259277e-02 3.91131081e-02
      3.26942559e-03 2.60192179e-03 3.39396894e-02 -3.36660678e-03
      -1.77145135e-02 -5.85827380e-02 -2.20362153e-02 1.06302733e-02
      -5.39736450e-02 -1.95560083e-02 -1.98520292e-02 -1.23705445e-02
      8.63126442e-02 -9.11534391e-03 -2.31521297e-02 -4.12144549e-02
      -1.90773848e-02 -3.74104455e-02 -5.45612164e-03 1.15658976e-02
      8.61321762e-02 6.75468519e-02 2.11000666e-02 -1.09289708e-02
      7.93619920e-03 3.89785692e-02 2.01569926e-02 2.06126575e-03
      -9.89586697e-04 6.70903251e-02 -1.18918363e-02 1.50053320e-03
      -1.34234959e-02 -2.78208181e-02 -6.73164800e-03 -5.52930087e-02
      -4.10586335e-02 -4.83725071e-02 -1.29944356e-02 -6.22972893e-03
      2.32783724e-02 -2.45577488e-02 -3.44169675e-03 4.41556200e-02
      -4.99258982e-03 -4.63395230e-02 -3.65880020e-02 4.35377099e-03
      2.49003358e-02 1.31972944e-02 -1.50943855e-02 3.32517326e-02
      8.16487446e-02 2.77351141e-02 1.00330086e-02 6.58770371e-03
      3.99070308e-02 -1.03700394e-02 4.82664304e-03 -2.26961430e-02
      4.02824162e-03 2.90611554e-02 3.87930945e-02 2.77016722e-02
      3.53371873e-02 1.02671580e-02 -4.58257571e-02 9.86783300e-03
      -3.05279437e-02 1.06636044e-02 6.76156878e-02 1.36042703e-02
      -1.91070195e-02 -2.08274052e-02 -2.98031345e-02 -3.81932482e-02
      1.56130805e-03 -3.75573300e-02 -3.03131528e-03 4.35190164e-02
      6.38550613e-03 1.53193241e-02 -2.18193736e-02 -3.48136835e-02
      -2.92627793e-02 -2.73645809e-03 -8.31579790e-03 -2.46194424e-03
      7.69605208e-03 -1.14686480e-02 -1.34419911e-02 4.02007531e-03
      -7.61592388e-03 -2.73468439e-02 8.78969766e-03 3.56080607e-02
      3.71957496e-02 5.15425541e-02 -6.11474738e-03 -1.55217191e-02
      -1.07971868e-02 1.51340971e-02 -1.75806656e-02 -1.26383444e-02
      -1.46532049e-02 9.15158167e-03 5.89796901e-02 9.29642189e-03
      -1.92466546e-02 -3.14386934e-02 -9.01078805e-04 -1.37533387e-02
      -1.68631207e-02 2.08996665e-02 2.24929359e-02 3.81171256e-02
      1.79131012e-02 -2.17455644e-02 -8.75363033e-03 2.57719588e-03
      -5.93951084e-02 -9.53958742e-03 -4.44660475e-03 1.75197329e-02
      6.16038106e-02 2.29858328e-02 -2.07863878e-02 -3.86907835e-03
      -3.01826894e-02 -1.08076520e-01 -4.41755243e-02 -9.16362852e-02
      -4.80073802e-02 9.55575891e-03 2.96184197e-02 4.92736138e-03
      -8.29841290e-03 -7.01919124e-02 -1.14755165e-02 -1.98965594e-02
      -1.03345020e-02 3.18978429e-02 6.87024891e-02 4.60687652e-02
      1.59256551e-02 3.14816670e-03 -1.14315795e-02 -3.25543396e-02
      -4.73793820e-02 -7.86962286e-02 -2.78401617e-02 -4.61435440e-04
      6.53812140e-02 6.83467463e-02 2.06256770e-02 -2.67568659e-02
      -8.18935186e-02 -3.66983525e-02 -7.86298439e-02 -1.88326240e-02
      -1.90124623e-02 3.26678194e-02 1.05352663e-02 1.12984562e-02
      -3.13728862e-02 -6.41620457e-02 -2.64993198e-02 -1.70232989e-02
      7.99485482e-03 -2.03467999e-02 4.16848548e-02 -4.49718758e-02
      2.98134470e-03 -4.34031375e-02 8.31927639e-03 -4.02907506e-02
      -3.08879968e-02 8.13899375e-03 1.35175288e-02 4.67834249e-02
      7.64815435e-02 4.01705839e-02 2.39751991e-02 -1.22849066e-02
      2.06300039e-02 3.74420173e-02 3.25930305e-02 -4.09515109e-03
      2.74936464e-02 -1.33059863e-02 6.88526779e-03 5.67068160e-03
      -4.33862358e-02 9.47677251e-03 -1.14671271e-02 -7.26792403e-03
      -6.04824200e-02 1.31815737e-02 -6.48045093e-02 -1.16366809e-02
      -5.22776656e-02 2.37399060e-02 1.51528483e-02 3.47757228e-02
      9.28121246e-03 -1.89027116e-02 -3.11238319e-03 -4.21024719e-03
      5.50800515e-03 2.41155270e-02 -2.47132927e-02 2.85838135e-02
      5.90478033e-02 -1.76946931e-02 -3.34309004e-02 5.96767711e-03
      -2.49486398e-02 9.80591285e-04 -1.29755177e-02 3.21156485e-03
      4.31349985e-02 5.80603592e-02 -1.18559776e-02 -4.16807598e-03
      -1.09892366e-02 -2.53489856e-02 3.96403391e-03 1.69935562e-02
      5.86342718e-03 -6.94155041e-03 -3.81634161e-02 -1.14623774e-02
      -3.88564095e-02 2.11469065e-02 -2.55168397e-02 -7.36766076e-03
      1.59086324e-02 2.19294857e-02 -3.65722477e-02 -6.06550202e-02
      -2.86315717e-02 4.51753661e-02 1.30533045e-02 1.01025999e-02
      -1.64780878e-02 2.80210506e-02 1.92750115e-02 -4.89802333e-03
      -1.36758871e-02 1.55554677e-03 1.85130555e-02 5.27756102e-03
      7.23173656e-03 5.10059355e-04 1.14494935e-02 -1.67548135e-02
      -2.85798553e-02 -7.68423006e-02 -1.09334022e-03 -4.22379375e-02
      7.31512764e-03 -6.75944798e-03 5.40857390e-03 -5.49605908e-03
      -1.51515182e-03 -6.57997793e-03 -3.67070585e-02 -9.04419273e-03
      2.42869277e-02 -3.74072492e-02 -2.84189656e-02 -3.23054343e-02
      5.21827908e-03 5.72121120e-04 6.93034788e-04 -5.13133258e-02
      -7.20257126e-03 3.90072130e-02 -1.69072151e-02 -6.41499534e-02
      -3.74373160e-02 1.55262304e-02 1.69385299e-02 -9.90122464e-03
      -2.69649774e-02 2.27717753e-03 -1.82332005e-02 -8.92604329e-03
      -1.48394750e-02 -2.42690061e-04 1.46167288e-02 2.12838221e-02
      -9.75401327e-03 -2.39003599e-02 6.57630572e-03 3.90639305e-02
      -4.42658272e-03 -2.10194271e-02 -8.01431946e-03 2.12327577e-02
      -2.69983597e-02 4.90259705e-03 -1.78148896e-02 -1.17034547e-03
      2.71947198e-02 -6.98131137e-03 -3.34726125e-02 -2.62934882e-02
      -5.77448728e-03 -1.76407434e-02 2.54383236e-02 4.88154823e-03
      2.35111592e-03 4.14321646e-02 2.30407561e-04 -1.34580219e-02
      -2.06981283e-02 -5.20245731e-03 5.32342214e-03 -3.45773064e-03
      -1.76943261e-02 7.95903057e-03 6.06739372e-02 -9.62663349e-03
      -1.71748251e-02 -1.43904518e-02 5.16998954e-03 -2.08031703e-02
      1.32978000e-02 5.55250845e-05 6.95452373e-03 5.81387691e-02
      -2.02612625e-03 -1.02418021e-03 -4.59395489e-03 -1.14155039e-02
      -4.03618030e-02 1.59952436e-02 1.92875676e-02 2.10766532e-02
      8.77432749e-02 2.10313722e-02 -1.96537934e-02 -3.63636985e-02
      -1.15682837e-02 -2.94167977e-02 -1.20525062e-02 4.35295701e-02
      5.72275221e-02 9.16433334e-02 2.04891916e-02 2.33566563e-04
      -2.84274518e-02 -1.36029841e-02 -4.89126481e-02 1.75479148e-02
      1.74890514e-02 6.59919716e-03 5.88671528e-02 5.74292568e-03
      -3.32240434e-03 -2.07202006e-02 -2.05577761e-02 -2.59248111e-02
      -9.27212555e-03 2.65558083e-02 1.44540956e-02 6.19423166e-02
      9.34756827e-03 -9.61318240e-03 -3.58706489e-02 -5.95074520e-03
      -2.33646519e-02 -1.42918834e-02 -3.00818961e-03 6.69716075e-02
      8.93182829e-02 4.22209874e-02 1.34334499e-02 -3.05915922e-02
      -3.00322156e-02 -8.22833739e-03 -2.30077170e-02 -3.83913964e-02
      1.74093507e-02 5.43674715e-02 6.61405548e-02 5.17750159e-02
      1.17860297e-02 -3.52212302e-02 -1.89257208e-02 -7.08247861e-03
      3.64556164e-02 -6.60488149e-04 1.15904845e-02 -3.49854981e-03
      -1.47233373e-02 -3.27734910e-02 -1.93266012e-02 -8.16375017e-04
      1.45811681e-02 6.61991015e-02 -4.50364966e-03 3.31119332e-03
      -1.35367541e-02 1.84380244e-02 -1.84597485e-02 1.64333230e-03
      6.05035224e-04 -2.54318435e-02 1.34868752e-02 -1.00171228e-03
      -2.64770980e-03 1.64375789e-02 3.62155922e-02 2.90678423e-02
      4.91505535e-03 -2.04254333e-02 2.47932747e-02 4.69040684e-02
      -2.38564564e-03 -2.07210705e-02 -1.31858485e-02 -1.77603848e-02
      -6.58180239e-03 -1.31375277e-02 4.32910770e-03 2.49675252e-02
      7.02554062e-02 -1.00521911e-02 3.95205338e-04 -1.15529951e-02
      2.62584183e-02 -1.79755613e-02 9.93327238e-03 -1.98238287e-02
      -2.26312620e-03 3.43316533e-02 -2.98383664e-02 -3.97047624e-02
      -2.08218154e-02 -1.86686330e-02 -3.83950584e-03 -2.59802565e-02
      -3.69680822e-02 2.81432476e-02 3.63882035e-02 -6.22486556e-03
      -1.43891871e-02 4.01086127e-03 -1.44611383e-02 -2.02076472e-02
      -5.55200363e-03 1.87027513e-03 2.38616280e-02 5.10009155e-02
      -2.43520681e-02 9.52370930e-03 9.79125407e-03 -2.34545302e-02
      4.88721346e-03 3.19851339e-02 -3.51270698e-02 -1.47302719e-02
      3.18112932e-02 -2.91417856e-02 -6.69529513e-02 -7.54886866e-03
      -3.17000672e-02 1.42167055e-03 -4.65128310e-02 1.47824958e-02
      -1.97300804e-03 1.41965393e-02 -2.20471825e-02 -5.28203622e-02
      9.38966405e-03 -4.63275146e-03 1.64724756e-02 4.22810623e-03</_>
    <_>
      -2.02312991e-02 -1.54636288e-02 -2.57928912e-02 -2.58670188e-03
      -3.12654711e-02 3.02246743e-04 -7.06343865e-03 -4.30144928e-03
      -1.76868904e-02 -3.62995155e-02 -3.09715662e-02 -5.29422835e-02
      -1.19769583e-02 -2.42685638e-02 -2.39767134e-03 1.96313560e-02
      6.68266928e-03 -3.52507122e-02 1.69271678e-02 -1.34533811e-02
      -2.77294852e-02 1.75792153e-03 -1.06523214e-02 6.72131171e-03
      -6.08710200e-03 -1.81163289e-02 -5.02064591e-03 -6.24994449e-02
      -2.23906655e-02 1.01768598e-02 -1.15976520e-02 4.00452428e-02
      2.20386945e-02 4.92437221e-02 2.56724227e-02 -6.76728562e-02
      -4.98805642e-02 -2.84984056e-02 -3.89085561e-02 -5.50913485e-03
      -2.82075182e-02 -3.47293075e-03 8.77131242e-03 -1.16335612e-03
      -5.24462573e-02 -4.92336117e-02 -2.33721659e-02 -1.25636719e-02
      2.89303740e-03 1.24311624e-02 -1.23087130e-03 1.03380519e-03
      -9.20307357e-03 -5.82872443e-02 -1.01541635e-02 -1.73594672e-02
      -1.89119428e-02 -7.38593144e-03 2.01805914e-03 -5.97098551e-04
      2.79377680e-02 1.00040631e-02 -1.72290560e-02 -1.62411612e-02
      -2.34263036e-02 -1.03844274e-02 2.20885873e-03 -2.25345488e-03
      -7.27252429e-03 -9.82182566e-03 -1.98252592e-02 -1.62411612e-02
      -2.09691580e-02 -5.31048514e-03 7.65339890e-03 2.87638488e-03
      3.29113081e-02 2.98592146e-03 -3.90551332e-03 -9.08003747e-03
      -4.87599969e-02 -1.84715185e-02 1.36936372e-02 2.86184829e-02
      -3.85339983e-04 1.72415208e-02 1.58339145e-03 1.60101088e-04
      -1.43702524e-02 -3.36067788e-02 -4.90291379e-02 -1.15466230e-02
      -2.74998206e-03 4.77872440e-04 1.47822872e-02 1.02227095e-05
      -3.49296746e-03 -1.76996514e-02 -5.64399585e-02 -4.18992750e-02
      4.36616689e-03 9.22176987e-03 -6.93993270e-03 1.12280408e-02
      -7.02583371e-03 -9.13253869e-04 -2.53820568e-02 -4.18992750e-02
      -2.59827562e-02 -8.91363341e-03 7.20183738e-03 -3.52921966e-03
      2.60486584e-02 1.68995943e-03 8.94170068e-03 -6.17670082e-03
      -1.82269253e-02 -2.63737445e-03 -2.06504446e-02 -1.18618468e-02
      -1.66299450e-03 6.35565147e-02 2.59677926e-03 1.78870745e-02
      2.68950150e-03 -2.60378816e-03 -9.13654082e-03 -2.39194231e-03
      2.04955973e-02 -2.04942655e-02 5.96670294e-03 -8.10855534e-03
      1.06218802e-02 -1.65879205e-02 -7.07295863e-03 -6.02677576e-02
      -4.47594840e-03 -2.43128706e-02 -2.49315426e-02 1.44003406e-02
      2.02827398e-02 1.04064625e-02 -2.59718802e-02 -6.57545701e-02
      -5.26247825e-03 -7.45667145e-03 1.37323374e-03 2.20334786e-03
      5.19794188e-02 -3.79679981e-03 2.50233263e-02 8.14093463e-03
      -7.83255138e-03 -7.11995701e-04 -1.67261362e-02 -1.35923298e-02
      9.87005304e-04 2.88037639e-02 -1.02168918e-02 2.66826209e-02
      1.11794192e-02 2.27331324e-03 -4.85268757e-02 -2.18472611e-02
      -3.41634974e-02 -1.23646483e-02 3.56056504e-02 2.70772688e-02
      2.46677194e-02 -4.10859361e-02 -5.29873744e-02 -5.55028357e-02
      -1.56011963e-02 -2.04051118e-02 5.45979058e-03 -1.67444337e-03
      -9.56520904e-03 5.59490956e-02 -1.28807742e-02 -6.09727800e-02
      -1.72393899e-02 -1.26292510e-02 -9.62967146e-03 -2.94382824e-03
      1.79462042e-02 -1.20776733e-02 3.03485543e-02 1.80314258e-02
      4.63668769e-03 -1.80214085e-02 -1.33704031e-02 1.38878543e-03
      5.63029619e-03 2.76696701e-02 8.20564013e-03 4.41513695e-02
      2.09719930e-02 -4.63789562e-04 -5.02147526e-02 -9.85742360e-03
      -3.09716687e-02 -3.28306970e-03 -4.70290259e-02 -3.35431732e-02
      2.02427935e-02 3.16109450e-04 -5.75455911e-02 -2.30817907e-02
      -7.09304353e-03 -1.40912114e-02 -1.11125205e-02 -5.97949810e-02
      -9.15958721e-04 -1.29214572e-02 8.66612594e-04 -3.69660333e-02
      -5.62660024e-02 -2.33125929e-02 -1.07249869e-02 3.95749137e-03
      7.28079444e-03 -3.81820416e-03 4.82195057e-02 1.33332284e-02
      -3.87799591e-02 -3.57171446e-02 2.38400046e-03 -8.13201815e-03
      -1.81523827e-03 -1.56412609e-02 -1.83462426e-02 1.76973976e-02
      1.28887326e-03 -2.88097616e-02 -1.03467613e-01 1.43356423e-03
      9.31875035e-03 1.45022676e-03 -1.59508828e-02 2.90987222e-03
      2.19136123e-02 3.18982340e-02 -1.05196916e-01 1.75171284e-04
      8.07463843e-03 3.66728520e-03 -2.78809969e-03 -9.26302839e-03
      -3.57213877e-02 6.43587783e-02 7.89077301e-03 -1.66913923e-02
      -4.96122986e-03 -1.83565132e-02 -2.60356162e-02 -3.43940733e-03
      -1.76410971e-03 -1.84789263e-02 -2.90688500e-02 -2.42987741e-02
      -5.81428315e-03 1.11886971e-02 -5.80022633e-02 -2.69762222e-02
      -3.33434679e-02 3.51715609e-02 -5.86656341e-03 1.45961167e-02
      -1.98286888e-03 1.98119637e-02 -1.07299937e-02 -1.90546736e-02
      -1.59722883e-02 -7.88939465e-03 -2.77522374e-02 -4.45756093e-02
      4.92861960e-03 2.91908509e-03 1.59042384e-02 5.72913885e-02
      -6.70452863e-02 -5.07671647e-02 6.14955416e-03 1.60007197e-02
      -1.28186978e-02 5.66409761e-03 -3.09154927e-03 6.79534152e-02
      2.01590769e-02 -2.35354938e-02 -3.62815848e-03 -2.51406841e-02
      9.36759729e-03 -3.54441185e-03 1.25483787e-02 -5.39768534e-03
      2.38486398e-02 -6.72170985e-03 -1.06615825e-02 9.84164234e-03
      -1.69615895e-02 6.84673898e-03 -1.54649904e-02 -1.11846288e-03
      -3.66082252e-03 -1.71455704e-02 2.85436530e-02 -3.17505486e-02
      -1.49521679e-02 -4.15462367e-02 7.02551333e-03 2.15532607e-03
      -6.48028171e-03 -1.93149876e-02 1.05309766e-02 7.31250830e-03
      -5.27622644e-03 -1.48865697e-03 -2.80849058e-02 1.40872011e-02
      -4.01428863e-02 -3.73007841e-02 -1.69475116e-02 2.58304086e-02
      -6.87289145e-03 1.13122230e-02 -1.27925328e-03 -4.10643406e-03
      -1.97016820e-03 -1.02874637e-02 -4.93780244e-03 9.94960428e-04
      -8.07427242e-03 -1.14504574e-02 2.44149994e-02 5.11002447e-03
      3.68560577e-04 3.11280787e-02 -1.02943915e-03 -1.19658476e-02
      -1.01240864e-02 -2.14187000e-02 1.35226967e-02 1.11953693e-03
      -1.12525467e-02 -2.06980351e-02 -2.28518359e-02 -2.11606268e-02
      -4.11294624e-02 -2.23753229e-02 1.50813777e-02 9.39228293e-03
      1.44972187e-03 -1.34858731e-02 3.22898142e-02 2.66580004e-02
      1.62297543e-02 -3.82626355e-02 -2.87580919e-02 7.78021524e-03
      -1.99904963e-02 -6.90435944e-03 1.18272826e-02 -3.51138227e-03
      3.61238681e-02 7.00980949e-04 -1.21180322e-02 -1.54443430e-02
      -2.62309425e-02 -2.16503795e-02 -1.49149308e-02 -1.75407995e-02
      -1.04101971e-02 3.55740413e-02 1.51387313e-02 4.00170684e-03
      -1.88184343e-02 -3.46435718e-02 -1.26840780e-03 -2.02301946e-02
      2.61646812e-04 4.82351705e-03 7.09886551e-02 -1.38391946e-02
      -4.55321558e-02 -4.20752168e-02 -1.14355152e-02 -2.86879856e-03
      -9.73108690e-03 3.00983042e-02 -3.12580448e-03 5.47109507e-02
      -1.97317619e-02 -4.23645675e-02 -2.54199766e-02 4.87150945e-04
      -2.77370289e-02 -5.50415320e-03 -2.78500747e-02 -4.04613093e-03
      6.84241056e-02 3.50465700e-02 3.24845277e-02 -2.25831792e-02
      -3.18980054e-03 -5.49252145e-02 -1.34803364e-02 -2.06257366e-02
      1.23269577e-03 -3.31515931e-02 8.92680488e-04 -2.09662562e-06
      -3.32279950e-02 -5.01802228e-02 4.04091999e-02 -1.68778840e-02
      -5.96565381e-03 -3.53127439e-03 5.58176450e-02 4.53028770e-04
      -1.96434222e-02 -8.85674264e-03 9.11172573e-03 -4.59827147e-02
      -4.23639268e-02 -7.08422065e-02 -1.57174058e-02 -1.70664508e-02
      1.81162544e-02 -2.90333442e-02 -3.91310640e-02 -8.66217762e-02
      9.43900645e-03 2.41456702e-02 -1.54154031e-02 1.35068537e-03
      -3.25907990e-02 1.81937106e-02 8.90153181e-03 -9.21167247e-03
      -3.04256361e-02 1.95731851e-03 9.69381817e-03 -2.96472367e-02
      8.13321583e-03 -1.23981629e-02 3.81547622e-02 1.14961592e-02
      1.61058176e-02 -3.51008028e-02 -2.84017753e-02 8.24579969e-03
      -6.10608533e-02 7.51842279e-03 2.41100229e-03 5.23657650e-02
      1.12325260e-02 -3.21280845e-02 -3.66704538e-02 -2.79914439e-02
      1.18063390e-02 -1.79889314e-02 3.49453352e-02 -2.67503299e-02
      3.13514434e-02 -1.72716528e-02 -2.31062863e-02 -5.21051176e-02
      -5.93203306e-02 4.58918605e-03 -2.77250614e-02 1.37581462e-02
      -3.44944745e-02 1.30476095e-02 2.33355612e-02 -5.53989643e-03
      -6.47461265e-02 3.26087475e-02 2.51636133e-02 3.75250019e-02
      7.63449538e-03 -1.15250156e-03 -9.05572902e-03 3.47724631e-02
      9.56715178e-03 2.08842009e-02 -3.12259402e-02 2.02859342e-02
      -2.04309192e-03 2.18938682e-02 -3.47335599e-02 -2.09711455e-02
      -4.97962311e-02 -4.43101898e-02 -5.76871261e-02 -7.03183655e-03
      3.88197750e-02 2.45340597e-02 -6.97092619e-03 -2.01593004e-02
      -9.65467934e-03 1.74318571e-02 6.86651049e-03 -1.47407735e-02
      1.50137180e-02 4.93089203e-04 1.24074100e-02 -1.06975418e-02
      -2.95966193e-02 -5.09439595e-02 4.94387448e-02 2.08393726e-02
      1.56961400e-02 4.37460355e-02 -2.44711470e-02 -6.15973258e-03
      -4.45035957e-02 -1.94574650e-02 -4.48197406e-03 3.62221226e-02
      -1.93734566e-04 7.23152757e-02 5.12742400e-02 -1.23737939e-02
      -6.44854782e-03 -2.19711158e-02 -1.38108581e-02 -4.41798568e-02
      3.25252302e-02 5.00534242e-03 3.43322605e-02 7.53288949e-03
      -3.59378047e-02 -1.15162192e-03 -4.40341420e-02 -1.94574650e-02
      -2.18617339e-02 -2.14515626e-03 -1.70923062e-02 9.65434685e-03
      -2.52057593e-02 -1.16149010e-02 8.77226610e-03 -4.97104265e-02
      1.48061011e-02 2.75676195e-02 8.50155950e-03 -1.20872930e-02
      -1.32722193e-02 -4.68549458e-03 1.18466923e-02 1.79196633e-02
      -1.03544509e-02 1.88023224e-02 -3.30753103e-02 -3.13489586e-02
      -1.16761141e-02 3.15609202e-03 1.03865238e-03 -4.46795905e-03
      1.53686665e-02 -2.19686292e-02 1.41368890e-02 3.67444865e-02
      4.32573725e-03 -2.77243205e-04 -1.52564030e-02 1.05353454e-02
      3.17415968e-02 1.07058184e-02 1.50067192e-02 7.91437645e-03
      -2.35223640e-02 -2.77954303e-02 1.14155246e-03 -3.81405279e-03
      2.70395223e-02 5.32862358e-03 -6.52801886e-04 8.60577740e-04
      -5.56066073e-03 -1.73114296e-02 -2.46410035e-02 -8.76572542e-03
      9.95202176e-03 1.97665989e-02 -1.19004129e-02 -1.39183598e-02
      2.18670759e-02 6.89348252e-03 -4.04075626e-03 -2.54222210e-02
      -1.24486946e-02 3.05632371e-02 3.89397629e-02 4.15699854e-02
      7.85753410e-03 -1.18245417e-02 -1.13058230e-02 -1.74506027e-02
      -2.07023732e-02 -4.86180978e-03 -1.21281622e-02 2.52750386e-02
      -8.49502347e-03 -2.01432090e-02 -3.03340349e-02 6.89348252e-03
      -2.54282951e-02 -5.01165260e-03 -2.34122500e-02 2.22010829e-04
      1.77275424e-03 -2.01374628e-02 -8.82632332e-04 2.42076628e-03
      4.54163440e-02 -1.10404873e-02 -3.57182212e-02 -1.84058454e-02
      1.46182552e-02 -1.47046027e-04 8.46291613e-03 4.79528122e-02
      8.55136011e-03 3.74898389e-02 -5.73611166e-03 -3.22568528e-02
      -1.03222765e-02 2.30594841e-03 -2.42198277e-02 -4.31216098e-02
      -4.15997095e-02 -4.42731529e-02 1.95129886e-02 -3.60298939e-02
      -1.99808255e-02 -7.68835470e-03 -2.45939661e-02 -1.11562479e-02
      -1.97731517e-03 -8.56524333e-03 -3.31423357e-02 3.22975777e-02
      -1.96387172e-02 -1.07023604e-02 1.33398827e-02 -3.64454016e-02
      1.31842932e-02 -2.08704220e-03 9.24328901e-03 1.37580195e-02
      3.25336531e-02 -3.88826127e-03 -3.28807570e-02 -8.66352394e-03
      -2.03989539e-03 -6.51151761e-02 -3.20220888e-02 -6.40128329e-02
      -2.97339284e-03 7.38696707e-03 1.53314108e-02 -3.12450640e-02
      -1.66328307e-02 -6.72231391e-02 2.18579136e-02 1.01732044e-02
      2.02333778e-02 -9.27929487e-03 3.67737077e-02 -9.90120880e-03
      -1.36902491e-02 2.44384492e-03 -1.21825160e-02 -6.38590902e-02
      -1.18391048e-02 -4.21082675e-02 2.77214032e-03 1.94212850e-02
      7.72390328e-03 -5.52328080e-02 -2.17143595e-02 -6.40528575e-02
      -3.79930511e-02 2.35435814e-02 -2.76167560e-02 5.10382466e-02
      1.40686212e-02 5.41769117e-02 6.03376841e-03 1.11033879e-02
      -4.16326933e-02 -1.79277789e-02 2.43092366e-02 -6.30160002e-03
      7.50224590e-02 -2.24256217e-02 4.69379686e-02 -1.31938104e-02
      1.55714257e-02 -5.25407456e-02 -5.48010916e-02 3.20224389e-02
      -8.96219723e-03 7.34006315e-02 -2.99688056e-03 5.43703847e-02
      -4.12888080e-02 3.48842959e-03 -5.34296893e-02 -4.85718958e-02
      2.22094543e-02 -4.59399819e-02 8.99550095e-02 -1.84425637e-02
      3.72655727e-02 -7.02874660e-02 1.61858890e-02 -8.03560987e-02
      -4.35486846e-02 1.42119247e-02 -1.61487814e-02 5.97621873e-02
      -3.52397095e-03 1.70153715e-02 -2.06769072e-02 2.31292984e-03
      -6.27629384e-02 -6.71939878e-03 3.44082117e-02 1.29667278e-02
      2.62872018e-02 3.73126864e-02 4.64237705e-02 3.44354883e-02
      2.89307963e-02 -2.02095648e-03 -9.08675194e-02 -1.70680173e-02
      -1.06858835e-01 4.93571125e-02 -5.78299351e-03 5.70095843e-03
      -6.55673072e-02 9.43047367e-03 -1.11564696e-01 -5.36573976e-02
      6.74919039e-03 7.40428967e-03 3.81124020e-02 2.00396739e-02
      5.87037057e-02 -3.07388883e-03 3.03422660e-03 -5.53597324e-02
      5.90288639e-02 -1.62776019e-02 -1.80059019e-02 -1.18074231e-02
      -1.58847626e-02 -6.62387088e-02 -4.43345169e-03 -4.52361256e-03
      3.98183465e-02 6.10202290e-02 -1.60429943e-02 -6.78442372e-03
      1.31991773e-03 5.41792344e-03 -2.41154991e-02 -3.66446190e-02
      -8.01856536e-03 5.59257120e-02 -2.60564615e-03 -1.05490740e-02
      -1.14338063e-02 -1.29276086e-02 -3.78634371e-02 -5.41458875e-02
      -3.26245725e-02 -6.94027497e-03 -1.70115829e-02 8.29398930e-02
      -2.53502484e-02 -5.31576052e-02 -4.09698300e-03 7.59746321e-03
      -3.57099697e-02 -5.08724824e-02 -2.28549284e-03 7.41837621e-02
      2.72073243e-02 8.75273533e-03 -4.98118158e-03 -6.95492607e-03
      1.76885922e-03 -5.10384981e-03 -3.23730633e-02 -4.86701261e-03
      2.99733481e-03 3.41940112e-02 5.48077486e-02 -6.82846352e-04
      -2.13787220e-02 -4.93033081e-02 -3.31348628e-02 -5.50684482e-02
      -1.41896233e-02 7.10066268e-03 4.49028164e-02 4.62611584e-04
      -2.77576335e-02 -2.93065067e-02 1.55126890e-02 -1.45648168e-02
      -2.85160895e-02 -1.40465610e-02 2.84170937e-02 3.69421877e-02
      4.03274894e-02 -4.13745688e-03 -4.32395488e-02 -1.57078523e-02
      -1.25821400e-02 -4.33129780e-02 -3.23798098e-02 -6.72269380e-03
      4.06054519e-02 7.09624663e-02 2.99158636e-02 -1.19689684e-02
      -4.59954329e-02 -2.67683063e-02 -2.39189211e-02 -1.07765161e-02
      -7.53060449e-03 1.81961153e-02 5.19190496e-03 5.94744645e-03
      -4.30311970e-02 -1.85489131e-04 -3.55365798e-02 8.17051437e-03
      -1.33092068e-02 -2.32673548e-02 1.78310983e-02 4.43803668e-02
      3.77040245e-02 1.44971134e-02 -3.33695374e-02 -1.38115603e-02
      -1.99448895e-02 -1.42161325e-02 -1.81724094e-02 3.86595260e-03
      -1.11064622e-02 4.95984666e-02 -1.47081763e-02 -4.90087224e-03
      -3.54618318e-02 -4.66494355e-03 -9.48957819e-03 -3.36569585e-02
      -2.77261231e-02 -4.13427912e-02 -4.15127464e-02 -4.82580438e-02
      1.83936153e-02 -2.52308343e-02 2.31071655e-02 -5.91463526e-04
      -4.55153175e-02 1.04083642e-02 -3.24971341e-02 -3.18596326e-02
      -2.56521013e-02 4.36913557e-02 -2.02214485e-03 2.20548008e-02
      1.05594648e-02 -1.08601004e-02 -6.52642362e-03 -3.36239934e-02
      -3.25684017e-03 -2.23292429e-02 4.31774184e-02 -1.94506440e-02
      2.51454264e-02 -2.22740378e-02 -3.92820649e-02 -5.27458778e-03
      -2.44672317e-02 6.02072198e-03 -1.66551527e-02 5.30296676e-02
      -7.92246964e-03 2.85783522e-02 -1.01268739e-02 -6.44064974e-03
      3.56749408e-02 -2.33417507e-02 -1.69553410e-03 -2.93592438e-02
      3.06848604e-02 -2.79452391e-02 -2.35578381e-02 -5.95526164e-03
      1.12475501e-03 -4.31497730e-02 5.54208225e-03 -1.10424394e-02
      -4.04562429e-03 1.91251130e-03 -1.91603955e-02 -5.34331352e-02
      -2.87359264e-02 -4.86291386e-02 4.77572111e-03 -1.31550534e-02
      1.15205115e-02 -3.49088535e-02 4.25304994e-02 -3.84675041e-02
      -1.67393666e-02 -2.43582670e-02 1.53522221e-02 -6.65278314e-03
      2.01396719e-02 -5.95821487e-03 -1.92651916e-02 -1.04923341e-02
      -3.14990319e-02 -3.24820951e-02 -2.89881472e-02 -4.87773605e-02
      -4.24380340e-02 4.02479991e-02 2.52418425e-02 8.75148550e-02
      3.69307864e-03 5.73363602e-02 -3.00664157e-02 1.34370299e-02
      -2.88974382e-02 -5.23648933e-02 9.12978128e-03 -5.09142615e-02
      8.03159699e-02 -4.59403656e-02 3.62896696e-02 -6.87146187e-02
      3.22735645e-02 -5.96055835e-02 -2.49393675e-02 5.30873463e-02
      1.73258632e-02 9.46194753e-02 -1.04377205e-02 5.35089970e-02
      7.80082634e-03 1.81018580e-02 -4.36675772e-02 -7.10161850e-02
      1.30191790e-02 -7.00969994e-02 6.76898584e-02 -5.67780919e-02
      5.67253530e-02 -4.11467664e-02 4.15060483e-02 -6.11390285e-02
      -6.43725470e-02 -5.23822056e-03 -8.23380947e-02 3.77498530e-02
      -1.17280688e-02 3.08766626e-02 -3.60910110e-02 3.56628597e-02
      -6.67576566e-02 -4.24062610e-02 4.18310147e-03 2.11400948e-02
      4.39350642e-02 1.91385932e-02 6.34255037e-02 6.19907044e-02
      2.63991412e-02 -3.67930941e-02 -7.78595582e-02 1.08330986e-02
      -5.35837933e-02 3.72344144e-02 -3.86662371e-02 2.44723912e-02
      -6.44219035e-05 4.15298417e-02 -8.20475817e-02 -5.80887049e-02
      2.09751353e-02 5.15063815e-02 6.11170046e-02 9.62773431e-03
      4.99786399e-02 7.19775558e-02 3.56616415e-02 -3.34773622e-02
      -1.15922680e-02 -1.13925086e-02 -1.96541734e-02 -1.58969536e-02
      -6.42294511e-02 -3.05083897e-02 -2.24840790e-02 -8.22538324e-03
      -1.27934432e-02 7.58050606e-02 -3.75569388e-02 -6.70393482e-02
      -1.37734478e-02 1.14835482e-02 -3.17754708e-02 -3.71874385e-02
      -1.07582035e-02 9.88979563e-02 3.68081569e-03 -1.92330927e-02
      -3.76672111e-02 -9.56509169e-03 -7.49803782e-02 -2.73384177e-03
      -4.07337304e-03 -1.32942968e-03 4.44094837e-03 6.32514209e-02
      -5.09725250e-02 -5.36454245e-02 -4.15184349e-02 1.14835482e-02
      -2.35853810e-02 -1.10008824e-03 1.70604736e-02 7.05543756e-02
      2.82453932e-02 -1.68679599e-02 -4.92021255e-02 -4.58282679e-02
      -1.24175912e-02 4.44476074e-03 -1.13789765e-02 4.81413706e-04
      3.82143334e-02 -1.64615717e-02 -1.63741279e-02 -3.62258144e-02
      -4.28866446e-02 3.12480523e-04 2.70767845e-02 -1.19218156e-02
      -1.54163484e-02 -4.02369909e-02 2.02080924e-02 -2.46727336e-02
      -2.94146035e-02 -4.80896793e-02 -6.96184998e-03 1.28094368e-02
      1.57460719e-02 3.07962988e-02 4.00365144e-02 1.43870618e-02
      -1.45143159e-02 -2.55333465e-02 -2.03624573e-02 -5.33127366e-03
      3.06058731e-02 1.55831265e-04 1.97177827e-02 1.78606529e-02
      -2.07891930e-02 -6.68561365e-03 -1.13426382e-02 -2.83048279e-03
      -2.02253684e-02 5.11512859e-03 -2.32879026e-03 3.47897504e-03
      -3.32592726e-02 -2.45652925e-02 -2.08324846e-02 3.58927771e-02
      3.88276577e-03 3.89395771e-03 -1.26649812e-02 1.81558693e-03
      -1.54884541e-02 -4.06062268e-02 1.71094276e-02 1.52850953e-05
      -1.31836571e-02 7.22067989e-03 -6.25221711e-03 7.53054861e-03
      3.90245533e-03 3.15296315e-02 1.11761037e-02 1.33857047e-02
      9.90423188e-03 1.75767541e-02 2.42151618e-02 -3.82660725e-03
      1.26359090e-02 1.21699115e-02 3.83936241e-02 3.66752059e-03
      -1.24413138e-02 -3.82413417e-02 1.65532585e-02 -2.70928573e-02
      5.57768941e-02 -2.84613464e-02 3.37804295e-03 -4.79644239e-02
      -3.65110040e-02 -5.98738762e-03 -1.58779621e-02 3.49608362e-02
      -3.87039967e-02 5.68271875e-02 -3.39504592e-02 6.98713120e-03
      -3.66645940e-02 -4.57171304e-03 -4.70863432e-02 -1.68153476e-02
      8.42903368e-03 -2.61370707e-02 2.08958518e-02 -3.36683430e-02
      -4.98352339e-03 -9.42115486e-03 -4.17717583e-02 2.23866198e-03
      9.32245422e-03 5.32196686e-02 -7.36884959e-03 3.57156396e-02
      -4.16481793e-02 -3.19011323e-02 -2.72685569e-02 1.89841185e-02
      9.53266304e-03 1.60228659e-03 4.76515666e-02 -3.38072814e-02
      5.28131537e-02 -2.99298335e-02 -1.66106429e-02 -4.26283292e-02
      1.19637717e-02 -2.34508198e-02 1.35426195e-02 -3.64202377e-03
      -2.83485260e-02 3.33054777e-04 -1.68612059e-02 -5.04325749e-03
      -1.31989084e-02 -4.34683971e-02 1.20808473e-02 -1.03494693e-02
      2.75044031e-02 -5.01255319e-03 5.73431104e-02 -2.88323723e-02
      -3.82507890e-02 -4.46406156e-02 8.67745839e-03 -6.47085458e-02
      -3.42378877e-02 -5.00729494e-02 -4.83444780e-02 -2.18660571e-02
      -1.52816402e-03 -2.99198721e-02 -2.70518288e-02 -6.26739189e-02
      -5.86264692e-02 1.85665879e-02 -1.68160275e-02 4.95341867e-02
      1.96799524e-02 3.41453776e-02 2.04670411e-02 9.29597672e-03
      -7.56841078e-02 -8.40921253e-02 3.69939441e-03 -7.19412789e-02
      5.31654917e-02 -3.94408740e-02 3.80681008e-02 -4.36695404e-02
      7.53397215e-03 -8.95963758e-02 -6.91420659e-02 2.28864569e-02
      -2.08421275e-02 6.31358176e-02 1.18985726e-02 7.11739659e-02
      1.19623877e-02 7.26016006e-03 -6.30067885e-02 -5.85109070e-02
      1.59832630e-02 -2.33480260e-02 6.72181770e-02 -8.08680803e-03
      8.83217454e-02 -1.15444523e-03 1.51644377e-02 -5.14869727e-02
      -8.64888057e-02 -7.07303814e-04 -3.87714580e-02 1.47143686e-02
      -4.34606224e-02 -9.26737487e-03 -3.50697562e-02 4.76806192e-03
      -1.11454941e-01 -3.80873606e-02 1.03374105e-02 4.59573641e-02
      3.88408639e-02 1.37975859e-02 1.70118697e-02 2.33683828e-02
      1.26067335e-02 -4.06560190e-02 -5.15595786e-02 -1.02352966e-02
      -4.18436937e-02 2.50315368e-02 -1.60948578e-02 3.55626829e-02
      -2.13455148e-02 1.39594935e-02 -3.68378013e-02 2.01029368e-02
      2.18149368e-02 3.75561155e-02 6.05991110e-02 7.54045621e-02
      3.20846438e-02 1.87335275e-02 1.09199630e-02 2.56680250e-02
      -8.59423354e-03 -7.80677609e-03 -1.20200273e-02 -3.69343394e-03
      -4.59191911e-02 5.15611563e-03 -1.33067043e-02 -5.37118176e-03
      -8.59572086e-03 4.15335894e-02 -2.81173526e-03 3.14937308e-02
      -1.97968110e-02 4.71841730e-02 -4.75508273e-02 5.90779632e-03
      8.66219960e-03 3.85944359e-02 -6.44460972e-03 -7.23646767e-03
      -1.32097965e-02 2.21077888e-03 -5.59166521e-02 -6.62648538e-03
      -3.22113037e-02 -1.46291815e-02 8.37645307e-03 2.47516725e-02
      7.21766520e-03 7.51400506e-03 -2.01410316e-02 4.50963229e-02
      -1.05048202e-01 -4.29138839e-02 -7.30041116e-02 -1.59982610e-02
      3.70872095e-02 -1.50871389e-02 5.71216084e-03 -4.80767861e-02
      1.89146213e-02 -3.90623845e-02 -1.78687507e-03 -1.33090029e-02
      2.49370188e-02 5.13796881e-02 6.34524040e-04 -4.34472924e-03
      4.51529602e-04 1.69714261e-02 7.53088854e-03 6.50161784e-03
      4.38857125e-03 4.28098142e-02 -2.38814428e-02 2.19206349e-03
      1.58206429e-02 -2.75995824e-02 1.14919581e-02 -5.83841167e-02
      -3.02279219e-02 -8.47946331e-02 -3.32767591e-02 5.11122867e-03
      4.89317672e-03 9.59362555e-03 8.17497447e-03 6.00501299e-02
      1.64553858e-02 7.05071166e-03 -4.58310172e-02 1.10216131e-02
      5.19945659e-02 8.23959988e-03 -1.74173228e-02 1.22188693e-02
      -1.02195544e-02 -1.37877828e-02 -1.50210960e-02 1.25995735e-02
      5.09246476e-02 4.51721027e-02 4.50140797e-03 -8.69883318e-03
      1.18179889e-02 -2.61519123e-02 -1.38571123e-02 -4.33756877e-03
      1.84027217e-02 3.28247175e-02 -2.08830684e-02 -7.81654846e-03
      -1.16427019e-02 8.94817989e-03 3.46551463e-02 7.00570224e-03
      -3.99581017e-03 -3.72486897e-02 -1.84112322e-02 -1.29428273e-02
      -5.81750320e-03 -6.37157448e-03 9.57361597e-04 3.51654924e-02
      -1.33289276e-02 2.38552801e-02 -3.16182040e-02 -1.81797314e-02
      -2.32297368e-02 -1.01100421e-02 2.88774353e-03 4.63310350e-03
      9.33858752e-03 -2.58604996e-02 -1.24084968e-02 1.12136081e-02
      -1.86623186e-02 -1.79462545e-02 1.74683251e-03 2.55395174e-02
      3.82777699e-03 2.45337803e-02 -2.38197949e-02 -4.61216234e-02
      -1.31668271e-02 4.09075618e-03 1.59855317e-02 -2.42540706e-03
      1.09562362e-02 -1.68907596e-03 5.93464337e-02 -3.12512508e-03
      2.64400262e-02 -2.08095014e-02 2.65985169e-03 1.38934013e-02
      1.42710935e-03 2.03779750e-02 -1.56343970e-02 4.48681079e-02
      -3.60795576e-03 1.55668547e-02 -9.00011975e-03 -2.81262095e-03
      -3.86970788e-02 -1.06203817e-02 8.32936727e-03 2.07401550e-04
      5.89867048e-02 -1.21681942e-02 -2.94384006e-02 -3.98582593e-03
      -8.66875798e-03 -9.69033390e-02 -3.78117524e-02 -4.36103083e-02
      -2.96484176e-02 -1.63435824e-02 1.06630344e-02 -1.84973683e-02
      -1.60336739e-03 -4.64146324e-02 -4.82326280e-03 -1.46202231e-02
      1.11522386e-02 -1.33322785e-02 5.17230034e-02 -5.15442621e-03
      1.19295865e-02 1.59480283e-03 -1.56227043e-02 -7.21932389e-03
      -2.41962224e-02 -2.69497149e-02 -2.94694342e-02 1.14816939e-02
      2.48676930e-02 3.25706825e-02 1.60324425e-02 -6.46230998e-03
      -8.78781006e-02 -3.08301672e-02 -7.02030137e-02 -9.12893098e-03
      -3.67477573e-02 4.33138274e-02 -1.67099424e-02 -1.29582435e-02
      -4.74104062e-02 -7.81252310e-02 -1.71169601e-02 -3.32479328e-02
      1.66716464e-02 -3.43853980e-02 3.65624502e-02 -3.27598378e-02
      -1.72849174e-03 -6.99917972e-02 2.33035218e-02 -2.18150467e-02
      -1.25361998e-02 -2.03836858e-02 6.21674582e-03 3.01266760e-02
      5.56940734e-02 2.81478334e-02 4.29708250e-02 1.56190600e-02
      3.64223123e-02 5.96429296e-02 1.85763072e-02 -1.09052090e-02
      5.16634481e-03 8.60102288e-03 2.27534641e-02 1.28212767e-02
      -7.95179754e-02 -9.79023520e-03 -3.73243131e-02 -1.18156821e-02
      -6.01913258e-02 1.10605322e-02 -1.42946877e-02 -2.18376541e-03
      -6.67178705e-02 2.94149318e-03 9.11086099e-04 6.04418553e-02
      1.82655044e-02 -1.05750491e-03 4.63770702e-03 -9.48872697e-03
      -9.09450185e-03 -3.71542037e-03 -4.50664498e-02 3.31581123e-02
      8.46567452e-02 -1.08944848e-02 -1.38987424e-02 -1.09258201e-02
      1.48761850e-02 1.32267214e-02 -4.04343531e-02 1.13993860e-03
      3.80074605e-02 6.89078793e-02 1.02990842e-03 4.38149832e-02
      -1.44401263e-03 4.07455824e-02 2.10712496e-02 1.02172168e-02
      2.72915568e-02 -1.51242185e-02 -4.32316884e-02 -5.18549886e-03
      -3.75359692e-02 -7.10578030e-03 -2.55313888e-02 -1.20894033e-02
      3.37877013e-02 1.94930714e-02 -2.78120898e-02 -5.99128939e-02
      -1.88591778e-02 7.68863261e-02 -6.13571666e-02 -3.00562400e-02
      -1.04747549e-01 2.36804951e-02 9.41272732e-03 -1.00803226e-02
      -3.04514021e-02 -1.71972916e-03 -2.71126404e-02 -1.95505237e-03
      4.80138650e-03 9.39112855e-04 8.90321471e-03 -5.11989780e-02
      -2.54198033e-02 -6.10251091e-02 -7.61398813e-03 -2.87157837e-02
      -4.80015995e-03 2.14460678e-02 1.01335747e-02 -3.27932723e-02
      -1.40429847e-02 -3.84327676e-03 -1.99428499e-02 -1.15163699e-02
      3.16574946e-02 -3.98685411e-02 -1.32544839e-03 -4.31655124e-02
      -1.76056866e-02 2.31302604e-02 -9.87964030e-03 -1.24416770e-02
      -8.14489182e-03 3.84802744e-02 2.28224159e-03 1.21229365e-02
      -2.55833194e-02 2.65857484e-02 -2.07182299e-02 -1.22601381e-02
      -3.56155224e-02 -9.39326268e-03 -6.06738478e-02 -7.70573365e-03
      2.88662575e-02 1.42469918e-02 -1.51587455e-02 -1.47524262e-02
      -1.41535206e-02 -3.88080589e-02 -1.59498490e-02 -6.86854869e-03
      -7.04292208e-03 2.17547175e-02 1.05207022e-02 -1.45458672e-02
      1.45298801e-03 -1.49986194e-02 3.52741615e-03 -6.56097382e-03
      3.62992361e-02 -1.23746339e-02 -1.29169421e-04 -2.41019335e-02
      5.55651914e-03 2.30275630e-03 -4.36450791e-04 1.88935436e-02
      -2.28783488e-03 4.40015234e-02 -1.28905810e-02 5.32870516e-02
      2.04908266e-03 6.24425337e-03 -3.15287746e-02 -6.88233273e-03
      -1.05470167e-02 -1.48892803e-02 -9.60618630e-03 -2.20509358e-02
      5.14791207e-03 -9.02054308e-04 -4.13736962e-02 -2.06692051e-02
      -1.05014015e-02 -1.36639262e-02 -4.87130787e-03 1.95441786e-02
      -1.95785761e-02 2.38921065e-02 1.40632468e-03 -2.27433871e-02
      -2.46723965e-02 6.23618066e-03 1.33528300e-02 -2.39265524e-03
      6.99656233e-02 6.85133366e-03 5.82496859e-02 -1.73703200e-04
      -2.04162914e-02 -2.86524706e-02 2.91540958e-02 4.13350612e-02
      7.07185036e-03 7.99066946e-02 2.89926631e-03 5.43196537e-02
      -5.36336447e-04 -3.59339863e-02 -3.34841833e-02 -2.63507525e-03
      -5.65563515e-03 -2.99991784e-03 3.96871455e-02 -5.51108271e-03
      3.10461409e-02 -3.48809175e-03 -3.27802375e-02 -2.05244347e-02
      8.41542985e-03 3.25398222e-02 4.88877809e-03 2.82789730e-02
      -2.98914127e-03 1.40568186e-02 -1.77429803e-02 -3.54415388e-03
      -1.15274340e-02 1.68286227e-02 3.59265432e-02 2.42733154e-02
      6.93302974e-02 2.99225561e-03 2.05497704e-02 -1.64439287e-02
      -2.00138483e-02 -4.89913626e-04 3.44622327e-04 9.67476371e-05
      -3.61161679e-03 6.80439845e-02 1.38225481e-02 3.60123850e-02
      8.25035479e-03 -2.56529674e-02 -1.75870638e-02 1.04285823e-03
      4.42739986e-02 1.17061874e-02 1.87843107e-02 -1.31720500e-02
      -3.54894958e-02 -3.96054350e-02 -7.34526012e-03 -1.60208531e-02
      -5.35269501e-03 3.55885252e-02 -1.01897086e-03 -9.74896085e-03
      -1.69794932e-02 -9.61745251e-03 -4.06663306e-02 -2.08945982e-02
      1.27571952e-02 -3.24255377e-02 9.11979936e-03 -2.40882467e-02
      -1.98123250e-02 -3.23741557e-03 3.95184755e-02 1.72797311e-02
      1.99977495e-03 1.12923766e-02 3.61564308e-02 8.26812536e-02
      -1.47661678e-02 -1.97422896e-02 -2.52471659e-02 2.18795929e-02
      1.64305698e-02 6.33038441e-03 -7.86069036e-03 -5.02490392e-03
      2.50970330e-02 -6.27946400e-04 -1.94880906e-02 -1.14973811e-02
      -4.28043678e-03 -3.68840471e-02 -1.04126362e-02 -6.35162054e-04
      -2.87828292e-03 3.79218049e-02 -8.32246244e-03 -1.24711888e-02
      -1.58031695e-02 -1.95638631e-02 -2.16729771e-02 -1.13444394e-02
      -3.40220705e-02 5.62453344e-02 6.83298111e-02 -2.38576159e-02
      -2.74438597e-02 -4.59449850e-02 2.73841852e-03 1.43732037e-02
      -2.72108652e-02 7.86293764e-03 3.43832299e-02 6.99191988e-02
      -1.99599396e-02 3.87528129e-02 -2.18741074e-02 4.59855124e-02
      2.55007949e-02 2.40816437e-02 -2.75632609e-02 7.65798008e-03
      7.40427598e-02 -1.41183194e-02 -2.36558542e-02 -1.20851109e-02
      -2.41675805e-02 -1.24038588e-02 -4.43587117e-02 -1.16631836e-02
      8.85900017e-03 2.62894314e-02 -1.54636130e-02 -5.08985482e-02
      -5.38323121e-03 -9.10905190e-03 -5.09264506e-03 -1.66345164e-02</_></support_vectors>
  <uncompressed_sv_total>27</uncompressed_sv_total>
  <uncompressed_support_vectors>
    <_>
      4.28119041e-02 4.76304349e-03 2.76896283e-02 5.03972080e-03
      9.31641310e-02 0. 1.01946473e-01 4.16359678e-02 6.40844405e-02
      1.13192536e-01 2.81957388e-02 1.69586167e-01 2.58624330e-02
      1.78258911e-01 0. 2.04815373e-01 7.66687542e-02 1.44157007e-01
      1.09348379e-01 2.30023209e-02 9.60165039e-02 1.41272712e-02
      3.01166892e-01 9.46024805e-03 3.01166892e-01 1.76338360e-01
      1.96155608e-01 3.01166892e-01 1.24970421e-01 3.01166892e-01
      1.16428554e-01 3.01166892e-01 3.13487127e-02 3.01166892e-01
      2.63393015e-01 3.01166892e-01 8.60406309e-02 3.32470722e-02
      1.17175356e-01 1.62373334e-02 1.25247881e-01 5.59583947e-04
      5.48709743e-02 2.28969753e-02 9.21091437e-02 9.93715823e-02
      4.56091203e-02 1.24244854e-01 8.43200926e-03 1.22521564e-01
      4.07669554e-03 5.28964363e-02 2.94804759e-02 1.08872220e-01
      3.04396838e-01 1.98258489e-01 3.04396838e-01 7.95221776e-02
      3.04396838e-01 1.81735083e-02 1.51973486e-01 6.98323548e-02
      3.04396838e-01 3.04396838e-01 2.06628591e-01 3.04396838e-01
      2.67027710e-02 2.95533776e-01 1.23585863e-02 1.58123881e-01
      1.01483971e-01 3.04396838e-01 1.03210486e-01 3.69681306e-02
      1.39114290e-01 1.67338643e-02 1.61116630e-01 1.71877369e-02
      1.49723124e-02 9.02545080e-03 1.22965217e-01 1.52339026e-01
      4.15836312e-02 1.01263635e-01 2.10389718e-02 2.40555614e-01
      2.52618399e-02 3.57179418e-02 1.50727481e-02 1.59974158e-01
      3.14520210e-01 1.06440842e-01 2.96607256e-01 3.25544141e-02
      3.14520210e-01 4.61954959e-02 4.13256288e-02 4.48889434e-02
      3.14520210e-01 3.14520210e-01 1.41332671e-01 2.40759581e-01
      5.58873489e-02 3.14520210e-01 7.03855455e-02 1.03518181e-01
      7.61485174e-02 3.14520210e-01 1.33206636e-01 4.00420278e-02
      6.11279123e-02 1.21633308e-02 1.84558749e-01 2.68665459e-02
      5.84212951e-02 1.72444154e-02 1.33003607e-01 1.12194024e-01
      6.07958846e-02 9.78924036e-02 8.80477019e-03 1.52860358e-01
      3.64286602e-02 1.62202381e-02 3.50139500e-03 1.39684275e-01
      3.13079983e-01 1.70361742e-01 1.64480805e-01 4.78410795e-02
      3.13079983e-01 9.29339677e-02 1.59907237e-01 7.08696917e-02
      3.13079983e-01 3.13079983e-01 2.53704846e-01 2.69373327e-01
      2.70317886e-02 3.13079983e-01 1.39081329e-01 4.64026034e-02
      4.65362407e-02 3.13079983e-01 1.48566112e-01 4.58575226e-02
      6.35115132e-02 2.31863968e-02 1.90523013e-01 2.53458414e-02
      6.17998326e-03 8.93400330e-03 1.61595494e-01 1.58506528e-01
      8.12849123e-03 5.04544284e-03 2.94869822e-02 2.18503296e-01
      2.43771859e-02 5.42654134e-02 3.18299793e-02 1.54990494e-01
      3.09059113e-01 1.83212683e-01 1.88845694e-01 4.89977114e-02
      3.09059113e-01 7.72892162e-02 5.90253808e-02 1.47135600e-01
      3.09059113e-01 3.09059113e-01 3.80299725e-02 1.79675631e-02
      5.52309230e-02 3.09059113e-01 5.71468025e-02 2.06754997e-01
      2.75526434e-01 3.09059113e-01 1.46611378e-01 2.62037909e-04
      4.17037576e-04 2.95045823e-02 2.12128788e-01 2.73082145e-02
      7.89677054e-02 2.91437246e-02 1.22663662e-01 1.59137741e-01 0. 0.
      3.92794870e-02 2.25543499e-01 1.82325318e-02 9.76642817e-02
      2.72983406e-02 1.26511589e-01 3.16094726e-01 7.17800483e-03
      3.51434643e-03 9.71660465e-02 3.16094726e-01 7.03242198e-02
      2.27431849e-01 1.69066355e-01 3.16094726e-01 3.16094726e-01
      1.06502138e-03 3.74047850e-05 1.45745367e-01 3.16094726e-01
      5.81135973e-02 2.68265009e-01 1.06773466e-01 3.16094726e-01
      1.69145420e-01 1.81569450e-03 5.43322973e-03 2.16274578e-02
      1.51041299e-01 4.65268549e-03 5.16488329e-02 1.41087202e-02
      1.62001938e-01 2.90160239e-01 3.52736264e-02 1.36730731e-01
      1.54362442e-02 1.35781780e-01 4.66681644e-03 1.48594030e-04
      1.66357984e-03 2.35163406e-01 3.22146952e-01 3.00387782e-03
      6.98558101e-03 7.24730045e-02 3.22146952e-01 4.46590856e-02
      1.39470488e-01 9.59473252e-02 3.22146952e-01 3.22146952e-01
      5.37469275e-02 2.30371863e-01 9.02718678e-02 3.22146952e-01
      9.12815183e-02 2.74127517e-02 7.59142786e-02 3.22146952e-01
      8.67375359e-02 4.36456725e-02 1.37493402e-01 1.09205442e-02
      2.81518936e-01 9.78953857e-03 1.86413184e-01 8.59129876e-02
      1.25382051e-01 3.60764027e-01 1.34663805e-01 3.60764027e-01
      1.66194171e-01 3.60764027e-01 6.38689995e-02 2.64820963e-01
      1.12397946e-01 3.17540228e-01 3.42571437e-02 2.01955177e-02
      6.46994039e-02 4.08599060e-03 1.36868626e-01 6.52635936e-04
      6.44970918e-03 2.02982710e-03 3.42571437e-02 8.64832476e-02
      5.35615683e-02 1.51315421e-01 1.05757497e-01 3.60764027e-01
      4.31571715e-02 1.77036263e-02 2.57459981e-03 6.60487935e-02
      3.04352820e-01 1.14412867e-01 1.63347587e-01 9.40693393e-02
      3.04352820e-01 4.62273210e-02 5.61090037e-02 2.57621203e-02
      2.22265795e-01 3.04352820e-01 9.34429765e-02 1.10710718e-01
      2.04459075e-02 9.76394489e-02 2.19120886e-02 7.92214572e-02
      7.29817972e-02 3.04352820e-01 1.75530866e-01 5.85748367e-02
      6.91224858e-02 1.16288655e-01 3.04352820e-01 4.50528562e-02
      3.37872021e-02 1.27899405e-02 1.45151779e-01 3.04352820e-01
      5.71186617e-02 5.77568822e-02 8.94119442e-02 3.04352820e-01
      4.70896438e-02 9.44318548e-02 7.90169314e-02 3.04352820e-01
      2.81591296e-01 5.00313789e-02 9.32353511e-02 1.07066380e-02
      1.13562129e-01 3.03889811e-02 5.37963286e-02 6.68654814e-02
      2.81591296e-01 2.81591296e-01 9.59007964e-02 1.07248500e-01
      3.30145434e-02 1.70233756e-01 3.68732736e-02 5.24266027e-02
      6.10931925e-02 2.81591296e-01 2.81591296e-01 4.15357165e-02
      6.19214140e-02 6.39775842e-02 2.81591296e-01 9.41860899e-02
      1.17011726e-01 8.66624564e-02 2.81591296e-01 2.81591296e-01
      1.32370353e-01 1.81051224e-01 1.80734545e-01 2.81591296e-01
      1.31209195e-01 8.90068561e-02 8.29969943e-02 1.94215417e-01
      2.62781829e-01 1.22540951e-01 7.35020339e-02 3.07637360e-02
      1.25182971e-01 3.35593969e-02 6.08884096e-02 4.87891398e-02
      2.62781829e-01 2.62781829e-01 1.18815511e-01 9.40177664e-02
      1.78818293e-02 1.59998178e-01 6.45474344e-02 5.75112626e-02
      6.88284785e-02 2.62781829e-01 2.62781829e-01 1.63207278e-01
      1.42058566e-01 1.82681635e-01 2.62781829e-01 9.14520621e-02
      7.90800229e-02 1.27511680e-01 2.62781829e-01 2.62781829e-01
      6.99108541e-02 7.54881501e-02 1.43090099e-01 2.45260984e-01
      1.13766253e-01 1.70735821e-01 1.61787659e-01 2.62781829e-01
      2.79673219e-01 6.40784428e-02 7.36958981e-02 3.37817408e-02
      2.79673219e-01 5.16715348e-02 7.18065575e-02 1.07359335e-01
      2.79673219e-01 2.44648889e-01 3.54653001e-02 4.91399691e-02
      4.12344225e-02 2.47452289e-01 3.57301943e-02 9.65204537e-02
      1.57371283e-01 2.79673219e-01 8.05739537e-02 1.97744258e-02
      9.16840285e-02 1.62371367e-01 2.79673219e-01 7.28429034e-02
      1.79896146e-01 6.94943368e-02 1.15882047e-01 2.00753808e-01
      1.65291950e-01 2.79673219e-01 1.74719065e-01 2.79673219e-01
      4.53403182e-02 1.05672196e-01 4.14804146e-02 2.17173055e-01
      2.60650128e-01 1.73492152e-02 2.35046800e-02 3.62020694e-02
      1.02716938e-01 2.43738517e-02 7.17982203e-02 7.81503320e-02
      2.68205345e-01 2.68205345e-01 7.44750071e-03 2.20917817e-02
      6.68810233e-02 1.32645413e-01 1.84087120e-02 6.98824674e-02
      4.68563810e-02 2.68205345e-01 2.33703002e-01 1.05305597e-01
      2.14758635e-01 6.55962974e-02 2.68205345e-01 6.94140196e-02
      1.79417074e-01 6.79635108e-02 2.68205345e-01 2.53012121e-01
      3.48732434e-02 2.68205345e-01 1.31215796e-01 2.68205345e-01
      6.18379116e-02 2.68205345e-01 9.89808068e-02 2.13258818e-01
      2.64781445e-01 7.36971432e-03 1.62514430e-02 3.30256224e-02
      1.18428968e-01 2.74414849e-02 4.85734791e-02 8.65335315e-02
      2.64781445e-01 2.18295231e-01 9.85447969e-03 3.61709706e-02
      3.76659073e-02 2.64781445e-01 7.07817823e-02 4.95375320e-02
      8.26111883e-02 2.64781445e-01 2.64781445e-01 5.51021993e-02
      2.64781445e-01 7.94145614e-02 2.64781445e-01 6.72752634e-02
      2.64781445e-01 2.03166708e-01 2.64781445e-01 1.02098130e-01
      4.15942185e-02 7.33066574e-02 5.76971695e-02 2.64781445e-01
      9.10105482e-02 2.64781445e-01 1.44815043e-01 1.73479214e-01
      7.15488847e-03 0. 0. 0. 1.34993628e-01 0. 0. 0. 7.15488847e-03
      2.83482075e-02 6.61082566e-02 2.95087323e-02 1.12119749e-01
      6.71817541e-01 5.83512038e-02 4.44719493e-02 2.17323899e-02
      1.83707774e-02 0. 0. 0. 0. 1.54692993e-01 0. 0. 0. 0.
      8.03064462e-03 5.59350699e-02 2.53226738e-02 7.01698586e-02
      6.71817541e-01 7.61594698e-02 7.94600323e-02 5.17092049e-02
      2.38341023e-03 1.35178685e-01 9.19679701e-02 4.17273007e-02
      1.01624973e-01 3.16613853e-01 6.20194897e-02 5.27419001e-02
      3.03303804e-02 1.40521482e-01 3.16613853e-01 9.42611024e-02
      6.32622764e-02 1.41486481e-01 3.16613853e-01 1.08831950e-01
      7.65276328e-02 7.35106915e-02 3.16613853e-01 9.81909484e-02
      6.84992969e-02 3.80407684e-02 7.11964369e-02 3.16613853e-01
      8.65006670e-02 9.00221169e-02 6.91014007e-02 1.08542576e-01
      3.16613853e-01 9.20031145e-02 8.56006593e-02 1.20950244e-01
      1.89181224e-01 1.30982384e-01 1.29586950e-01 1.40957057e-01
